<?xml version="1.0"?>
<MethodSetup Method="BDT::BDTG">
  <GeneralInfo>
    <Info name="TMVA Release" value="4.2.0 [262656]"/>
    <Info name="ROOT Release" value="5.34/18 [336402]"/>
    <Info name="Creator" value="botta"/>
    <Info name="Date" value="Tue Jan 20 17:28:48 2015"/>
    <Info name="Host" value="Linux cmsdev02.cern.ch 2.6.32-431.23.3.el6.x86_64 #1 SMP Wed Jul 30 09:43:11 CEST 2014 x86_64 x86_64 x86_64 GNU/Linux"/>
    <Info name="Dir" value="/afs/cern.ch/user/b/botta/CMGToolsGit/newRecipe72/CMSSW_7_2_3/src/CMGTools/TTHAnalysis/macros/leptons/trainingPHYS14leptonMVA_good2"/>
    <Info name="Training events" value="35082"/>
    <Info name="TrainingTime" value="3.99351010e+01"/>
    <Info name="AnalysisType" value="Classification"/>
  </GeneralInfo>
  <Options>
    <Option name="V" modified="Yes">False</Option>
    <Option name="VerbosityLevel" modified="No">Default</Option>
    <Option name="VarTransform" modified="No">None</Option>
    <Option name="H" modified="Yes">False</Option>
    <Option name="CreateMVAPdfs" modified="Yes">True</Option>
    <Option name="IgnoreNegWeightsInTraining" modified="No">False</Option>
    <Option name="NTrees" modified="Yes">500</Option>
    <Option name="MaxDepth" modified="Yes">2</Option>
    <Option name="MinNodeSize" modified="No">0.2850463.2</Option>
    <Option name="nCuts" modified="Yes">2000</Option>
    <Option name="BoostType" modified="Yes">Grad</Option>
    <Option name="AdaBoostR2Loss" modified="No">quadratic</Option>
    <Option name="UseBaggedBoost" modified="No">False</Option>
    <Option name="Shrinkage" modified="Yes">1.000000e-01</Option>
    <Option name="AdaBoostBeta" modified="No">5.000000e-01</Option>
    <Option name="UseRandomisedTrees" modified="No">False</Option>
    <Option name="UseNvars" modified="Yes">9</Option>
    <Option name="UsePoissonNvars" modified="No">True</Option>
    <Option name="BaggedSampleFraction" modified="No">6.000000e-01</Option>
    <Option name="UseYesNoLeaf" modified="No">True</Option>
    <Option name="NegWeightTreatment" modified="No">ignorenegweightsintraining</Option>
    <Option name="Css" modified="No">1.000000e+00</Option>
    <Option name="Cts_sb" modified="No">1.000000e+00</Option>
    <Option name="Ctb_ss" modified="No">1.000000e+00</Option>
    <Option name="Cbb" modified="No">1.000000e+00</Option>
    <Option name="NodePurityLimit" modified="No">5.000000e-01</Option>
    <Option name="SeparationType" modified="No">giniindex</Option>
    <Option name="DoBoostMonitor" modified="No">False</Option>
    <Option name="UseFisherCuts" modified="No">False</Option>
    <Option name="MinLinCorrForFisher" modified="No">8.000000e-01</Option>
    <Option name="UseExclusiveVars" modified="No">False</Option>
    <Option name="DoPreselection" modified="No">False</Option>
    <Option name="SigToBkgFraction" modified="No">1.000000e+00</Option>
    <Option name="PruneMethod" modified="Yes">costcomplexity</Option>
    <Option name="PruneStrength" modified="Yes">5.000000e+00</Option>
    <Option name="PruningValFraction" modified="No">5.000000e-01</Option>
    <Option name="nEventsMin" modified="Yes">100</Option>
    <Option name="UseBaggedGrad" modified="Yes">False</Option>
    <Option name="GradBaggingFraction" modified="No">6.000000e-01</Option>
    <Option name="UseNTrainEvents" modified="No">0</Option>
    <Option name="NNodesMax" modified="Yes">9</Option>
  </Options>
  <Variables NVar="9">
    <Variable VarIndex="0" Expression="LepGood_relIso03-LepGood_chargedHadRelIso03" Label="LepGood_neuRelIso03" Title="LepGood_neuRelIso03" Unit="" Internal="LepGood_neuRelIso03" Type="D" Min="0.00000000e+00" Max="4.98894960e-01"/>
    <Variable VarIndex="1" Expression="LepGood_chargedHadRelIso03" Label="LepGood_chRelIso03" Title="LepGood_chRelIso03" Unit="" Internal="LepGood_chRelIso03" Type="D" Min="0.00000000e+00" Max="4.99708235e-01"/>
    <Variable VarIndex="2" Expression="min(LepGood_jetDR,0.5)" Label="LepGood_jetDR" Title="LepGood_jetDR" Unit="" Internal="LepGood_jetDR" Type="D" Min="0.00000000e+00" Max="3.95786792e-01"/>
    <Variable VarIndex="3" Expression="min(LepGood_jetPtRatio,1.5)" Label="LepGood_jetPtRatio" Title="LepGood_jetPtRatio" Unit="" Internal="LepGood_jetPtRatio" Type="D" Min="4.62128296e-02" Max="1.50000000e+00"/>
    <Variable VarIndex="4" Expression="max(LepGood_jetBTagCSV,0)" Label="LepGood_jetBTagCSV" Title="LepGood_jetBTagCSV" Unit="" Internal="LepGood_jetBTagCSV" Type="D" Min="0.00000000e+00" Max="1.00000000e+00"/>
    <Variable VarIndex="5" Expression="LepGood_sip3d" Label="LepGood_sip3d" Title="LepGood_sip3d" Unit="" Internal="LepGood_sip3d" Type="D" Min="4.58230311e-03" Max="2.84614124e+01"/>
    <Variable VarIndex="6" Expression="log(abs(LepGood_dxy))" Label="LepGood_dxy" Title="LepGood_dxy" Unit="" Internal="LepGood_dxy" Type="D" Min="-1.52727957e+01" Max="-2.99642277e+00"/>
    <Variable VarIndex="7" Expression="log(abs(LepGood_dz))" Label="LepGood_dz" Title="LepGood_dz" Unit="" Internal="LepGood_dz" Type="D" Min="-1.38668280e+01" Max="-2.30294991e+00"/>
    <Variable VarIndex="8" Expression="LepGood_mvaId" Label="LepGood_mvaId" Title="LepGood_mvaId" Unit="" Internal="LepGood_mvaId" Type="D" Min="-9.99602139e-01" Max="9.99579608e-01"/>
  </Variables>
  <Spectators NSpec="0"/>
  <Classes NClass="2">
    <Class Name="Signal" Index="0"/>
    <Class Name="Background" Index="1"/>
  </Classes>
  <Transformations NTransformations="0"/>
  <MVAPdfs>
    <PDF Name="BDTG_PDFSig" MinNSmooth="0" MaxNSmooth="0" InterpolMethod="2" KDE_type="1" KDE_iter="1" KDE_border="1" KDE_finefactor="1.0000000000000000e+00">
      <Histogram Name="BDT_tr_S_original" NBins="701" XMin="-9.9967032670974731e-01" XMax="9.8633337020874023e-01" HasEquidistantBins="1">
        1.43221805e-02 2.86443610e-02 1.43221805e-02 4.29665415e-02 1.43221805e-02 4.29665415e-02 2.86443610e-02 1.43221805e-02 7.16109025e-02 7.16109025e-02 2.86443610e-02 8.59330830e-02 1.43221805e-02 4.29665415e-02 1.43221805e-02 7.16109025e-02 8.59330830e-02 1.43221805e-02 1.43221805e-02 4.29665415e-02 8.59330830e-02 4.29665415e-02 5.72887220e-02 1.00255264e-01 7.16109025e-02 7.16109025e-02 5.72887220e-02 8.59330830e-02 7.16109025e-02 1.14577444e-01 1.00255264e-01 5.72887220e-02 1.00255264e-01 8.59330830e-02 5.72887220e-02 5.72887220e-02 7.16109025e-02 1.00255264e-01 5.72887220e-02 8.59330830e-02 1.43221805e-02 8.59330830e-02 1.43221805e-01 2.86443610e-02 7.16109025e-02 1.00255264e-01 1.28899625e-01 1.00255264e-01 4.29665415e-02 1.00255264e-01 1.00255264e-01 2.86443610e-02 1.00255264e-01 4.29665415e-02 8.59330830e-02 8.59330830e-02 7.16109025e-02 4.29665415e-02 1.14577444e-01 1.14577444e-01 1.00255264e-01 1.28899625e-01 7.16109025e-02 8.59330830e-02 5.72887220e-02 1.00255264e-01 8.59330830e-02 2.86443610e-02 8.59330830e-02 1.28899625e-01 1.71866166e-01 5.72887220e-02 1.28899625e-01 1.43221805e-01 1.43221805e-01 4.29665415e-02 5.72887220e-02 7.16109025e-02 1.28899625e-01 4.29665415e-02 2.86443610e-02 7.16109025e-02 8.59330830e-02 1.43221805e-01 1.43221805e-01 1.00255264e-01 1.00255264e-01 1.28899625e-01 8.59330830e-02 1.14577444e-01 1.00255264e-01 4.29665415e-02 4.29665415e-02 5.72887220e-02 7.16109025e-02 1.28899625e-01 1.14577444e-01 7.16109025e-02 1.00255264e-01 8.59330830e-02 1.71866166e-01 7.16109025e-02 1.57543986e-01 1.14577444e-01 1.28899625e-01 2.00510527e-01 1.28899625e-01 7.16109025e-02 1.28899625e-01 5.72887220e-02 5.72887220e-02 1.00255264e-01 8.59330830e-02 7.16109025e-02 1.14577444e-01 1.00255264e-01 1.43221805e-01 1.14577444e-01 7.16109025e-02 1.28899625e-01 8.59330830e-02 1.86188347e-01 1.14577444e-01 4.29665415e-02 1.43221805e-01 1.43221805e-01 8.59330830e-02 5.72887220e-02 7.16109025e-02 1.57543986e-01 7.16109025e-02 8.59330830e-02 8.59330830e-02 1.14577444e-01 1.86188347e-01 1.71866166e-01 8.59330830e-02 1.00255264e-01 1.14577444e-01 1.28899625e-01 5.72887220e-02 2.86443610e-02 8.59330830e-02 1.28899625e-01 7.16109025e-02 4.29665415e-02 1.14577444e-01 7.16109025e-02 1.71866166e-01 1.14577444e-01 7.16109025e-02 8.59330830e-02 1.57543986e-01 5.72887220e-02 8.59330830e-02 1.71866166e-01 8.59330830e-02 5.72887220e-02 7.16109025e-02 4.29665415e-02 1.71866166e-01 1.00255264e-01 1.28899625e-01 1.14577444e-01 1.00255264e-01 1.14577444e-01 1.00255264e-01 1.00255264e-01 1.28899625e-01 5.72887220e-02 1.57543986e-01 1.28899625e-01 1.00255264e-01 2.29154888e-01 2.14832708e-01 1.14577444e-01 8.59330830e-02 1.43221805e-01 4.29665415e-02 8.59330830e-02 1.14577444e-01 1.28899625e-01 1.43221805e-01 1.71866166e-01 1.00255264e-01 1.14577444e-01 1.43221805e-01 1.00255264e-01 1.14577444e-01 5.72887220e-02 1.14577444e-01 1.43221805e-01 1.14577444e-01 1.00255264e-01 1.14577444e-01 1.00255264e-01 1.00255264e-01 8.59330830e-02 1.71866166e-01 1.71866166e-01 8.59330830e-02 1.14577444e-01 1.00255264e-01 5.72887220e-02 7.16109025e-02 1.86188347e-01 1.14577444e-01 8.59330830e-02 2.14832708e-01 1.00255264e-01 1.86188347e-01 1.43221805e-01 1.00255264e-01 1.14577444e-01 1.57543986e-01 1.14577444e-01 1.57543986e-01 1.00255264e-01 1.00255264e-01 1.43221805e-01 1.14577444e-01 1.00255264e-01 8.59330830e-02 5.72887220e-02 1.28899625e-01 8.59330830e-02 2.43477069e-01 1.57543986e-01 1.28899625e-01 1.43221805e-02 1.43221805e-01 1.28899625e-01 8.59330830e-02 1.28899625e-01 8.59330830e-02 1.43221805e-01 2.00510527e-01 1.14577444e-01 8.59330830e-02 1.28899625e-01 1.14577444e-01 1.43221805e-01 1.43221805e-01 1.28899625e-01 8.59330830e-02 1.43221805e-01 1.14577444e-01 1.14577444e-01 1.28899625e-01 1.14577444e-01 5.72887220e-02 1.14577444e-01 1.86188347e-01 1.57543986e-01 1.57543986e-01 1.43221805e-01 1.57543986e-01 2.14832708e-01 1.43221805e-01 1.43221805e-01 7.16109025e-02 8.59330830e-02 2.00510527e-01 8.59330830e-02 1.43221805e-01 2.86443610e-01 1.28899625e-01 2.00510527e-01 1.28899625e-01 1.14577444e-01 1.28899625e-01 7.16109025e-02 7.16109025e-02 1.71866166e-01 1.14577444e-01 1.43221805e-01 1.14577444e-01 1.86188347e-01 2.00510527e-01 8.59330830e-02 2.00510527e-01 1.28899625e-01 1.14577444e-01 1.00255264e-01 1.43221805e-01 1.57543986e-01 1.14577444e-01 1.57543986e-01 1.71866166e-01 1.28899625e-01 5.72887220e-02 1.28899625e-01 2.14832708e-01 1.71866166e-01 1.57543986e-01 1.71866166e-01 8.59330830e-02 7.16109025e-02 2.00510527e-01 1.57543986e-01 5.72887220e-02 8.59330830e-02 2.14832708e-01 1.57543986e-01 2.29154888e-01 1.71866166e-01 1.00255264e-01 2.43477069e-01 2.14832708e-01 2.00510527e-01 1.57543986e-01 1.43221805e-01 1.14577444e-01 1.43221805e-01 1.14577444e-01 2.14832708e-01 1.86188347e-01 2.00510527e-01 1.43221805e-01 2.00510527e-01 7.16109025e-02 8.59330830e-02 1.00255264e-01 1.14577444e-01 1.57543986e-01 1.43221805e-01 1.86188347e-01 1.71866166e-01 2.14832708e-01 1.57543986e-01 1.57543986e-01 1.57543986e-01 1.28899625e-01 1.00255264e-01 1.57543986e-01 2.43477069e-01 1.86188347e-01 1.57543986e-01 2.14832708e-01 1.14577444e-01 1.86188347e-01 2.86443610e-01 1.00255264e-01 1.28899625e-01 2.00510527e-01 1.86188347e-01 1.57543986e-01 2.43477069e-01 1.43221805e-01 2.00510527e-01 2.14832708e-01 1.86188347e-01 1.86188347e-01 1.71866166e-01 1.71866166e-01 1.14577444e-01 8.59330830e-02 2.14832708e-01 1.14577444e-01 1.71866166e-01 2.14832708e-01 1.14577444e-01 2.57799249e-01 1.57543986e-01 1.57543986e-01 1.00255264e-01 2.29154888e-01 2.86443610e-01 2.57799249e-01 2.00510527e-01 1.43221805e-01 1.43221805e-01 2.14832708e-01 2.29154888e-01 1.28899625e-01 1.28899625e-01 1.71866166e-01 1.28899625e-01 1.28899625e-01 8.59330830e-02 1.28899625e-01 2.29154888e-01 1.57543986e-01 1.43221805e-01 7.16109025e-02 2.00510527e-01 1.28899625e-01 2.57799249e-01 1.43221805e-01 2.43477069e-01 1.28899625e-01 2.14832708e-01 2.43477069e-01 1.57543986e-01 1.71866166e-01 1.86188347e-01 2.72121430e-01 1.71866166e-01 2.14832708e-01 1.86188347e-01 2.57799249e-01 2.86443610e-01 2.86443610e-01 2.86443610e-01 2.86443610e-01 1.28899625e-01 1.86188347e-01 1.28899625e-01 2.72121430e-01 2.72121430e-01 2.72121430e-01 2.00510527e-01 2.14832708e-01 2.00510527e-01 2.57799249e-01 2.14832708e-01 2.72121430e-01 2.86443610e-01 2.43477069e-01 1.71866166e-01 1.71866166e-01 2.14832708e-01 2.00510527e-01 2.14832708e-01 3.29410152e-01 2.86443610e-01 2.14832708e-01 2.00510527e-01 1.86188347e-01 1.86188347e-01 3.00765791e-01 1.14577444e-01 1.43221805e-01 2.57799249e-01 2.43477069e-01 1.43221805e-01 2.72121430e-01 2.43477069e-01 1.57543986e-01 3.15087971e-01 2.43477069e-01 2.86443610e-01 2.14832708e-01 2.86443610e-01 3.72376693e-01 3.29410152e-01 2.57799249e-01 3.15087971e-01 2.29154888e-01 2.72121430e-01 2.57799249e-01 2.43477069e-01 3.58054513e-01 2.57799249e-01 2.86443610e-01 3.00765791e-01 2.00510527e-01 2.57799249e-01 3.86698874e-01 2.86443610e-01 2.72121430e-01 2.43477069e-01 1.71866166e-01 3.00765791e-01 3.72376693e-01 2.57799249e-01 2.72121430e-01 2.43477069e-01 2.57799249e-01 2.72121430e-01 1.71866166e-01 2.72121430e-01 2.00510527e-01 1.57543986e-01 2.72121430e-01 3.43732332e-01 2.14832708e-01 3.72376693e-01 4.01021054e-01 3.29410152e-01 2.14832708e-01 4.01021054e-01 2.43477069e-01 4.15343235e-01 3.15087971e-01 3.15087971e-01 2.43477069e-01 2.86443610e-01 2.86443610e-01 2.72121430e-01 3.86698874e-01 2.86443610e-01 3.86698874e-01 3.29410152e-01 3.00765791e-01 4.29665415e-01 4.72631957e-01 3.29410152e-01 3.58054513e-01 2.29154888e-01 4.01021054e-01 3.43732332e-01 4.29665415e-01 3.86698874e-01 4.29665415e-01 3.58054513e-01 4.15343235e-01 3.86698874e-01 2.72121430e-01 4.01021054e-01 4.01021054e-01 4.72631957e-01 4.15343235e-01 4.15343235e-01 3.58054513e-01 3.58054513e-01 3.86698874e-01 3.72376693e-01 4.72631957e-01 4.43987596e-01 5.72887220e-01 4.29665415e-01 5.01276318e-01 3.58054513e-01 5.15598498e-01 4.15343235e-01 3.58054513e-01 3.72376693e-01 3.86698874e-01 4.01021054e-01 4.29665415e-01 5.15598498e-01 4.43987596e-01 5.01276318e-01 3.86698874e-01 3.72376693e-01 5.01276318e-01 5.15598498e-01 3.29410152e-01 4.15343235e-01 4.43987596e-01 5.01276318e-01 4.15343235e-01 4.43987596e-01 5.87209401e-01 3.29410152e-01 4.58309776e-01 5.44242859e-01 4.15343235e-01 5.44242859e-01 5.29920679e-01 4.29665415e-01 3.00765791e-01 5.15598498e-01 7.30431206e-01 4.58309776e-01 6.01531581e-01 5.01276318e-01 4.86954137e-01 5.01276318e-01 5.87209401e-01 4.72631957e-01 6.01531581e-01 5.01276318e-01 6.15853762e-01 6.44498123e-01 5.15598498e-01 5.29920679e-01 7.16109025e-01 6.30175942e-01 6.01531581e-01 6.87464664e-01 7.87719928e-01 6.87464664e-01 5.72887220e-01 6.87464664e-01 6.73142484e-01 6.30175942e-01 7.30431206e-01 7.30431206e-01 6.15853762e-01 7.44753386e-01 5.72887220e-01 7.16109025e-01 6.15853762e-01 7.01786845e-01 6.87464664e-01 7.87719928e-01 7.16109025e-01 8.45008650e-01 7.59075567e-01 7.73397747e-01 9.02297372e-01 8.02042108e-01 7.59075567e-01 8.16364289e-01 9.73908274e-01 6.58820303e-01 8.30686469e-01 1.01687482e+00 1.11713008e+00 1.04551918e+00 9.45263913e-01 8.59330830e-01 1.03119700e+00 1.03119700e+00 9.30941733e-01 8.73653011e-01 1.01687482e+00 9.73908274e-01 8.45008650e-01 1.14577444e+00 1.08848572e+00 1.05984136e+00 1.04551918e+00 1.05984136e+00 1.10280790e+00 1.16009662e+00 1.11713008e+00 9.30941733e-01 1.24602970e+00 1.26035188e+00 1.20306316e+00 1.40357369e+00 1.21738534e+00 1.31764061e+00 1.27467406e+00 1.37492933e+00 1.38925151e+00 1.24602970e+00 1.57543986e+00 1.33196279e+00 1.41789587e+00 1.51815113e+00 1.24602970e+00 1.63272858e+00 1.51815113e+00 1.36060715e+00 1.53247331e+00 1.76162820e+00 1.86188347e+00 1.91917219e+00 1.80459474e+00 1.74730602e+00 1.99078309e+00 1.69001730e+00 2.11968271e+00 1.71866166e+00 1.87620565e+00 2.01942745e+00 2.00510527e+00 2.07671617e+00 2.06239399e+00 1.90485001e+00 2.24858234e+00 2.11968271e+00 2.42044851e+00 2.60663685e+00 2.39180414e+00 2.93604700e+00 2.79282520e+00 2.30587106e+00 2.50638159e+00 2.85011392e+00 2.80714738e+00 2.86443610e+00 3.00765791e+00 3.15087971e+00 2.86443610e+00 3.27977934e+00 3.40867896e+00 3.50893422e+00 3.30842370e+00 4.12478799e+00 3.39435678e+00 3.72376693e+00 3.96724400e+00 3.85266656e+00 4.21072107e+00 4.26800979e+00 3.96724400e+00 4.43987596e+00 4.19639889e+00 4.84089701e+00 4.76928611e+00 4.31097633e+00 5.05572972e+00 4.76928611e+00 4.49716468e+00 4.25368761e+00 4.09614362e+00 4.36826505e+00 4.03885490e+00 3.27977934e+00 2.64960339e+00 1.94781655e+00 9.73908274e-01 6.58820303e-01 2.43477069e-01 7.16109025e-02 2.86443610e-02 
      </Histogram>
    </PDF>
    <PDF Name="BDTG_PDFBkg" MinNSmooth="0" MaxNSmooth="0" InterpolMethod="2" KDE_type="1" KDE_iter="1" KDE_border="1" KDE_finefactor="1.0000000000000000e+00">
      <Histogram Name="BDT_tr_B_original" NBins="701" XMin="-9.9967032670974731e-01" XMax="9.8633337020874023e-01" HasEquidistantBins="1">
        7.57620842e+00 1.44421473e+01 1.19392927e+01 1.08907996e+01 8.82763570e+00 8.01589908e+00 7.10269539e+00 6.29095877e+00 5.54686688e+00 4.97188677e+00 5.10717621e+00 4.46455139e+00 4.66748554e+00 3.68663713e+00 3.68663713e+00 4.02486072e+00 3.58517005e+00 3.82192657e+00 3.38223590e+00 3.11165703e+00 2.50285457e+00 2.77343344e+00 3.01018995e+00 2.73961108e+00 2.57049928e+00 2.43520985e+00 2.63814400e+00 2.73961108e+00 1.92787446e+00 1.86022974e+00 1.86022974e+00 1.52200615e+00 1.72494031e+00 1.96169682e+00 1.69111795e+00 1.31907200e+00 1.42053908e+00 1.72494031e+00 1.21760492e+00 1.72494031e+00 1.35289436e+00 1.38671672e+00 1.55582851e+00 1.58965087e+00 1.01467077e+00 1.58965087e+00 1.04849313e+00 1.28524964e+00 1.52200615e+00 1.69111795e+00 1.52200615e+00 9.13203693e-01 1.21760492e+00 1.21760492e+00 1.14996021e+00 1.01467077e+00 1.21760492e+00 1.38671672e+00 8.79381334e-01 1.04849313e+00 1.08231549e+00 1.31907200e+00 1.28524964e+00 1.45436144e+00 9.13203693e-01 1.04849313e+00 9.47026052e-01 9.13203693e-01 9.13203693e-01 8.45558975e-01 8.11736616e-01 9.47026052e-01 1.21760492e+00 7.44091898e-01 9.47026052e-01 8.79381334e-01 1.14996021e+00 9.13203693e-01 7.44091898e-01 6.42624821e-01 7.44091898e-01 9.47026052e-01 5.07335385e-01 6.42624821e-01 7.44091898e-01 8.45558975e-01 8.45558975e-01 6.08802462e-01 7.44091898e-01 6.08802462e-01 8.11736616e-01 4.73513026e-01 5.74980103e-01 7.44091898e-01 7.77914257e-01 4.39690667e-01 5.74980103e-01 4.39690667e-01 7.10269539e-01 7.10269539e-01 5.07335385e-01 6.76447180e-01 6.08802462e-01 8.11736616e-01 5.74980103e-01 5.74980103e-01 4.05868308e-01 5.07335385e-01 4.05868308e-01 5.41157744e-01 6.08802462e-01 7.10269539e-01 4.39690667e-01 5.74980103e-01 4.73513026e-01 7.77914257e-01 5.07335385e-01 7.10269539e-01 4.05868308e-01 4.05868308e-01 4.73513026e-01 4.39690667e-01 6.42624821e-01 6.08802462e-01 2.36756513e-01 4.39690667e-01 4.39690667e-01 5.74980103e-01 2.36756513e-01 4.73513026e-01 5.74980103e-01 5.41157744e-01 5.41157744e-01 3.72045949e-01 3.04401231e-01 4.39690667e-01 5.74980103e-01 5.41157744e-01 4.05868308e-01 3.72045949e-01 4.39690667e-01 2.02934154e-01 5.41157744e-01 4.05868308e-01 3.72045949e-01 3.72045949e-01 2.02934154e-01 5.07335385e-01 2.02934154e-01 5.74980103e-01 3.72045949e-01 4.39690667e-01 4.73513026e-01 2.36756513e-01 3.04401231e-01 4.73513026e-01 3.72045949e-01 3.72045949e-01 3.38223590e-01 5.07335385e-01 3.04401231e-01 5.07335385e-01 4.73513026e-01 4.73513026e-01 2.70578872e-01 3.72045949e-01 5.07335385e-01 3.72045949e-01 3.04401231e-01 2.02934154e-01 4.05868308e-01 3.38223590e-01 3.72045949e-01 6.08802462e-01 3.72045949e-01 2.36756513e-01 3.72045949e-01 2.70578872e-01 3.38223590e-01 6.08802462e-01 3.04401231e-01 2.70578872e-01 4.39690667e-01 2.02934154e-01 3.38223590e-01 5.74980103e-01 3.38223590e-01 3.72045949e-01 4.05868308e-01 3.72045949e-01 2.70578872e-01 3.38223590e-01 1.01467077e-01 3.38223590e-01 4.05868308e-01 3.38223590e-01 4.39690667e-01 4.73513026e-01 1.69111795e-01 5.07335385e-01 5.41157744e-01 2.70578872e-01 2.70578872e-01 2.70578872e-01 4.05868308e-01 2.02934154e-01 3.72045949e-01 2.70578872e-01 1.69111795e-01 3.72045949e-01 3.38223590e-01 3.04401231e-01 1.69111795e-01 2.36756513e-01 3.04401231e-01 2.02934154e-01 2.02934154e-01 3.04401231e-01 2.70578872e-01 2.70578872e-01 1.69111795e-01 6.76447180e-02 2.36756513e-01 2.70578872e-01 1.01467077e-01 3.04401231e-01 2.70578872e-01 3.38223590e-01 2.02934154e-01 2.02934154e-01 3.38223590e-01 3.72045949e-01 3.04401231e-01 3.38223590e-01 3.38223590e-01 1.35289436e-01 1.69111795e-01 2.02934154e-01 4.05868308e-01 3.38223590e-01 2.36756513e-01 3.38223590e-01 1.69111795e-01 3.04401231e-01 2.02934154e-01 3.38223590e-01 5.07335385e-01 2.70578872e-01 2.70578872e-01 2.02934154e-01 1.35289436e-01 2.36756513e-01 2.02934154e-01 2.70578872e-01 1.69111795e-01 3.72045949e-01 2.36756513e-01 3.38223590e-01 2.02934154e-01 3.38223590e-01 2.36756513e-01 2.02934154e-01 3.04401231e-01 4.39690667e-01 6.76447180e-02 2.70578872e-01 6.76447180e-02 1.35289436e-01 2.70578872e-01 2.02934154e-01 6.76447180e-02 1.69111795e-01 1.35289436e-01 2.36756513e-01 2.02934154e-01 3.38223590e-01 1.69111795e-01 2.02934154e-01 6.76447180e-02 2.36756513e-01 6.76447180e-02 3.38223590e-02 3.04401231e-01 2.70578872e-01 3.72045949e-01 1.69111795e-01 2.36756513e-01 3.04401231e-01 2.02934154e-01 1.35289436e-01 2.36756513e-01 1.35289436e-01 1.01467077e-01 1.69111795e-01 3.38223590e-01 3.04401231e-01 6.76447180e-02 2.70578872e-01 1.69111795e-01 1.69111795e-01 1.69111795e-01 2.36756513e-01 1.01467077e-01 2.70578872e-01 2.02934154e-01 1.35289436e-01 3.38223590e-02 1.01467077e-01 1.01467077e-01 3.38223590e-01 2.02934154e-01 2.36756513e-01 1.01467077e-01 2.36756513e-01 2.70578872e-01 3.38223590e-01 6.76447180e-02 2.70578872e-01 2.70578872e-01 2.02934154e-01 2.36756513e-01 1.69111795e-01 1.35289436e-01 6.76447180e-02 2.36756513e-01 1.01467077e-01 1.35289436e-01 1.69111795e-01 2.02934154e-01 2.36756513e-01 1.01467077e-01 1.69111795e-01 3.04401231e-01 1.35289436e-01 2.36756513e-01 6.76447180e-02 1.69111795e-01 1.35289436e-01 2.02934154e-01 1.35289436e-01 2.02934154e-01 3.04401231e-01 1.01467077e-01 2.02934154e-01 1.69111795e-01 1.01467077e-01 6.76447180e-02 2.70578872e-01 1.35289436e-01 1.35289436e-01 2.36756513e-01 2.02934154e-01 6.76447180e-02 6.76447180e-02 1.69111795e-01 1.69111795e-01 1.35289436e-01 2.70578872e-01 2.02934154e-01 1.69111795e-01 1.01467077e-01 2.70578872e-01 1.01467077e-01 1.69111795e-01 1.69111795e-01 2.36756513e-01 6.76447180e-02 1.69111795e-01 0.00000000e+00 3.38223590e-01 2.70578872e-01 1.35289436e-01 3.38223590e-02 1.69111795e-01 6.76447180e-02 1.01467077e-01 1.69111795e-01 1.69111795e-01 1.35289436e-01 2.02934154e-01 1.35289436e-01 1.69111795e-01 1.01467077e-01 2.36756513e-01 6.76447180e-02 2.02934154e-01 1.69111795e-01 2.36756513e-01 2.70578872e-01 1.01467077e-01 2.02934154e-01 1.69111795e-01 6.76447180e-02 6.76447180e-02 2.02934154e-01 3.04401231e-01 2.70578872e-01 1.35289436e-01 1.69111795e-01 2.36756513e-01 6.76447180e-02 2.02934154e-01 3.38223590e-01 1.69111795e-01 1.69111795e-01 1.01467077e-01 6.76447180e-02 2.70578872e-01 1.69111795e-01 1.35289436e-01 0.00000000e+00 3.38223590e-02 1.69111795e-01 1.35289436e-01 3.04401231e-01 2.36756513e-01 1.01467077e-01 6.76447180e-02 1.69111795e-01 1.35289436e-01 3.38223590e-02 6.76447180e-02 1.01467077e-01 1.35289436e-01 1.69111795e-01 2.36756513e-01 2.36756513e-01 1.69111795e-01 2.70578872e-01 1.01467077e-01 1.01467077e-01 2.02934154e-01 2.70578872e-01 1.01467077e-01 2.02934154e-01 1.35289436e-01 1.69111795e-01 2.02934154e-01 1.69111795e-01 1.01467077e-01 1.35289436e-01 1.01467077e-01 2.02934154e-01 2.36756513e-01 1.01467077e-01 1.35289436e-01 1.69111795e-01 1.01467077e-01 1.69111795e-01 1.35289436e-01 6.76447180e-02 6.76447180e-02 1.69111795e-01 1.01467077e-01 1.01467077e-01 1.35289436e-01 1.01467077e-01 1.35289436e-01 2.36756513e-01 3.04401231e-01 2.02934154e-01 1.35289436e-01 6.76447180e-02 1.01467077e-01 1.01467077e-01 1.35289436e-01 1.69111795e-01 1.69111795e-01 2.02934154e-01 3.38223590e-02 2.70578872e-01 6.76447180e-02 2.02934154e-01 6.76447180e-02 2.36756513e-01 1.35289436e-01 2.36756513e-01 1.69111795e-01 2.36756513e-01 1.01467077e-01 2.02934154e-01 3.04401231e-01 2.02934154e-01 1.01467077e-01 1.35289436e-01 6.76447180e-02 1.01467077e-01 1.01467077e-01 1.69111795e-01 1.69111795e-01 3.38223590e-02 2.02934154e-01 1.35289436e-01 3.04401231e-01 1.01467077e-01 6.76447180e-02 0.00000000e+00 2.36756513e-01 1.01467077e-01 1.69111795e-01 2.36756513e-01 1.01467077e-01 6.76447180e-02 1.01467077e-01 3.04401231e-01 1.35289436e-01 1.35289436e-01 1.35289436e-01 1.35289436e-01 1.35289436e-01 1.69111795e-01 1.35289436e-01 2.02934154e-01 1.35289436e-01 1.01467077e-01 0.00000000e+00 1.35289436e-01 3.38223590e-02 2.02934154e-01 2.02934154e-01 2.02934154e-01 1.01467077e-01 1.69111795e-01 1.01467077e-01 1.69111795e-01 3.04401231e-01 1.01467077e-01 1.69111795e-01 2.36756513e-01 2.36756513e-01 1.35289436e-01 6.76447180e-02 2.02934154e-01 2.02934154e-01 2.02934154e-01 1.35289436e-01 6.76447180e-02 1.69111795e-01 6.76447180e-02 1.69111795e-01 2.02934154e-01 1.35289436e-01 1.69111795e-01 2.70578872e-01 1.35289436e-01 1.35289436e-01 1.35289436e-01 2.02934154e-01 6.76447180e-02 1.01467077e-01 2.02934154e-01 1.35289436e-01 2.02934154e-01 1.01467077e-01 3.38223590e-02 1.35289436e-01 2.02934154e-01 6.76447180e-02 3.04401231e-01 0.00000000e+00 1.69111795e-01 1.01467077e-01 1.01467077e-01 2.02934154e-01 1.69111795e-01 3.72045949e-01 2.70578872e-01 1.01467077e-01 6.76447180e-02 1.01467077e-01 1.35289436e-01 1.01467077e-01 1.01467077e-01 1.69111795e-01 1.01467077e-01 1.35289436e-01 4.05868308e-01 1.69111795e-01 2.02934154e-01 2.02934154e-01 6.76447180e-02 2.02934154e-01 1.69111795e-01 2.36756513e-01 6.76447180e-02 0.00000000e+00 2.36756513e-01 2.02934154e-01 6.76447180e-02 1.69111795e-01 1.69111795e-01 2.02934154e-01 1.35289436e-01 6.76447180e-02 1.69111795e-01 2.02934154e-01 1.35289436e-01 1.35289436e-01 1.01467077e-01 2.36756513e-01 1.01467077e-01 1.35289436e-01 2.70578872e-01 6.76447180e-02 2.70578872e-01 1.01467077e-01 3.38223590e-02 1.01467077e-01 3.38223590e-01 2.36756513e-01 3.38223590e-02 6.76447180e-02 3.38223590e-02 1.35289436e-01 6.76447180e-02 1.35289436e-01 2.02934154e-01 6.76447180e-02 2.36756513e-01 6.76447180e-02 6.76447180e-02 2.70578872e-01 6.76447180e-02 6.76447180e-02 2.02934154e-01 2.70578872e-01 3.38223590e-01 3.72045949e-01 1.01467077e-01 2.02934154e-01 2.02934154e-01 1.35289436e-01 2.36756513e-01 6.76447180e-02 1.69111795e-01 1.01467077e-01 1.01467077e-01 1.69111795e-01 1.01467077e-01 1.01467077e-01 1.69111795e-01 6.76447180e-02 1.01467077e-01 2.36756513e-01 6.76447180e-02 1.35289436e-01 1.35289436e-01 6.76447180e-02 3.72045949e-01 1.69111795e-01 2.70578872e-01 2.36756513e-01 2.02934154e-01 2.36756513e-01 1.69111795e-01 2.70578872e-01 6.76447180e-02 1.35289436e-01 2.36756513e-01 1.01467077e-01 3.38223590e-02 1.01467077e-01 6.76447180e-02 1.69111795e-01 1.69111795e-01 1.01467077e-01 2.70578872e-01 1.01467077e-01 1.01467077e-01 1.69111795e-01 6.76447180e-02 1.35289436e-01 1.35289436e-01 2.02934154e-01 1.01467077e-01 1.35289436e-01 1.01467077e-01 1.35289436e-01 1.01467077e-01 6.76447180e-02 0.00000000e+00 1.01467077e-01 1.01467077e-01 1.69111795e-01 0.00000000e+00 6.76447180e-02 1.01467077e-01 1.01467077e-01 6.76447180e-02 6.76447180e-02 6.76447180e-02 3.38223590e-02 0.00000000e+00 0.00000000e+00 0.00000000e+00 0.00000000e+00 0.00000000e+00 0.00000000e+00 0.00000000e+00 0.00000000e+00 0.00000000e+00 
      </Histogram>
    </PDF>
  </MVAPdfs>
  <Weights NTrees="500" AnalysisType="1">
    <BinaryTree type="DecisionTree" boostWeight="1.0000000000000000e+00" itree="0">
      <Node pos="s" depth="0" NCoef="0" IVar="1" Cut="7.8414984047412872e-02" cType="1" res="-2.6871056378260927e-14" rms="5.0000000000000000e-01" purity="5.0000000000000000e-01" nType="0">
        <Node pos="l" depth="1" NCoef="0" IVar="8" Cut="7.6279497146606445e-01" cType="1" res="2.0284686982631683e-01" rms="4.5700454711914062e-01" purity="7.0284682512283325e-01" nType="0">
          <Node pos="l" depth="2" NCoef="0" IVar="-1" Cut="0.0000000000000000e+00" cType="1" res="-3.4799937158823013e-02" rms="4.3280011415481567e-01" purity="2.4963216483592987e-01" nType="-99"/>
          <Node pos="r" depth="2" NCoef="0" IVar="-1" Cut="0.0000000000000000e+00" cType="1" res="6.2337197363376617e-02" rms="4.0987369418144226e-01" purity="7.8636258840560913e-01" nType="-99"/>
        </Node>
        <Node pos="r" depth="1" NCoef="0" IVar="3" Cut="6.4632689952850342e-01" cType="1" res="-3.3683377504348755e-01" rms="3.6951726675033569e-01" purity="1.6316621005535126e-01" nType="0">
          <Node pos="l" depth="2" NCoef="0" IVar="-1" Cut="0.0000000000000000e+00" cType="1" res="-5.0037447363138199e-02" rms="3.0644977092742920e-01" purity="1.0491957515478134e-01" nType="-99"/>
          <Node pos="r" depth="2" NCoef="0" IVar="-1" Cut="0.0000000000000000e+00" cType="1" res="-1.8028270453214645e-02" rms="4.8583894968032837e-01" purity="3.8184535503387451e-01" nType="-99"/>
        </Node>
      </Node>
    </BinaryTree>
    <BinaryTree type="DecisionTree" boostWeight="1.0000000000000000e+00" itree="1">
      <Node pos="s" depth="0" NCoef="0" IVar="3" Cut="6.4124113321304321e-01" cType="1" res="-6.5839630551636219e-03" rms="4.8416534066200256e-01" purity="5.0000000000000000e-01" nType="0">
        <Node pos="l" depth="1" NCoef="0" IVar="1" Cut="5.4191246628761292e-02" cType="1" res="-2.6544111967086792e-01" rms="4.0791293978691101e-01" purity="2.2650349140167236e-01" nType="0">
          <Node pos="l" depth="2" NCoef="0" IVar="-1" Cut="0.0000000000000000e+00" cType="1" res="-1.1328932829201221e-02" rms="4.9044176936149597e-01" purity="4.4918674230575562e-01" nType="-99"/>
          <Node pos="r" depth="2" NCoef="0" IVar="-1" Cut="0.0000000000000000e+00" cType="1" res="-4.6134646981954575e-02" rms="3.2057332992553711e-01" purity="1.1812735348939896e-01" nType="-99"/>
        </Node>
        <Node pos="r" depth="1" NCoef="0" IVar="8" Cut="6.2392127513885498e-01" cType="1" res="2.2945359349250793e-01" rms="4.2382645606994629e-01" purity="7.4938631057739258e-01" nType="0">
          <Node pos="l" depth="2" NCoef="0" IVar="-1" Cut="0.0000000000000000e+00" cType="1" res="-3.7082426249980927e-02" rms="4.0940180420875549e-01" purity="2.1170052886009216e-01" nType="-99"/>
          <Node pos="r" depth="2" NCoef="0" IVar="-1" Cut="0.0000000000000000e+00" cType="1" res="6.5460473299026489e-02" rms="3.8278385996818542e-01" purity="8.1492340564727783e-01" nType="-99"/>
        </Node>
      </Node>
    </BinaryTree>
    <BinaryTree type="DecisionTree" boostWeight="1.0000000000000000e+00" itree="2">
      <Node pos="s" depth="0" NCoef="0" IVar="3" Cut="6.3833504915237427e-01" cType="1" res="-1.2429021298885345e-02" rms="4.6924942731857300e-01" purity="5.0000000000000000e-01" nType="0">
        <Node pos="l" depth="1" NCoef="0" IVar="1" Cut="5.4191246628761292e-02" cType="1" res="-2.5119149684906006e-01" rms="4.0328219532966614e-01" purity="2.2325906157493591e-01" nType="0">
          <Node pos="l" depth="2" NCoef="0" IVar="-1" Cut="0.0000000000000000e+00" cType="1" res="-1.1066432110965252e-02" rms="4.8999509215354919e-01" purity="4.4481605291366577e-01" nType="-99"/>
          <Node pos="r" depth="2" NCoef="0" IVar="-1" Cut="0.0000000000000000e+00" cType="1" res="-4.3596241623163223e-02" rms="3.1905263662338257e-01" purity="1.1679341644048691e-01" nType="-99"/>
        </Node>
        <Node pos="r" depth="1" NCoef="0" IVar="8" Cut="4.6306756138801575e-01" cType="1" res="2.0005451142787933e-01" rms="4.1897028684616089e-01" purity="7.4628198146820068e-01" nType="0">
          <Node pos="l" depth="2" NCoef="0" IVar="-1" Cut="0.0000000000000000e+00" cType="1" res="-4.0585290640592575e-02" rms="3.6547207832336426e-01" purity="1.5799134969711304e-01" nType="-99"/>
          <Node pos="r" depth="2" NCoef="0" IVar="-1" Cut="0.0000000000000000e+00" cType="1" res="5.6411165744066238e-02" rms="3.8899576663970947e-01" purity="8.0500704050064087e-01" nType="-99"/>
        </Node>
      </Node>
    </BinaryTree>
    <BinaryTree type="DecisionTree" boostWeight="1.0000000000000000e+00" itree="3">
      <Node pos="s" depth="0" NCoef="0" IVar="1" Cut="7.8414984047412872e-02" cType="1" res="-1.7066691070795059e-02" rms="4.5673796534538269e-01" purity="5.0000000000000000e-01" nType="0">
        <Node pos="l" depth="1" NCoef="0" IVar="8" Cut="7.6279497146606445e-01" cType="1" res="1.4709644019603729e-01" rms="4.3175849318504333e-01" purity="7.0284682512283325e-01" nType="0">
          <Node pos="l" depth="2" NCoef="0" IVar="-1" Cut="0.0000000000000000e+00" cType="1" res="-3.0930414795875549e-02" rms="4.2290642857551575e-01" purity="2.4963216483592987e-01" nType="-99"/>
          <Node pos="r" depth="2" NCoef="0" IVar="-1" Cut="0.0000000000000000e+00" cType="1" res="4.7862008213996887e-02" rms="3.9783331751823425e-01" purity="7.8636258840560913e-01" nType="-99"/>
        </Node>
        <Node pos="r" depth="1" NCoef="0" IVar="1" Cut="1.4705589413642883e-01" cType="1" res="-2.8966486454010010e-01" rms="3.5553249716758728e-01" purity="1.6316621005535126e-01" nType="0">
          <Node pos="l" depth="2" NCoef="0" IVar="-1" Cut="0.0000000000000000e+00" cType="1" res="-2.2027680650353432e-02" rms="4.4778674840927124e-01" purity="3.2325190305709839e-01" nType="-99"/>
          <Node pos="r" depth="2" NCoef="0" IVar="-1" Cut="0.0000000000000000e+00" cType="1" res="-4.4932603836059570e-02" rms="2.8641670942306519e-01" purity="9.4048403203487396e-02" nType="-99"/>
        </Node>
      </Node>
    </BinaryTree>
    <BinaryTree type="DecisionTree" boostWeight="1.0000000000000000e+00" itree="4">
      <Node pos="s" depth="0" NCoef="0" IVar="3" Cut="6.5213912725448608e-01" cType="1" res="-2.0797213539481163e-02" rms="4.4571772217750549e-01" purity="5.0000000000000000e-01" nType="0">
        <Node pos="l" depth="1" NCoef="0" IVar="1" Cut="5.3691789507865906e-02" cType="1" res="-2.1821273863315582e-01" rms="4.0029567480087280e-01" purity="2.3844480514526367e-01" nType="0">
          <Node pos="l" depth="2" NCoef="0" IVar="-1" Cut="0.0000000000000000e+00" cType="1" res="-1.0120411403477192e-02" rms="4.8409166932106018e-01" purity="4.6631890535354614e-01" nType="-99"/>
          <Node pos="r" depth="2" NCoef="0" IVar="-1" Cut="0.0000000000000000e+00" cType="1" res="-3.9227761328220367e-02" rms="3.2283052802085876e-01" purity="1.2347217649221420e-01" nType="-99"/>
        </Node>
        <Node pos="r" depth="1" NCoef="0" IVar="8" Cut="4.0911662578582764e-01" cType="1" res="1.7436634004116058e-01" rms="4.0004557371139526e-01" purity="7.5857156515121460e-01" nType="0">
          <Node pos="l" depth="2" NCoef="0" IVar="-1" Cut="0.0000000000000000e+00" cType="1" res="-3.7217170000076294e-02" rms="3.5843372344970703e-01" purity="1.5072710812091827e-01" nType="-99"/>
          <Node pos="r" depth="2" NCoef="0" IVar="-1" Cut="0.0000000000000000e+00" cType="1" res="5.0387952476739883e-02" rms="3.7741592526435852e-01" purity="8.1376349925994873e-01" nType="-99"/>
        </Node>
      </Node>
    </BinaryTree>
    <BinaryTree type="DecisionTree" boostWeight="1.0000000000000000e+00" itree="5">
      <Node pos="s" depth="0" NCoef="0" IVar="1" Cut="5.9435561299324036e-02" cType="1" res="-2.3941596969962120e-02" rms="4.3588885664939880e-01" purity="5.0000000000000000e-01" nType="0">
        <Node pos="l" depth="1" NCoef="0" IVar="8" Cut="8.5770863294601440e-01" cType="1" res="1.3171370327472687e-01" rms="4.1441744565963745e-01" purity="7.2021520137786865e-01" nType="0">
          <Node pos="l" depth="2" NCoef="0" IVar="-1" Cut="0.0000000000000000e+00" cType="1" res="-2.1365538239479065e-02" rms="4.4646939635276794e-01" purity="3.4974718093872070e-01" nType="-99"/>
          <Node pos="r" depth="2" NCoef="0" IVar="-1" Cut="0.0000000000000000e+00" cType="1" res="4.7118689864873886e-02" rms="3.7679168581962585e-01" purity="8.1220114231109619e-01" nType="-99"/>
        </Node>
        <Node pos="r" depth="1" NCoef="0" IVar="1" Cut="1.3910494744777679e-01" cType="1" res="-2.3995375633239746e-01" rms="3.6749300360679626e-01" purity="1.9439421594142914e-01" nType="0">
          <Node pos="l" depth="2" NCoef="0" IVar="-1" Cut="0.0000000000000000e+00" cType="1" res="-1.6741318628191948e-02" rms="4.4968512654304504e-01" purity="3.7400731444358826e-01" nType="-99"/>
          <Node pos="r" depth="2" NCoef="0" IVar="-1" Cut="0.0000000000000000e+00" cType="1" res="-4.0958032011985779e-02" rms="2.9185655713081360e-01" purity="9.9392339587211609e-02" nType="-99"/>
        </Node>
      </Node>
    </BinaryTree>
    <BinaryTree type="DecisionTree" boostWeight="1.0000000000000000e+00" itree="6">
      <Node pos="s" depth="0" NCoef="0" IVar="3" Cut="6.1435955762863159e-01" cType="1" res="-2.6452271267771721e-02" rms="4.2700111865997314e-01" purity="5.0000000000000000e-01" nType="0">
        <Node pos="l" depth="1" NCoef="0" IVar="4" Cut="6.9865065813064575e-01" cType="1" res="-2.2659929096698761e-01" rms="3.7281996011734009e-01" purity="2.0056878030300140e-01" nType="0">
          <Node pos="l" depth="2" NCoef="0" IVar="-1" Cut="0.0000000000000000e+00" cType="1" res="-2.5206521153450012e-02" rms="4.0730282664299011e-01" purity="2.6141813397407532e-01" nType="-99"/>
          <Node pos="r" depth="2" NCoef="0" IVar="-1" Cut="0.0000000000000000e+00" cType="1" res="-4.5451629906892776e-02" rms="2.3899888992309570e-01" purity="6.4736224710941315e-02" nType="-99"/>
        </Node>
        <Node pos="r" depth="1" NCoef="0" IVar="1" Cut="1.0845601558685303e-01" cType="1" res="1.1991377174854279e-01" rms="4.0410757064819336e-01" purity="7.1897184848785400e-01" nType="0">
          <Node pos="l" depth="2" NCoef="0" IVar="-1" Cut="0.0000000000000000e+00" cType="1" res="4.0514688938856125e-02" rms="3.7526622414588928e-01" purity="7.9029822349548340e-01" nType="-99"/>
          <Node pos="r" depth="2" NCoef="0" IVar="-1" Cut="0.0000000000000000e+00" cType="1" res="-3.0084973201155663e-02" rms="4.2626100778579712e-01" purity="2.6474851369857788e-01" nType="-99"/>
        </Node>
      </Node>
    </BinaryTree>
    <BinaryTree type="DecisionTree" boostWeight="1.0000000000000000e+00" itree="7">
      <Node pos="s" depth="0" NCoef="0" IVar="3" Cut="6.6666972637176514e-01" cType="1" res="-2.8208285570144653e-02" rms="4.1931581497192383e-01" purity="5.0000000000000000e-01" nType="0">
        <Node pos="l" depth="1" NCoef="0" IVar="8" Cut="9.1306066513061523e-01" cType="1" res="-1.7817544937133789e-01" rms="3.9531490206718445e-01" purity="2.5603458285331726e-01" nType="0">
          <Node pos="l" depth="2" NCoef="0" IVar="-1" Cut="0.0000000000000000e+00" cType="1" res="-3.8392875343561172e-02" rms="3.0274823307991028e-01" purity="1.1959767341613770e-01" nType="-99"/>
          <Node pos="r" depth="2" NCoef="0" IVar="-1" Cut="0.0000000000000000e+00" cType="1" res="-1.4427895657718182e-02" rms="4.4010272622108459e-01" purity="3.7091261148452759e-01" nType="-99"/>
        </Node>
        <Node pos="r" depth="1" NCoef="0" IVar="8" Cut="1.7932562530040741e-01" cType="1" res="1.3835065066814423e-01" rms="3.8055294752120972e-01" purity="7.7095675468444824e-01" nType="0">
          <Node pos="l" depth="2" NCoef="0" IVar="-1" Cut="0.0000000000000000e+00" cType="1" res="-3.9246521890163422e-02" rms="3.1635633111000061e-01" purity="1.1401261389255524e-01" nType="-99"/>
          <Node pos="r" depth="2" NCoef="0" IVar="-1" Cut="0.0000000000000000e+00" cType="1" res="4.2252745479345322e-02" rms="3.6512926220893860e-01" purity="8.1830334663391113e-01" nType="-99"/>
        </Node>
      </Node>
    </BinaryTree>
    <BinaryTree type="DecisionTree" boostWeight="1.0000000000000000e+00" itree="8">
      <Node pos="s" depth="0" NCoef="0" IVar="1" Cut="5.4440978914499283e-02" cType="1" res="-2.9612742364406586e-02" rms="4.1249567270278931e-01" purity="5.0000000000000000e-01" nType="0">
        <Node pos="l" depth="1" NCoef="0" IVar="8" Cut="3.8913479447364807e-01" cType="1" res="1.0232461243867874e-01" rms="3.9884042739868164e-01" purity="7.2565215826034546e-01" nType="0">
          <Node pos="l" depth="2" NCoef="0" IVar="-1" Cut="0.0000000000000000e+00" cType="1" res="-3.6681562662124634e-02" rms="3.3909246325492859e-01" purity="1.3440574705600739e-01" nType="-99"/>
          <Node pos="r" depth="2" NCoef="0" IVar="-1" Cut="0.0000000000000000e+00" cType="1" res="3.3094856888055801e-02" rms="3.8533073663711548e-01" purity="7.8179645538330078e-01" nType="-99"/>
        </Node>
        <Node pos="r" depth="1" NCoef="0" IVar="1" Cut="1.5858851373195648e-01" cType="1" res="-2.0265753567218781e-01" rms="3.6319133639335632e-01" purity="2.0404188334941864e-01" nType="0">
          <Node pos="l" depth="2" NCoef="0" IVar="-1" Cut="0.0000000000000000e+00" cType="1" res="-1.6773348674178123e-02" rms="4.3566298484802246e-01" purity="3.5984838008880615e-01" nType="-99"/>
          <Node pos="r" depth="2" NCoef="0" IVar="-1" Cut="0.0000000000000000e+00" cType="1" res="-3.7914223968982697e-02" rms="2.7576169371604919e-01" purity="8.7287150323390961e-02" nType="-99"/>
        </Node>
      </Node>
    </BinaryTree>
    <BinaryTree type="DecisionTree" boostWeight="1.0000000000000000e+00" itree="9">
      <Node pos="s" depth="0" NCoef="0" IVar="1" Cut="1.0613493621349335e-01" cType="1" res="-3.0639618635177612e-02" rms="4.0645346045494080e-01" purity="5.0000000000000000e-01" nType="0">
        <Node pos="l" depth="1" NCoef="0" IVar="4" Cut="6.8815594911575317e-01" cType="1" res="6.5872006118297577e-02" rms="4.0889814496040344e-01" purity="6.7823445796966553e-01" nType="0">
          <Node pos="l" depth="2" NCoef="0" IVar="-1" Cut="0.0000000000000000e+00" cType="1" res="2.5154780596494675e-02" rms="3.8882142305374146e-01" purity="7.3240542411804199e-01" nType="-99"/>
          <Node pos="r" depth="2" NCoef="0" IVar="-1" Cut="0.0000000000000000e+00" cType="1" res="-3.9316862821578979e-02" rms="4.0616172552108765e-01" purity="2.7653884887695312e-01" nType="-99"/>
        </Node>
        <Node pos="r" depth="1" NCoef="0" IVar="4" Cut="6.2718641757965088e-01" cType="1" res="-2.3201122879981995e-01" rms="3.1789973378181458e-01" purity="1.2811371684074402e-01" nType="0">
          <Node pos="l" depth="2" NCoef="0" IVar="-1" Cut="0.0000000000000000e+00" cType="1" res="-2.7907699346542358e-02" rms="3.6120733618736267e-01" purity="1.7645329236984253e-01" nType="-99"/>
          <Node pos="r" depth="2" NCoef="0" IVar="-1" Cut="0.0000000000000000e+00" cType="1" res="-4.1870221495628357e-02" rms="1.9856956601142883e-01" purity="4.1044134646654129e-02" nType="-99"/>
        </Node>
      </Node>
    </BinaryTree>
    <BinaryTree type="DecisionTree" boostWeight="1.0000000000000000e+00" itree="10">
      <Node pos="s" depth="0" NCoef="0" IVar="3" Cut="6.1435955762863159e-01" cType="1" res="-3.1014880165457726e-02" rms="4.0116351842880249e-01" purity="5.0000000000000000e-01" nType="0">
        <Node pos="l" depth="1" NCoef="0" IVar="7" Cut="-4.1788258552551270e+00" cType="1" res="-1.8660803139209747e-01" rms="3.6375701427459717e-01" purity="2.0056878030300140e-01" nType="0">
          <Node pos="l" depth="2" NCoef="0" IVar="-1" Cut="0.0000000000000000e+00" cType="1" res="-1.8820924684405327e-02" rms="4.0038934350013733e-01" purity="2.7305957674980164e-01" nType="-99"/>
          <Node pos="r" depth="2" NCoef="0" IVar="-1" Cut="0.0000000000000000e+00" cType="1" res="-3.8947276771068573e-02" rms="2.8136646747589111e-01" purity="1.0028030723333359e-01" nType="-99"/>
        </Node>
        <Node pos="r" depth="1" NCoef="0" IVar="8" Cut="7.6479315757751465e-01" cType="1" res="8.2769244909286499e-02" rms="3.8885191082954407e-01" purity="7.1897184848785400e-01" nType="0">
          <Node pos="l" depth="2" NCoef="0" IVar="-1" Cut="0.0000000000000000e+00" cType="1" res="-2.7284186333417892e-02" rms="4.0000930428504944e-01" purity="2.5640124082565308e-01" nType="-99"/>
          <Node pos="r" depth="2" NCoef="0" IVar="-1" Cut="0.0000000000000000e+00" cType="1" res="3.3303603529930115e-02" rms="3.6716398596763611e-01" purity="8.0033826828002930e-01" nType="-99"/>
        </Node>
      </Node>
    </BinaryTree>
    <BinaryTree type="DecisionTree" boostWeight="1.0000000000000000e+00" itree="11">
      <Node pos="s" depth="0" NCoef="0" IVar="1" Cut="4.0705867111682892e-02" cType="1" res="-3.1586837023496628e-02" rms="3.9597490429878235e-01" purity="5.0000000000000000e-01" nType="0">
        <Node pos="l" depth="1" NCoef="0" IVar="8" Cut="9.3264049291610718e-01" cType="1" res="8.7785124778747559e-02" rms="3.8374361395835876e-01" purity="7.3804879188537598e-01" nType="0">
          <Node pos="l" depth="2" NCoef="0" IVar="-1" Cut="0.0000000000000000e+00" cType="1" res="-1.1813465505838394e-02" rms="4.3773198127746582e-01" purity="4.8708862066268921e-01" nType="-99"/>
          <Node pos="r" depth="2" NCoef="0" IVar="-1" Cut="0.0000000000000000e+00" cType="1" res="4.3735671788454056e-02" rms="3.3408930897712708e-01" purity="8.5172796249389648e-01" nType="-99"/>
        </Node>
        <Node pos="r" depth="1" NCoef="0" IVar="8" Cut="9.1350066661834717e-01" cType="1" res="-1.6396935284137726e-01" rms="3.6612108349800110e-01" purity="2.3600579798221588e-01" nType="0">
          <Node pos="l" depth="2" NCoef="0" IVar="-1" Cut="0.0000000000000000e+00" cType="1" res="-3.6625713109970093e-02" rms="2.6971483230590820e-01" purity="9.5982089638710022e-02" nType="-99"/>
          <Node pos="r" depth="2" NCoef="0" IVar="-1" Cut="0.0000000000000000e+00" cType="1" res="-1.5025960281491280e-02" rms="4.1531482338905334e-01" purity="3.5171163082122803e-01" nType="-99"/>
        </Node>
      </Node>
    </BinaryTree>
    <BinaryTree type="DecisionTree" boostWeight="1.0000000000000000e+00" itree="12">
      <Node pos="s" depth="0" NCoef="0" IVar="3" Cut="6.7538809776306152e-01" cType="1" res="-3.2019335776567459e-02" rms="3.9096042513847351e-01" purity="5.0000000000000000e-01" nType="0">
        <Node pos="l" depth="1" NCoef="0" IVar="7" Cut="-4.3717784881591797e+00" cType="1" res="-1.3983988761901855e-01" rms="3.8195449113845825e-01" purity="2.6666662096977234e-01" nType="0">
          <Node pos="l" depth="2" NCoef="0" IVar="-1" Cut="0.0000000000000000e+00" cType="1" res="-1.0408919304609299e-02" rms="4.0961718559265137e-01" purity="3.6115854978561401e-01" nType="-99"/>
          <Node pos="r" depth="2" NCoef="0" IVar="-1" Cut="0.0000000000000000e+00" cType="1" res="-3.4708470106124878e-02" rms="3.2193040847778320e-01" purity="1.5397489070892334e-01" nType="-99"/>
        </Node>
        <Node pos="r" depth="1" NCoef="0" IVar="8" Cut="-1.9533361494541168e-01" cType="1" res="9.6150994300842285e-02" rms="3.6177012324333191e-01" purity="7.7737212181091309e-01" nType="0">
          <Node pos="l" depth="2" NCoef="0" IVar="-1" Cut="0.0000000000000000e+00" cType="1" res="-4.0694389492273331e-02" rms="2.2787359356880188e-01" purity="5.5153515189886093e-02" nType="-99"/>
          <Node pos="r" depth="2" NCoef="0" IVar="-1" Cut="0.0000000000000000e+00" cType="1" res="3.2013926655054092e-02" rms="3.5512429475784302e-01" purity="8.1596070528030396e-01" nType="-99"/>
        </Node>
      </Node>
    </BinaryTree>
    <BinaryTree type="DecisionTree" boostWeight="1.0000000000000000e+00" itree="13">
      <Node pos="s" depth="0" NCoef="0" IVar="1" Cut="1.0638466477394104e-01" cType="1" res="-3.2005030661821365e-02" rms="3.8682577013969421e-01" purity="5.0000000000000000e-01" nType="0">
        <Node pos="l" depth="1" NCoef="0" IVar="4" Cut="7.8760617971420288e-01" cType="1" res="4.4987987726926804e-02" rms="3.9471083879470825e-01" purity="6.7810010910034180e-01" nType="0">
          <Node pos="l" depth="2" NCoef="0" IVar="-1" Cut="0.0000000000000000e+00" cType="1" res="1.7938736826181412e-02" rms="3.8344463706016541e-01" purity="7.2113090753555298e-01" nType="-99"/>
          <Node pos="r" depth="2" NCoef="0" IVar="-1" Cut="0.0000000000000000e+00" cType="1" res="-4.4637221843004227e-02" rms="3.4935578703880310e-01" purity="1.7393843829631805e-01" nType="-99"/>
        </Node>
        <Node pos="r" depth="1" NCoef="0" IVar="4" Cut="6.2718641757965088e-01" cType="1" res="-1.9288110733032227e-01" rms="3.1383165717124939e-01" purity="1.2786169350147247e-01" nType="0">
          <Node pos="l" depth="2" NCoef="0" IVar="-1" Cut="0.0000000000000000e+00" cType="1" res="-2.4259120225906372e-02" rms="3.5643279552459717e-01" purity="1.7609262466430664e-01" nType="-99"/>
          <Node pos="r" depth="2" NCoef="0" IVar="-1" Cut="0.0000000000000000e+00" cType="1" res="-3.8682755082845688e-02" rms="1.9990919530391693e-01" purity="4.0926769375801086e-02" nType="-99"/>
        </Node>
      </Node>
    </BinaryTree>
    <BinaryTree type="DecisionTree" boostWeight="1.0000000000000000e+00" itree="14">
      <Node pos="s" depth="0" NCoef="0" IVar="3" Cut="5.9401667118072510e-01" cType="1" res="-3.1609743833541870e-02" rms="3.8327342271804810e-01" purity="5.0000000000000000e-01" nType="0">
        <Node pos="l" depth="1" NCoef="0" IVar="5" Cut="1.7854205369949341e+00" cType="1" res="-1.6597434878349304e-01" rms="3.4777861833572388e-01" purity="1.8380855023860931e-01" nType="0">
          <Node pos="l" depth="2" NCoef="0" IVar="-1" Cut="0.0000000000000000e+00" cType="1" res="-1.7635248601436615e-02" rms="3.8935109972953796e-01" purity="2.5653111934661865e-01" nType="-99"/>
          <Node pos="r" depth="2" NCoef="0" IVar="-1" Cut="0.0000000000000000e+00" cType="1" res="-3.5265993326902390e-02" rms="2.7565744519233704e-01" purity="9.7460843622684479e-02" nType="-99"/>
        </Node>
        <Node pos="r" depth="1" NCoef="0" IVar="8" Cut="9.1265869140625000e-01" cType="1" res="5.1287695765495300e-02" rms="3.8065367937088013e-01" purity="6.9507712125778198e-01" nType="0">
          <Node pos="l" depth="2" NCoef="0" IVar="-1" Cut="0.0000000000000000e+00" cType="1" res="-1.8181838095188141e-02" rms="4.1186964511871338e-01" purity="3.9749562740325928e-01" nType="-99"/>
          <Node pos="r" depth="2" NCoef="0" IVar="-1" Cut="0.0000000000000000e+00" cType="1" res="3.0017836019396782e-02" rms="3.5159173607826233e-01" purity="8.0400633811950684e-01" nType="-99"/>
        </Node>
      </Node>
    </BinaryTree>
    <BinaryTree type="DecisionTree" boostWeight="1.0000000000000000e+00" itree="15">
      <Node pos="s" depth="0" NCoef="0" IVar="1" Cut="3.8708034902811050e-02" cType="1" res="-3.1406074762344360e-02" rms="3.7969958782196045e-01" purity="5.0000000000000000e-01" nType="0">
        <Node pos="l" depth="1" NCoef="0" IVar="8" Cut="2.1329472959041595e-01" cType="1" res="6.6006608307361603e-02" rms="3.7207683920860291e-01" purity="7.4005311727523804e-01" nType="0">
          <Node pos="l" depth="2" NCoef="0" IVar="-1" Cut="0.0000000000000000e+00" cType="1" res="-3.5500559955835342e-02" rms="3.0294853448867798e-01" purity="1.0494502633810043e-01" nType="-99"/>
          <Node pos="r" depth="2" NCoef="0" IVar="-1" Cut="0.0000000000000000e+00" cType="1" res="2.4460200220346451e-02" rms="3.6507546901702881e-01" purity="7.8930008411407471e-01" nType="-99"/>
        </Node>
        <Node pos="r" depth="1" NCoef="0" IVar="8" Cut="9.2548865079879761e-01" cType="1" res="-1.3629037141799927e-01" rms="3.5933849215507507e-01" purity="2.4153462052345276e-01" nType="0">
          <Node pos="l" depth="2" NCoef="0" IVar="-1" Cut="0.0000000000000000e+00" cType="1" res="-3.2938737422227859e-02" rms="2.7762702107429504e-01" purity="1.0589705407619476e-01" nType="-99"/>
          <Node pos="r" depth="2" NCoef="0" IVar="-1" Cut="0.0000000000000000e+00" cType="1" res="-1.2087045237421989e-02" rms="4.0828767418861389e-01" purity="3.6505302786827087e-01" nType="-99"/>
        </Node>
      </Node>
    </BinaryTree>
    <BinaryTree type="DecisionTree" boostWeight="1.0000000000000000e+00" itree="16">
      <Node pos="s" depth="0" NCoef="0" IVar="3" Cut="5.8965748548507690e-01" cType="1" res="-3.1061248853802681e-02" rms="3.7656238675117493e-01" purity="5.0000000000000000e-01" nType="0">
        <Node pos="l" depth="1" NCoef="0" IVar="7" Cut="-4.1980190277099609e+00" cType="1" res="-1.5283893048763275e-01" rms="3.4368750452995300e-01" purity="1.8056385219097137e-01" nType="0">
          <Node pos="l" depth="2" NCoef="0" IVar="-1" Cut="0.0000000000000000e+00" cType="1" res="-1.6869353130459785e-02" rms="3.8212254643440247e-01" purity="2.4846032261848450e-01" nType="-99"/>
          <Node pos="r" depth="2" NCoef="0" IVar="-1" Cut="0.0000000000000000e+00" cType="1" res="-3.4456733614206314e-02" rms="2.7118620276451111e-01" purity="9.1633602976799011e-02" nType="-99"/>
        </Node>
        <Node pos="r" depth="1" NCoef="0" IVar="4" Cut="7.8510743379592896e-01" cType="1" res="4.1320111602544785e-02" rms="3.7658911943435669e-01" purity="6.8986415863037109e-01" nType="0">
          <Node pos="l" depth="2" NCoef="0" IVar="-1" Cut="0.0000000000000000e+00" cType="1" res="1.6639370471239090e-02" rms="3.6744427680969238e-01" purity="7.2620880603790283e-01" nType="-99"/>
          <Node pos="r" depth="2" NCoef="0" IVar="-1" Cut="0.0000000000000000e+00" cType="1" res="-4.5372620224952698e-02" rms="3.3743041753768921e-01" purity="1.7472541332244873e-01" nType="-99"/>
        </Node>
      </Node>
    </BinaryTree>
    <BinaryTree type="DecisionTree" boostWeight="1.0000000000000000e+00" itree="17">
      <Node pos="s" depth="0" NCoef="0" IVar="1" Cut="1.2461489439010620e-01" cType="1" res="-3.0316814780235291e-02" rms="3.7382715940475464e-01" purity="5.0000000000000000e-01" nType="0">
        <Node pos="l" depth="1" NCoef="0" IVar="7" Cut="-3.7766075134277344e+00" cType="1" res="2.8000207617878914e-02" rms="3.8732069730758667e-01" purity="6.6244965791702271e-01" nType="0">
          <Node pos="l" depth="2" NCoef="0" IVar="-1" Cut="0.0000000000000000e+00" cType="1" res="1.8985724076628685e-02" rms="3.6776518821716309e-01" purity="7.2810286283493042e-01" nType="-99"/>
          <Node pos="r" depth="2" NCoef="0" IVar="-1" Cut="0.0000000000000000e+00" cType="1" res="-2.7275523170828819e-02" rms="4.0618655085563660e-01" purity="4.2055535316467285e-01" nType="-99"/>
        </Node>
        <Node pos="r" depth="1" NCoef="0" IVar="8" Cut="6.7929679155349731e-01" cType="1" res="-1.7016401886940002e-01" rms="2.9564285278320312e-01" purity="1.1043735593557358e-01" nType="0">
          <Node pos="l" depth="2" NCoef="0" IVar="-1" Cut="0.0000000000000000e+00" cType="1" res="-3.6892596632242203e-02" rms="1.4255064725875854e-01" purity="2.0908638834953308e-02" nType="-99"/>
          <Node pos="r" depth="2" NCoef="0" IVar="-1" Cut="0.0000000000000000e+00" cType="1" res="-2.3709231987595558e-02" rms="3.4298256039619446e-01" purity="1.5382133424282074e-01" nType="-99"/>
        </Node>
      </Node>
    </BinaryTree>
    <BinaryTree type="DecisionTree" boostWeight="1.0000000000000000e+00" itree="18">
      <Node pos="s" depth="0" NCoef="0" IVar="4" Cut="6.2768614292144775e-01" cType="1" res="-2.9630303382873535e-02" rms="3.7103217840194702e-01" purity="5.0000000000000000e-01" nType="0">
        <Node pos="l" depth="1" NCoef="0" IVar="8" Cut="6.2492036819458008e-01" cType="1" res="1.5602553263306618e-02" rms="3.7397414445877075e-01" purity="5.8856308460235596e-01" nType="0">
          <Node pos="l" depth="2" NCoef="0" IVar="-1" Cut="0.0000000000000000e+00" cType="1" res="-3.2113607972860336e-02" rms="2.7599343657493591e-01" purity="1.0509033501148224e-01" nType="-99"/>
          <Node pos="r" depth="2" NCoef="0" IVar="-1" Cut="0.0000000000000000e+00" cType="1" res="1.6701020300388336e-02" rms="3.7477582693099976e-01" purity="6.9867771863937378e-01" nType="-99"/>
        </Node>
        <Node pos="r" depth="1" NCoef="0" IVar="4" Cut="8.1245952844619751e-01" cType="1" res="-1.9648329913616180e-01" rms="3.0690845847129822e-01" purity="1.7331238090991974e-01" nType="0">
          <Node pos="l" depth="2" NCoef="0" IVar="-1" Cut="0.0000000000000000e+00" cType="1" res="-2.3627985268831253e-02" rms="3.7153193354606628e-01" purity="3.2592985033988953e-01" nType="-99"/>
          <Node pos="r" depth="2" NCoef="0" IVar="-1" Cut="0.0000000000000000e+00" cType="1" res="-3.8568001240491867e-02" rms="2.4474383890628815e-01" purity="7.0894464850425720e-02" nType="-99"/>
        </Node>
      </Node>
    </BinaryTree>
    <BinaryTree type="DecisionTree" boostWeight="1.0000000000000000e+00" itree="19">
      <Node pos="s" depth="0" NCoef="0" IVar="1" Cut="3.4462638199329376e-02" cType="1" res="-2.9141936451196671e-02" rms="3.6789739131927490e-01" purity="5.0000000000000000e-01" nType="0">
        <Node pos="l" depth="1" NCoef="0" IVar="8" Cut="-1.7535179853439331e-01" cType="1" res="5.3456470370292664e-02" rms="3.6279404163360596e-01" purity="7.4376606941223145e-01" nType="0">
          <Node pos="l" depth="2" NCoef="0" IVar="-1" Cut="0.0000000000000000e+00" cType="1" res="-3.9044156670570374e-02" rms="2.2142650187015533e-01" purity="5.1268033683300018e-02" nType="-99"/>
          <Node pos="r" depth="2" NCoef="0" IVar="-1" Cut="0.0000000000000000e+00" cType="1" res="1.9980313256382942e-02" rms="3.6005693674087524e-01" purity="7.8228420019149780e-01" nType="-99"/>
        </Node>
        <Node pos="r" depth="1" NCoef="0" IVar="8" Cut="9.2548865079879761e-01" cType="1" res="-1.1279368400573730e-01" rms="3.5386145114898682e-01" purity="2.5312530994415283e-01" nType="0">
          <Node pos="l" depth="2" NCoef="0" IVar="-1" Cut="0.0000000000000000e+00" cType="1" res="-3.0282406136393547e-02" rms="2.7797946333885193e-01" purity="1.1118615418672562e-01" nType="-99"/>
          <Node pos="r" depth="2" NCoef="0" IVar="-1" Cut="0.0000000000000000e+00" cType="1" res="-9.9519630894064903e-03" rms="4.0070956945419312e-01" purity="3.8015553355216980e-01" nType="-99"/>
        </Node>
      </Node>
    </BinaryTree>
    <BinaryTree type="DecisionTree" boostWeight="1.0000000000000000e+00" itree="20">
      <Node pos="s" depth="0" NCoef="0" IVar="3" Cut="6.8773907423019409e-01" cType="1" res="-2.8512930497527122e-02" rms="3.6568915843963623e-01" purity="5.0000000000000000e-01" nType="0">
        <Node pos="l" depth="1" NCoef="0" IVar="7" Cut="-4.3717784881591797e+00" cType="1" res="-9.8275348544120789e-02" rms="3.6663517355918884e-01" purity="2.8160637617111206e-01" nType="0">
          <Node pos="l" depth="2" NCoef="0" IVar="-1" Cut="0.0000000000000000e+00" cType="1" res="-6.5620164386928082e-03" rms="3.9143094420433044e-01" purity="3.7834033370018005e-01" nType="-99"/>
          <Node pos="r" depth="2" NCoef="0" IVar="-1" Cut="0.0000000000000000e+00" cType="1" res="-2.9829910025000572e-02" rms="3.1736582517623901e-01" purity="1.6405884921550751e-01" nType="-99"/>
        </Node>
        <Node pos="r" depth="1" NCoef="0" IVar="8" Cut="-3.2721367478370667e-01" cType="1" res="6.2745168805122375e-02" rms="3.4369733929634094e-01" purity="7.8568655252456665e-01" nType="0">
          <Node pos="l" depth="2" NCoef="0" IVar="-1" Cut="0.0000000000000000e+00" cType="1" res="-3.7348374724388123e-02" rms="2.0363989472389221e-01" purity="4.3227460235357285e-02" nType="-99"/>
          <Node pos="r" depth="2" NCoef="0" IVar="-1" Cut="0.0000000000000000e+00" cType="1" res="2.4043755605816841e-02" rms="3.4171506762504578e-01" purity="8.2195925712585449e-01" nType="-99"/>
        </Node>
      </Node>
    </BinaryTree>
    <BinaryTree type="DecisionTree" boostWeight="1.0000000000000000e+00" itree="21">
      <Node pos="s" depth="0" NCoef="0" IVar="4" Cut="4.9475261569023132e-01" cType="1" res="-2.7903562411665916e-02" rms="3.6350664496421814e-01" purity="5.0000000000000000e-01" nType="0">
        <Node pos="l" depth="1" NCoef="0" IVar="8" Cut="7.4780857563018799e-01" cType="1" res="1.8670570105314255e-02" rms="3.6516118049621582e-01" purity="6.0040438175201416e-01" nType="0">
          <Node pos="l" depth="2" NCoef="0" IVar="-1" Cut="0.0000000000000000e+00" cType="1" res="-2.6972461491823196e-02" rms="3.0519032478332520e-01" purity="1.4867894351482391e-01" nType="-99"/>
          <Node pos="r" depth="2" NCoef="0" IVar="-1" Cut="0.0000000000000000e+00" cType="1" res="1.8528206273913383e-02" rms="3.6461776494979858e-01" purity="7.2634637355804443e-01" nType="-99"/>
        </Node>
        <Node pos="r" depth="1" NCoef="0" IVar="4" Cut="8.0307030677795410e-01" cType="1" res="-1.5651300549507141e-01" rms="3.2600250840187073e-01" purity="2.2274412214756012e-01" nType="0">
          <Node pos="l" depth="2" NCoef="0" IVar="-1" Cut="0.0000000000000000e+00" cType="1" res="-1.9058287143707275e-02" rms="3.7944224476814270e-01" purity="3.6946007609367371e-01" nType="-99"/>
          <Node pos="r" depth="2" NCoef="0" IVar="-1" Cut="0.0000000000000000e+00" cType="1" res="-3.6534991115331650e-02" rms="2.4881537258625031e-01" purity="7.5765639543533325e-02" nType="-99"/>
        </Node>
      </Node>
    </BinaryTree>
    <BinaryTree type="DecisionTree" boostWeight="1.0000000000000000e+00" itree="22">
      <Node pos="s" depth="0" NCoef="0" IVar="8" Cut="9.5661866664886475e-01" cType="1" res="-2.7380829676985741e-02" rms="3.6087939143180847e-01" purity="5.0000000000000000e-01" nType="0">
        <Node pos="l" depth="1" NCoef="0" IVar="8" Cut="4.0328153967857361e-01" cType="1" res="-1.0252153128385544e-01" rms="3.5288763046264648e-01" purity="3.1724673509597778e-01" nType="0">
          <Node pos="l" depth="2" NCoef="0" IVar="-1" Cut="0.0000000000000000e+00" cType="1" res="-3.2342992722988129e-02" rms="2.1904811263084412e-01" purity="5.8601081371307373e-02" nType="-99"/>
          <Node pos="r" depth="2" NCoef="0" IVar="-1" Cut="0.0000000000000000e+00" cType="1" res="-1.2948512099683285e-02" rms="3.9194762706756592e-01" purity="4.3195295333862305e-01" nType="-99"/>
        </Node>
        <Node pos="r" depth="1" NCoef="0" IVar="4" Cut="7.0714640617370605e-01" cType="1" res="4.4859640300273895e-02" rms="3.5365393757820129e-01" purity="6.7569941282272339e-01" nType="0">
          <Node pos="l" depth="2" NCoef="0" IVar="-1" Cut="0.0000000000000000e+00" cType="1" res="2.4464417248964310e-02" rms="3.4523862600326538e-01" purity="7.6682132482528687e-01" nType="-99"/>
          <Node pos="r" depth="2" NCoef="0" IVar="-1" Cut="0.0000000000000000e+00" cType="1" res="-3.0510250478982925e-02" rms="3.1754314899444580e-01" purity="1.8458734452724457e-01" nType="-99"/>
        </Node>
      </Node>
    </BinaryTree>
    <BinaryTree type="DecisionTree" boostWeight="1.0000000000000000e+00" itree="23">
      <Node pos="s" depth="0" NCoef="0" IVar="7" Cut="-4.1291294097900391e+00" cType="1" res="-2.6754902675747871e-02" rms="3.5851681232452393e-01" purity="5.0000000000000000e-01" nType="0">
        <Node pos="l" depth="1" NCoef="0" IVar="8" Cut="5.9095495939254761e-01" cType="1" res="2.3192584514617920e-02" rms="3.5380885004997253e-01" purity="5.9072506427764893e-01" nType="0">
          <Node pos="l" depth="2" NCoef="0" IVar="-1" Cut="0.0000000000000000e+00" cType="1" res="-2.7932999655604362e-02" rms="2.6504066586494446e-01" purity="9.8294027149677277e-02" nType="-99"/>
          <Node pos="r" depth="2" NCoef="0" IVar="-1" Cut="0.0000000000000000e+00" cType="1" res="1.6544783487915993e-02" rms="3.5797473788261414e-01" purity="6.9664704799652100e-01" nType="-99"/>
        </Node>
        <Node pos="r" depth="1" NCoef="0" IVar="3" Cut="7.6257175207138062e-01" cType="1" res="-1.2623400986194611e-01" rms="3.4691318869590759e-01" purity="3.1930530071258545e-01" nType="0">
          <Node pos="l" depth="2" NCoef="0" IVar="-1" Cut="0.0000000000000000e+00" cType="1" res="-2.9618164524435997e-02" rms="3.2665488123893738e-01" purity="2.0690485835075378e-01" nType="-99"/>
          <Node pos="r" depth="2" NCoef="0" IVar="-1" Cut="0.0000000000000000e+00" cType="1" res="-2.5194892659783363e-03" rms="3.8418069481849670e-01" purity="6.9007778167724609e-01" nType="-99"/>
        </Node>
      </Node>
    </BinaryTree>
    <BinaryTree type="DecisionTree" boostWeight="1.0000000000000000e+00" itree="24">
      <Node pos="s" depth="0" NCoef="0" IVar="1" Cut="1.3360515236854553e-01" cType="1" res="-2.5993699207901955e-02" rms="3.5630810260772705e-01" purity="5.0000000000000000e-01" nType="0">
        <Node pos="l" depth="1" NCoef="0" IVar="0" Cut="9.8233193159103394e-02" cType="1" res="1.7097862437367439e-02" rms="3.7256422638893127e-01" purity="6.5530085563659668e-01" nType="0">
          <Node pos="l" depth="2" NCoef="0" IVar="-1" Cut="0.0000000000000000e+00" cType="1" res="1.6668368130922318e-02" rms="3.5368451476097107e-01" purity="7.4551272392272949e-01" nType="-99"/>
          <Node pos="r" depth="2" NCoef="0" IVar="-1" Cut="0.0000000000000000e+00" cType="1" res="-2.1177086979150772e-02" rms="3.9833664894104004e-01" purity="3.6940079927444458e-01" nType="-99"/>
        </Node>
        <Node pos="r" depth="1" NCoef="0" IVar="2" Cut="1.6891650855541229e-01" cType="1" res="-1.3610970973968506e-01" rms="2.8250104188919067e-01" purity="1.0314486175775528e-01" nType="0">
          <Node pos="l" depth="2" NCoef="0" IVar="-1" Cut="0.0000000000000000e+00" cType="1" res="-2.6559142395853996e-02" rms="2.7407419681549072e-01" purity="9.7760930657386780e-02" nType="-99"/>
          <Node pos="r" depth="2" NCoef="0" IVar="-1" Cut="0.0000000000000000e+00" cType="1" res="7.2552892379462719e-03" rms="4.0833130478858948e-01" purity="2.3713384568691254e-01" nType="-99"/>
        </Node>
      </Node>
    </BinaryTree>
    <BinaryTree type="DecisionTree" boostWeight="1.0000000000000000e+00" itree="25">
      <Node pos="s" depth="0" NCoef="0" IVar="4" Cut="4.9475261569023132e-01" cType="1" res="-2.5313181802630424e-02" rms="3.5450479388237000e-01" purity="5.0000000000000000e-01" nType="0">
        <Node pos="l" depth="1" NCoef="0" IVar="8" Cut="8.7868958711624146e-01" cType="1" res="1.4357582665979862e-02" rms="3.5762447118759155e-01" purity="6.0040438175201416e-01" nType="0">
          <Node pos="l" depth="2" NCoef="0" IVar="-1" Cut="0.0000000000000000e+00" cType="1" res="-1.9622983410954475e-02" rms="3.3890140056610107e-01" purity="2.4042747914791107e-01" nType="-99"/>
          <Node pos="r" depth="2" NCoef="0" IVar="-1" Cut="0.0000000000000000e+00" cType="1" res="1.8480369821190834e-02" rms="3.5342776775360107e-01" purity="7.5131434202194214e-01" nType="-99"/>
        </Node>
        <Node pos="r" depth="1" NCoef="0" IVar="5" Cut="2.6943154335021973e+00" cType="1" res="-1.3485972583293915e-01" rms="3.2123607397079468e-01" purity="2.2274412214756012e-01" nType="0">
          <Node pos="l" depth="2" NCoef="0" IVar="-1" Cut="0.0000000000000000e+00" cType="1" res="-1.7566468566656113e-02" rms="3.6485907435417175e-01" purity="3.2069706916809082e-01" nType="-99"/>
          <Node pos="r" depth="2" NCoef="0" IVar="-1" Cut="0.0000000000000000e+00" cType="1" res="-3.5468187183141708e-02" rms="2.4705372750759125e-01" purity="1.0330612957477570e-01" nType="-99"/>
        </Node>
      </Node>
    </BinaryTree>
    <BinaryTree type="DecisionTree" boostWeight="1.0000000000000000e+00" itree="26">
      <Node pos="s" depth="0" NCoef="0" IVar="1" Cut="3.4462638199329376e-02" cType="1" res="-2.4665251374244690e-02" rms="3.5258406400680542e-01" purity="5.0000000000000000e-01" nType="0">
        <Node pos="l" depth="1" NCoef="0" IVar="7" Cut="-3.4617199897766113e+00" cType="1" res="3.8437087088823318e-02" rms="3.5116845369338989e-01" purity="7.4376606941223145e-01" nType="0">
          <Node pos="l" depth="2" NCoef="0" IVar="-1" Cut="0.0000000000000000e+00" cType="1" res="1.9821314141154289e-02" rms="3.3455407619476318e-01" purity="7.8765892982482910e-01" nType="-99"/>
          <Node pos="r" depth="2" NCoef="0" IVar="-1" Cut="0.0000000000000000e+00" cType="1" res="-2.6629770174622536e-02" rms="4.0299460291862488e-01" purity="4.6464884281158447e-01" nType="-99"/>
        </Node>
        <Node pos="r" depth="1" NCoef="0" IVar="7" Cut="-4.3375353813171387e+00" cType="1" res="-8.8572300970554352e-02" rms="3.4235608577728271e-01" purity="2.5312530994415283e-01" nType="0">
          <Node pos="l" depth="2" NCoef="0" IVar="-1" Cut="0.0000000000000000e+00" cType="1" res="-8.7848855182528496e-03" rms="3.6884155869483948e-01" purity="3.3593714237213135e-01" nType="-99"/>
          <Node pos="r" depth="2" NCoef="0" IVar="-1" Cut="0.0000000000000000e+00" cType="1" res="-2.7857527136802673e-02" rms="2.9707884788513184e-01" purity="1.5019889175891876e-01" nType="-99"/>
        </Node>
      </Node>
    </BinaryTree>
    <BinaryTree type="DecisionTree" boostWeight="1.0000000000000000e+00" itree="27">
      <Node pos="s" depth="0" NCoef="0" IVar="3" Cut="5.6277590990066528e-01" cType="1" res="-2.3878065869212151e-02" rms="3.5099378228187561e-01" purity="5.0000000000000000e-01" nType="0">
        <Node pos="l" depth="1" NCoef="0" IVar="2" Cut="1.7895446717739105e-01" cType="1" res="-1.1194118857383728e-01" rms="3.2053425908088684e-01" purity="1.6445535421371460e-01" nType="0">
          <Node pos="l" depth="2" NCoef="0" IVar="-1" Cut="0.0000000000000000e+00" cType="1" res="-2.3827273398637772e-02" rms="3.0356338620185852e-01" purity="1.4518007636070251e-01" nType="-99"/>
          <Node pos="r" depth="2" NCoef="0" IVar="-1" Cut="0.0000000000000000e+00" cType="1" res="9.8813800141215324e-03" rms="4.5118314027786255e-01" purity="3.9883214235305786e-01" nType="-99"/>
        </Node>
        <Node pos="r" depth="1" NCoef="0" IVar="4" Cut="8.1309342384338379e-01" cType="1" res="1.7939766868948936e-02" rms="3.5704106092453003e-01" purity="6.5933740139007568e-01" nType="0">
          <Node pos="l" depth="2" NCoef="0" IVar="-1" Cut="0.0000000000000000e+00" cType="1" res="9.4667021185159683e-03" rms="3.5537463426589966e-01" purity="6.9670462608337402e-01" nType="-99"/>
          <Node pos="r" depth="2" NCoef="0" IVar="-1" Cut="0.0000000000000000e+00" cType="1" res="-3.8138043135404587e-02" rms="2.8846836090087891e-01" purity="1.1387222260236740e-01" nType="-99"/>
        </Node>
      </Node>
    </BinaryTree>
    <BinaryTree type="DecisionTree" boostWeight="1.0000000000000000e+00" itree="28">
      <Node pos="s" depth="0" NCoef="0" IVar="8" Cut="9.5661866664886475e-01" cType="1" res="-2.2992223501205444e-02" rms="3.4967115521430969e-01" purity="5.0000000000000000e-01" nType="0">
        <Node pos="l" depth="1" NCoef="0" IVar="8" Cut="-1.4161886647343636e-02" cType="1" res="-8.3148039877414703e-02" rms="3.4584981203079224e-01" purity="3.1724673509597778e-01" nType="0">
          <Node pos="l" depth="2" NCoef="0" IVar="-1" Cut="0.0000000000000000e+00" cType="1" res="-3.3380087465047836e-02" rms="1.6586196422576904e-01" purity="2.9382636770606041e-02" nType="-99"/>
          <Node pos="r" depth="2" NCoef="0" IVar="-1" Cut="0.0000000000000000e+00" cType="1" res="-1.1900074779987335e-02" rms="3.7908563017845154e-01" purity="4.0235859155654907e-01" nType="-99"/>
        </Node>
        <Node pos="r" depth="1" NCoef="0" IVar="5" Cut="2.7088119983673096e+00" cType="1" res="3.4841734915971756e-02" rms="3.4351322054862976e-01" purity="6.7569941282272339e-01" nType="0">
          <Node pos="l" depth="2" NCoef="0" IVar="-1" Cut="0.0000000000000000e+00" cType="1" res="2.3147741332650185e-02" rms="3.3367693424224854e-01" purity="7.6505416631698608e-01" nType="-99"/>
          <Node pos="r" depth="2" NCoef="0" IVar="-1" Cut="0.0000000000000000e+00" cType="1" res="-2.3999111726880074e-02" rms="3.3812719583511353e-01" purity="3.5450223088264465e-01" nType="-99"/>
        </Node>
      </Node>
    </BinaryTree>
    <BinaryTree type="DecisionTree" boostWeight="1.0000000000000000e+00" itree="29">
      <Node pos="s" depth="0" NCoef="0" IVar="6" Cut="-4.9780659675598145e+00" cType="1" res="-2.2316882386803627e-02" rms="3.4795671701431274e-01" purity="5.0000000000000000e-01" nType="0">
        <Node pos="l" depth="1" NCoef="0" IVar="8" Cut="2.4926201999187469e-01" cType="1" res="2.4781225249171257e-02" rms="3.3818390965461731e-01" purity="5.8795678615570068e-01" nType="0">
          <Node pos="l" depth="2" NCoef="0" IVar="-1" Cut="0.0000000000000000e+00" cType="1" res="-3.0611962080001831e-02" rms="1.9998109340667725e-01" purity="4.6316694468259811e-02" nType="-99"/>
          <Node pos="r" depth="2" NCoef="0" IVar="-1" Cut="0.0000000000000000e+00" cType="1" res="1.5084989368915558e-02" rms="3.4684285521507263e-01" purity="6.7732024192810059e-01" nType="-99"/>
        </Node>
        <Node pos="r" depth="1" NCoef="0" IVar="3" Cut="7.3273772001266479e-01" cType="1" res="-9.1174200177192688e-02" rms="3.5056093335151672e-01" purity="3.7140741944313049e-01" nType="0">
          <Node pos="l" depth="2" NCoef="0" IVar="-1" Cut="0.0000000000000000e+00" cType="1" res="-2.4645116180181503e-02" rms="3.3340388536453247e-01" purity="2.2927691042423248e-01" nType="-99"/>
          <Node pos="r" depth="2" NCoef="0" IVar="-1" Cut="0.0000000000000000e+00" cType="1" res="-2.1498070564121008e-03" rms="3.7637716531753540e-01" purity="7.1858304738998413e-01" nType="-99"/>
        </Node>
      </Node>
    </BinaryTree>
    <BinaryTree type="DecisionTree" boostWeight="1.0000000000000000e+00" itree="30">
      <Node pos="s" depth="0" NCoef="0" IVar="1" Cut="1.4808945357799530e-01" cType="1" res="-2.1574949845671654e-02" rms="3.4637516736984253e-01" purity="5.0000000000000000e-01" nType="0">
        <Node pos="l" depth="1" NCoef="0" IVar="7" Cut="-3.4587597846984863e+00" cType="1" res="1.1440840549767017e-02" rms="3.6401337385177612e-01" purity="6.4367198944091797e-01" nType="0">
          <Node pos="l" depth="2" NCoef="0" IVar="-1" Cut="0.0000000000000000e+00" cType="1" res="1.0543920099735260e-02" rms="3.5575467348098755e-01" purity="6.9801765680313110e-01" nType="-99"/>
          <Node pos="r" depth="2" NCoef="0" IVar="-1" Cut="0.0000000000000000e+00" cType="1" res="-2.6255892589688301e-02" rms="3.7359333038330078e-01" purity="3.4890088438987732e-01" nType="-99"/>
        </Node>
        <Node pos="r" depth="1" NCoef="0" IVar="2" Cut="1.6515840590000153e-01" cType="1" res="-1.1498159915208817e-01" rms="2.6966246962547302e-01" purity="9.3530341982841492e-02" nType="0">
          <Node pos="l" depth="2" NCoef="0" IVar="-1" Cut="0.0000000000000000e+00" cType="1" res="-2.5044659152626991e-02" rms="2.6167443394660950e-01" purity="8.8244557380676270e-02" nType="-99"/>
          <Node pos="r" depth="2" NCoef="0" IVar="-1" Cut="0.0000000000000000e+00" cType="1" res="4.9986261874437332e-03" rms="3.8663709163665771e-01" purity="2.1344892680644989e-01" nType="-99"/>
        </Node>
      </Node>
    </BinaryTree>
    <BinaryTree type="DecisionTree" boostWeight="1.0000000000000000e+00" itree="31">
      <Node pos="s" depth="0" NCoef="0" IVar="4" Cut="6.2768614292144775e-01" cType="1" res="-2.0821005105972290e-02" rms="3.4512913227081299e-01" purity="5.0000000000000000e-01" nType="0">
        <Node pos="l" depth="1" NCoef="0" IVar="8" Cut="4.0611934661865234e-01" cType="1" res="7.3966258205473423e-03" rms="3.5246130824089050e-01" purity="5.8856308460235596e-01" nType="0">
          <Node pos="l" depth="2" NCoef="0" IVar="-1" Cut="0.0000000000000000e+00" cType="1" res="-2.7674214914441109e-02" rms="2.2876808047294617e-01" purity="6.6390268504619598e-02" nType="-99"/>
          <Node pos="r" depth="2" NCoef="0" IVar="-1" Cut="0.0000000000000000e+00" cType="1" res="9.2907948419451714e-03" rms="3.6429136991500854e-01" purity="6.8347913026809692e-01" nType="-99"/>
        </Node>
        <Node pos="r" depth="1" NCoef="0" IVar="2" Cut="2.1200166642665863e-01" cType="1" res="-1.2490896880626678e-01" rms="2.9406672716140747e-01" purity="1.7331238090991974e-01" nType="0">
          <Node pos="l" depth="2" NCoef="0" IVar="-1" Cut="0.0000000000000000e+00" cType="1" res="-2.7454920113086700e-02" rms="2.8379312157630920e-01" purity="1.6596320271492004e-01" nType="-99"/>
          <Node pos="r" depth="2" NCoef="0" IVar="-1" Cut="0.0000000000000000e+00" cType="1" res="3.5301145166158676e-02" rms="4.6216022968292236e-01" purity="4.2904433608055115e-01" nType="-99"/>
        </Node>
      </Node>
    </BinaryTree>
    <BinaryTree type="DecisionTree" boostWeight="1.0000000000000000e+00" itree="32">
      <Node pos="s" depth="0" NCoef="0" IVar="7" Cut="-4.1638040542602539e+00" cType="1" res="-2.0156200975179672e-02" rms="3.4386205673217773e-01" purity="5.0000000000000000e-01" nType="0">
        <Node pos="l" depth="1" NCoef="0" IVar="8" Cut="2.8623485565185547e-01" cType="1" res="1.7280425876379013e-02" rms="3.4110468626022339e-01" purity="5.9214568138122559e-01" nType="0">
          <Node pos="l" depth="2" NCoef="0" IVar="-1" Cut="0.0000000000000000e+00" cType="1" res="-2.8244903311133385e-02" rms="2.1263857185840607e-01" purity="5.4079070687294006e-02" nType="-99"/>
          <Node pos="r" depth="2" NCoef="0" IVar="-1" Cut="0.0000000000000000e+00" cType="1" res="1.1771989986300468e-02" rms="3.5142508149147034e-01" purity="6.8007302284240723e-01" nType="-99"/>
        </Node>
        <Node pos="r" depth="1" NCoef="0" IVar="3" Cut="7.8872680664062500e-01" cType="1" res="-9.1869212687015533e-02" rms="3.3768573403358459e-01" purity="3.2348719239234924e-01" nType="0">
          <Node pos="l" depth="2" NCoef="0" IVar="-1" Cut="0.0000000000000000e+00" cType="1" res="-2.4371361359953880e-02" rms="3.2563140988349915e-01" purity="2.2923827171325684e-01" nType="-99"/>
          <Node pos="r" depth="2" NCoef="0" IVar="-1" Cut="0.0000000000000000e+00" cType="1" res="1.9002984045073390e-03" rms="3.6685749888420105e-01" purity="7.0822393894195557e-01" nType="-99"/>
        </Node>
      </Node>
    </BinaryTree>
    <BinaryTree type="DecisionTree" boostWeight="1.0000000000000000e+00" itree="33">
      <Node pos="s" depth="0" NCoef="0" IVar="3" Cut="5.4533916711807251e-01" cType="1" res="-1.9458379596471786e-02" rms="3.4262040257453918e-01" purity="5.0000000000000000e-01" nType="0">
        <Node pos="l" depth="1" NCoef="0" IVar="2" Cut="1.7895446717739105e-01" cType="1" res="-9.8305612802505493e-02" rms="3.0970054864883423e-01" purity="1.5491592884063721e-01" nType="0">
          <Node pos="l" depth="2" NCoef="0" IVar="-1" Cut="0.0000000000000000e+00" cType="1" res="-2.3189501836895943e-02" rms="2.9086548089981079e-01" purity="1.3232417404651642e-01" nType="-99"/>
          <Node pos="r" depth="2" NCoef="0" IVar="-1" Cut="0.0000000000000000e+00" cType="1" res="9.1755641624331474e-03" rms="4.4253849983215332e-01" purity="3.9883214235305786e-01" nType="-99"/>
        </Node>
        <Node pos="r" depth="1" NCoef="0" IVar="4" Cut="8.1109446287155151e-01" cType="1" res="1.2532712891697884e-02" rms="3.5007968544960022e-01" purity="6.4001274108886719e-01" nType="0">
          <Node pos="l" depth="2" NCoef="0" IVar="-1" Cut="0.0000000000000000e+00" cType="1" res="7.7571012079715729e-03" rms="3.5096660256385803e-01" purity="6.8111777305603027e-01" nType="-99"/>
          <Node pos="r" depth="2" NCoef="0" IVar="-1" Cut="0.0000000000000000e+00" cType="1" res="-3.4682083874940872e-02" rms="2.7182501554489136e-01" purity="1.0306937247514725e-01" nType="-99"/>
        </Node>
      </Node>
    </BinaryTree>
    <BinaryTree type="DecisionTree" boostWeight="1.0000000000000000e+00" itree="34">
      <Node pos="s" depth="0" NCoef="0" IVar="6" Cut="-4.9535255432128906e+00" cType="1" res="-1.8733916804194450e-02" rms="3.4161707758903503e-01" purity="5.0000000000000000e-01" nType="0">
        <Node pos="l" depth="1" NCoef="0" IVar="8" Cut="2.4926201999187469e-01" cType="1" res="2.1148478612303734e-02" rms="3.3255347609519958e-01" purity="5.8646792173385620e-01" nType="0">
          <Node pos="l" depth="2" NCoef="0" IVar="-1" Cut="0.0000000000000000e+00" cType="1" res="-2.8251787647604942e-02" rms="2.0040604472160339e-01" purity="4.6477194875478745e-02" nType="-99"/>
          <Node pos="r" depth="2" NCoef="0" IVar="-1" Cut="0.0000000000000000e+00" cType="1" res="1.2996349483728409e-02" rms="3.4337592124938965e-01" purity="6.7543065547943115e-01" nType="-99"/>
        </Node>
        <Node pos="r" depth="1" NCoef="0" IVar="3" Cut="7.3273772001266479e-01" cType="1" res="-7.9000025987625122e-02" rms="3.4626591205596924e-01" purity="3.6933869123458862e-01" nType="0">
          <Node pos="l" depth="2" NCoef="0" IVar="-1" Cut="0.0000000000000000e+00" cType="1" res="-2.2474888712167740e-02" rms="3.3013215661048889e-01" purity="2.2765718400478363e-01" nType="-99"/>
          <Node pos="r" depth="2" NCoef="0" IVar="-1" Cut="0.0000000000000000e+00" cType="1" res="-2.6929839514195919e-03" rms="3.7389665842056274e-01" purity="7.1701651811599731e-01" nType="-99"/>
        </Node>
      </Node>
    </BinaryTree>
    <BinaryTree type="DecisionTree" boostWeight="1.0000000000000000e+00" itree="35">
      <Node pos="s" depth="0" NCoef="0" IVar="1" Cut="3.4462638199329376e-02" cType="1" res="-1.8078066408634186e-02" rms="3.4047678112983704e-01" purity="5.0000000000000000e-01" nType="0">
        <Node pos="l" depth="1" NCoef="0" IVar="0" Cut="1.6953951120376587e-01" cType="1" res="2.9772646725177765e-02" rms="3.4097352623939514e-01" purity="7.4376606941223145e-01" nType="0">
          <Node pos="l" depth="2" NCoef="0" IVar="-1" Cut="0.0000000000000000e+00" cType="1" res="1.6419658437371254e-02" rms="3.2762140035629272e-01" purity="7.9279404878616333e-01" nType="-99"/>
          <Node pos="r" depth="2" NCoef="0" IVar="-1" Cut="0.0000000000000000e+00" cType="1" res="-2.2442193701863289e-02" rms="3.9857241511344910e-01" purity="3.7126475572586060e-01" nType="-99"/>
        </Node>
        <Node pos="r" depth="1" NCoef="0" IVar="7" Cut="-4.3837656974792480e+00" cType="1" res="-6.6538996994495392e-02" rms="3.3303794264793396e-01" purity="2.5312530994415283e-01" nType="0">
          <Node pos="l" depth="2" NCoef="0" IVar="-1" Cut="0.0000000000000000e+00" cType="1" res="-7.0899957790970802e-03" rms="3.5941338539123535e-01" purity="3.3782371878623962e-01" nType="-99"/>
          <Node pos="r" depth="2" NCoef="0" IVar="-1" Cut="0.0000000000000000e+00" cType="1" res="-2.3705396801233292e-02" rms="2.9385989904403687e-01" purity="1.5299522876739502e-01" nType="-99"/>
        </Node>
      </Node>
    </BinaryTree>
    <BinaryTree type="DecisionTree" boostWeight="1.0000000000000000e+00" itree="36">
      <Node pos="s" depth="0" NCoef="0" IVar="4" Cut="1.8390804529190063e-01" cType="1" res="-1.7530981451272964e-02" rms="3.3954131603240967e-01" purity="5.0000000000000000e-01" nType="0">
        <Node pos="l" depth="1" NCoef="0" IVar="8" Cut="4.0412119030952454e-01" cType="1" res="3.4572590142488480e-02" rms="3.3217236399650574e-01" purity="6.8142014741897583e-01" nType="0">
          <Node pos="l" depth="2" NCoef="0" IVar="-1" Cut="0.0000000000000000e+00" cType="1" res="-2.3777853697538376e-02" rms="2.4895085394382477e-01" purity="8.2407847046852112e-02" nType="-99"/>
          <Node pos="r" depth="2" NCoef="0" IVar="-1" Cut="0.0000000000000000e+00" cType="1" res="1.8551634624600410e-02" rms="3.3776593208312988e-01" purity="7.7711623907089233e-01" nType="-99"/>
        </Node>
        <Node pos="r" depth="1" NCoef="0" IVar="6" Cut="-5.5126700401306152e+00" cType="1" res="-5.9308171272277832e-02" rms="3.3961012959480286e-01" purity="3.5453543066978455e-01" nType="0">
          <Node pos="l" depth="2" NCoef="0" IVar="-1" Cut="0.0000000000000000e+00" cType="1" res="-1.4643690083175898e-03" rms="3.5325792431831360e-01" purity="4.8585170507431030e-01" nType="-99"/>
          <Node pos="r" depth="2" NCoef="0" IVar="-1" Cut="0.0000000000000000e+00" cType="1" res="-2.0557336509227753e-02" rms="3.2682672142982483e-01" purity="2.7486374974250793e-01" nType="-99"/>
        </Node>
      </Node>
    </BinaryTree>
    <BinaryTree type="DecisionTree" boostWeight="1.0000000000000000e+00" itree="37">
      <Node pos="s" depth="0" NCoef="0" IVar="8" Cut="9.5661866664886475e-01" cType="1" res="-1.6987837851047516e-02" rms="3.3850374817848206e-01" purity="5.0000000000000000e-01" nType="0">
        <Node pos="l" depth="1" NCoef="0" IVar="4" Cut="4.9975013826042414e-04" cType="1" res="-6.2917411327362061e-02" rms="3.3771532773971558e-01" purity="3.1724673509597778e-01" nType="0">
          <Node pos="l" depth="2" NCoef="0" IVar="-1" Cut="0.0000000000000000e+00" cType="1" res="-1.2918624561280012e-03" rms="3.8643765449523926e-01" purity="5.6800854206085205e-01" nType="-99"/>
          <Node pos="r" depth="2" NCoef="0" IVar="-1" Cut="0.0000000000000000e+00" cType="1" res="-1.8745668232440948e-02" rms="3.1581419706344604e-01" purity="2.2706480324268341e-01" nType="-99"/>
        </Node>
        <Node pos="r" depth="1" NCoef="0" IVar="6" Cut="-4.4818387031555176e+00" cType="1" res="2.7168978005647659e-02" rms="3.3334580063819885e-01" purity="6.7569941282272339e-01" nType="0">
          <Node pos="l" depth="2" NCoef="0" IVar="-1" Cut="0.0000000000000000e+00" cType="1" res="1.8276924267411232e-02" rms="3.2057544589042664e-01" purity="7.4227505922317505e-01" nType="-99"/>
          <Node pos="r" depth="2" NCoef="0" IVar="-1" Cut="0.0000000000000000e+00" cType="1" res="-2.0408798009157181e-02" rms="3.5620522499084473e-01" purity="4.2392769455909729e-01" nType="-99"/>
        </Node>
      </Node>
    </BinaryTree>
    <BinaryTree type="DecisionTree" boostWeight="1.0000000000000000e+00" itree="38">
      <Node pos="s" depth="0" NCoef="0" IVar="1" Cut="1.5857808291912079e-01" cType="1" res="-1.6370611265301704e-02" rms="3.3750078082084656e-01" purity="5.0000000000000000e-01" nType="0">
        <Node pos="l" depth="1" NCoef="0" IVar="0" Cut="9.8233193159103394e-02" cType="1" res="8.7777953594923019e-03" rms="3.5574132204055786e-01" purity="6.3559323549270630e-01" nType="0">
          <Node pos="l" depth="2" NCoef="0" IVar="-1" Cut="0.0000000000000000e+00" cType="1" res="1.2021418660879135e-02" rms="3.4342718124389648e-01" purity="7.2808021306991577e-01" nType="-99"/>
          <Node pos="r" depth="2" NCoef="0" IVar="-1" Cut="0.0000000000000000e+00" cType="1" res="-1.7186764627695084e-02" rms="3.7613129615783691e-01" purity="3.5178652405738831e-01" nType="-99"/>
        </Node>
        <Node pos="r" depth="1" NCoef="0" IVar="3" Cut="6.6085749864578247e-01" cType="1" res="-9.2916265130043030e-02" rms="2.6006516814231873e-01" purity="8.7287150323390961e-02" nType="0">
          <Node pos="l" depth="2" NCoef="0" IVar="-1" Cut="0.0000000000000000e+00" cType="1" res="-2.0933279767632484e-02" rms="2.4355064332485199e-01" purity="7.4154168367385864e-02" nType="-99"/>
          <Node pos="r" depth="2" NCoef="0" IVar="-1" Cut="0.0000000000000000e+00" cType="1" res="-2.7825657278299332e-02" rms="3.6364081501960754e-01" purity="1.9922673702239990e-01" nType="-99"/>
        </Node>
      </Node>
    </BinaryTree>
    <BinaryTree type="DecisionTree" boostWeight="1.0000000000000000e+00" itree="39">
      <Node pos="s" depth="0" NCoef="0" IVar="7" Cut="-4.1695828437805176e+00" cType="1" res="-1.5907485038042068e-02" rms="3.3664393424987793e-01" purity="5.0000000000000000e-01" nType="0">
        <Node pos="l" depth="1" NCoef="0" IVar="1" Cut="1.9029368460178375e-01" cType="1" res="1.5154214575886726e-02" rms="3.3453208208084106e-01" purity="5.9232783317565918e-01" nType="0">
          <Node pos="l" depth="2" NCoef="0" IVar="-1" Cut="0.0000000000000000e+00" cType="1" res="1.1662473902106285e-02" rms="3.4109383821487427e-01" purity="7.0210701227188110e-01" nType="-99"/>
          <Node pos="r" depth="2" NCoef="0" IVar="-1" Cut="0.0000000000000000e+00" cType="1" res="-2.0492777228355408e-02" rms="2.7944144606590271e-01" purity="9.9832497537136078e-02" nType="-99"/>
        </Node>
        <Node pos="r" depth="1" NCoef="0" IVar="3" Cut="7.8872680664062500e-01" cType="1" res="-7.5022488832473755e-02" rms="3.3270999789237976e-01" purity="3.2428652048110962e-01" nType="0">
          <Node pos="l" depth="2" NCoef="0" IVar="-1" Cut="0.0000000000000000e+00" cType="1" res="-2.1385898813605309e-02" rms="3.2213413715362549e-01" purity="2.2979636490345001e-01" nType="-99"/>
          <Node pos="r" depth="2" NCoef="0" IVar="-1" Cut="0.0000000000000000e+00" cType="1" res="-1.9276774764875881e-05" rms="3.6315083503723145e-01" purity="7.0879328250885010e-01" nType="-99"/>
        </Node>
      </Node>
    </BinaryTree>
    <BinaryTree type="DecisionTree" boostWeight="1.0000000000000000e+00" itree="40">
      <Node pos="s" depth="0" NCoef="0" IVar="4" Cut="4.8375812172889709e-01" cType="1" res="-1.5383012592792511e-02" rms="3.3577501773834229e-01" purity="5.0000000000000000e-01" nType="0">
        <Node pos="l" depth="1" NCoef="0" IVar="8" Cut="-1.4498089440166950e-02" cType="1" res="9.8803518339991570e-03" rms="3.4183073043823242e-01" purity="6.0144746303558350e-01" nType="0">
          <Node pos="l" depth="2" NCoef="0" IVar="-1" Cut="0.0000000000000000e+00" cType="1" res="-2.9768973588943481e-02" rms="1.6946388781070709e-01" purity="3.1046368181705475e-02" nType="-99"/>
          <Node pos="r" depth="2" NCoef="0" IVar="-1" Cut="0.0000000000000000e+00" cType="1" res="8.0216154456138611e-03" rms="3.5465016961097717e-01" purity="6.7667120695114136e-01" nType="-99"/>
        </Node>
        <Node pos="r" depth="1" NCoef="0" IVar="2" Cut="2.4004790186882019e-01" cType="1" res="-8.3373352885246277e-02" rms="3.0880612134933472e-01" purity="2.2697834670543671e-01" nType="0">
          <Node pos="l" depth="2" NCoef="0" IVar="-1" Cut="0.0000000000000000e+00" cType="1" res="-2.0684042945504189e-02" rms="3.0335065722465515e-01" purity="2.2224567830562592e-01" nType="-99"/>
          <Node pos="r" depth="2" NCoef="0" IVar="-1" Cut="0.0000000000000000e+00" cType="1" res="5.0159178674221039e-02" rms="4.5013877749443054e-01" purity="4.9338936805725098e-01" nType="-99"/>
        </Node>
      </Node>
    </BinaryTree>
    <BinaryTree type="DecisionTree" boostWeight="1.0000000000000000e+00" itree="41">
      <Node pos="s" depth="0" NCoef="0" IVar="6" Cut="-4.5424728393554688e+00" cType="1" res="-1.4845767058432102e-02" rms="3.3495914936065674e-01" purity="5.0000000000000000e-01" nType="0">
        <Node pos="l" depth="1" NCoef="0" IVar="8" Cut="9.1265869140625000e-01" cType="1" res="9.2959543690085411e-03" rms="3.2856610417366028e-01" purity="5.6300014257431030e-01" nType="0">
          <Node pos="l" depth="2" NCoef="0" IVar="-1" Cut="0.0000000000000000e+00" cType="1" res="-1.3681257143616676e-02" rms="3.1811755895614624e-01" purity="2.4959838390350342e-01" nType="-99"/>
          <Node pos="r" depth="2" NCoef="0" IVar="-1" Cut="0.0000000000000000e+00" cType="1" res="1.3622516766190529e-02" rms="3.2849785685539246e-01" purity="7.1848040819168091e-01" nType="-99"/>
        </Node>
        <Node pos="r" depth="1" NCoef="0" IVar="0" Cut="4.9157008528709412e-02" cType="1" res="-7.9778745770454407e-02" rms="3.4325376152992249e-01" purity="3.3055120706558228e-01" nType="0">
          <Node pos="l" depth="2" NCoef="0" IVar="-1" Cut="0.0000000000000000e+00" cType="1" res="-1.2661987915635109e-02" rms="3.5727289319038391e-01" purity="4.3833839893341064e-01" nType="-99"/>
          <Node pos="r" depth="2" NCoef="0" IVar="-1" Cut="0.0000000000000000e+00" cType="1" res="-2.6093622669577599e-02" rms="3.2105764746665955e-01" purity="1.9686783850193024e-01" nType="-99"/>
        </Node>
      </Node>
    </BinaryTree>
    <BinaryTree type="DecisionTree" boostWeight="1.0000000000000000e+00" itree="42">
      <Node pos="s" depth="0" NCoef="0" IVar="4" Cut="6.9465267658233643e-01" cType="1" res="-1.4277488924562931e-02" rms="3.3417135477066040e-01" purity="5.0000000000000000e-01" nType="0">
        <Node pos="l" depth="1" NCoef="0" IVar="8" Cut="8.7868958711624146e-01" cType="1" res="3.9909351617097855e-03" rms="3.4375438094139099e-01" purity="5.8106356859207153e-01" nType="0">
          <Node pos="l" depth="2" NCoef="0" IVar="-1" Cut="0.0000000000000000e+00" cType="1" res="-1.4021764509379864e-02" rms="3.2625010609626770e-01" purity="2.3263169825077057e-01" nType="-99"/>
          <Node pos="r" depth="2" NCoef="0" IVar="-1" Cut="0.0000000000000000e+00" cType="1" res="9.8228072747588158e-03" rms="3.4719127416610718e-01" purity="7.2805207967758179e-01" nType="-99"/>
        </Node>
        <Node pos="r" depth="1" NCoef="0" IVar="2" Cut="2.1200166642665863e-01" cType="1" res="-9.5906317234039307e-02" rms="2.7292373776435852e-01" purity="1.3778363168239594e-01" nType="0">
          <Node pos="l" depth="2" NCoef="0" IVar="-1" Cut="0.0000000000000000e+00" cType="1" res="-2.5145044550299644e-02" rms="2.6205366849899292e-01" purity="1.2876477837562561e-01" nType="-99"/>
          <Node pos="r" depth="2" NCoef="0" IVar="-1" Cut="0.0000000000000000e+00" cType="1" res="3.6388006061315536e-02" rms="4.4707867503166199e-01" purity="4.3041691184043884e-01" nType="-99"/>
        </Node>
      </Node>
    </BinaryTree>
    <BinaryTree type="DecisionTree" boostWeight="1.0000000000000000e+00" itree="43">
      <Node pos="s" depth="0" NCoef="0" IVar="7" Cut="-3.7477123737335205e+00" cType="1" res="-1.3830232433974743e-02" rms="3.3348786830902100e-01" purity="5.0000000000000000e-01" nType="0">
        <Node pos="l" depth="1" NCoef="0" IVar="1" Cut="1.8954449892044067e-01" cType="1" res="7.4125123210251331e-03" rms="3.3520558476448059e-01" purity="5.7102936506271362e-01" nType="0">
          <Node pos="l" depth="2" NCoef="0" IVar="-1" Cut="0.0000000000000000e+00" cType="1" res="8.4272399544715881e-03" rms="3.4543719887733459e-01" purity="6.8230450153350830e-01" nType="-99"/>
          <Node pos="r" depth="2" NCoef="0" IVar="-1" Cut="0.0000000000000000e+00" cType="1" res="-1.9824694842100143e-02" rms="2.6956629753112793e-01" purity="9.2726349830627441e-02" nType="-99"/>
        </Node>
        <Node pos="r" depth="1" NCoef="0" IVar="3" Cut="8.4202992916107178e-01" cType="1" res="-8.1694379448890686e-02" rms="3.1858664751052856e-01" purity="2.7308252453804016e-01" nType="0">
          <Node pos="l" depth="2" NCoef="0" IVar="-1" Cut="0.0000000000000000e+00" cType="1" res="-2.2672662511467934e-02" rms="3.0979681015014648e-01" purity="2.1500499546527863e-01" nType="-99"/>
          <Node pos="r" depth="2" NCoef="0" IVar="-1" Cut="0.0000000000000000e+00" cType="1" res="4.2733908630907536e-03" rms="3.6136388778686523e-01" purity="6.9059860706329346e-01" nType="-99"/>
        </Node>
      </Node>
    </BinaryTree>
    <BinaryTree type="DecisionTree" boostWeight="1.0000000000000000e+00" itree="44">
      <Node pos="s" depth="0" NCoef="0" IVar="3" Cut="5.4533916711807251e-01" cType="1" res="-1.3362646102905273e-02" rms="3.3279255032539368e-01" purity="5.0000000000000000e-01" nType="0">
        <Node pos="l" depth="1" NCoef="0" IVar="2" Cut="1.1807537823915482e-01" cType="1" res="-7.0758454501628876e-02" rms="3.0404159426689148e-01" purity="1.5491592884063721e-01" nType="0">
          <Node pos="l" depth="2" NCoef="0" IVar="-1" Cut="0.0000000000000000e+00" cType="1" res="-2.1661002188920975e-02" rms="2.7336984872817993e-01" purity="1.1713909357786179e-01" nType="-99"/>
          <Node pos="r" depth="2" NCoef="0" IVar="-1" Cut="0.0000000000000000e+00" cType="1" res="5.1992443331982940e-05" rms="3.9248177409172058e-01" purity="2.9986292123794556e-01" nType="-99"/>
        </Node>
        <Node pos="r" depth="1" NCoef="0" IVar="4" Cut="8.1309342384338379e-01" cType="1" res="9.9248476326465607e-03" rms="3.4102904796600342e-01" purity="6.4001274108886719e-01" nType="0">
          <Node pos="l" depth="2" NCoef="0" IVar="-1" Cut="0.0000000000000000e+00" cType="1" res="6.4237536862492561e-03" rms="3.4349641203880310e-01" purity="6.8096876144409180e-01" nType="-99"/>
          <Node pos="r" depth="2" NCoef="0" IVar="-1" Cut="0.0000000000000000e+00" cType="1" res="-3.0486494302749634e-02" rms="2.6581916213035583e-01" purity="9.9932916462421417e-02" nType="-99"/>
        </Node>
      </Node>
    </BinaryTree>
    <BinaryTree type="DecisionTree" boostWeight="1.0000000000000000e+00" itree="45">
      <Node pos="s" depth="0" NCoef="0" IVar="0" Cut="4.1886232793331146e-02" cType="1" res="-1.2891293503344059e-02" rms="3.3218628168106079e-01" purity="5.0000000000000000e-01" nType="0">
        <Node pos="l" depth="1" NCoef="0" IVar="1" Cut="1.5857808291912079e-01" cType="1" res="1.7067765817046165e-02" rms="3.2414260506629944e-01" purity="6.1408418416976929e-01" nType="0">
          <Node pos="l" depth="2" NCoef="0" IVar="-1" Cut="0.0000000000000000e+00" cType="1" res="1.3734113425016403e-02" rms="3.3213678002357483e-01" purity="7.5572222471237183e-01" nType="-99"/>
          <Node pos="r" depth="2" NCoef="0" IVar="-1" Cut="0.0000000000000000e+00" cType="1" res="-1.7821159213781357e-02" rms="2.7674466371536255e-01" purity="1.0430324077606201e-01" nType="-99"/>
        </Node>
        <Node pos="r" depth="1" NCoef="0" IVar="7" Cut="-3.4425168037414551e+00" cType="1" res="-5.5599283427000046e-02" rms="3.3877745270729065e-01" purity="3.3736786246299744e-01" nType="0">
          <Node pos="l" depth="2" NCoef="0" IVar="-1" Cut="0.0000000000000000e+00" cType="1" res="-9.3591511249542236e-03" rms="3.5022586584091187e-01" purity="3.9199349284172058e-01" nType="-99"/>
          <Node pos="r" depth="2" NCoef="0" IVar="-1" Cut="0.0000000000000000e+00" cType="1" res="-2.8673227876424789e-02" rms="2.8175380825996399e-01" purity="1.3049934804439545e-01" nType="-99"/>
        </Node>
      </Node>
    </BinaryTree>
    <BinaryTree type="DecisionTree" boostWeight="1.0000000000000000e+00" itree="46">
      <Node pos="s" depth="0" NCoef="0" IVar="6" Cut="-5.0639576911926270e+00" cType="1" res="-1.2539767660200596e-02" rms="3.3151325583457947e-01" purity="5.0000000000000000e-01" nType="0">
        <Node pos="l" depth="1" NCoef="0" IVar="8" Cut="-1.7933747172355652e-01" cType="1" res="1.8134754151105881e-02" rms="3.2294854521751404e-01" purity="5.9213304519653320e-01" nType="0">
          <Node pos="l" depth="2" NCoef="0" IVar="-1" Cut="0.0000000000000000e+00" cType="1" res="-3.0361516401171684e-02" rms="1.4713282883167267e-01" purity="2.1029260009527206e-02" nType="-99"/>
          <Node pos="r" depth="2" NCoef="0" IVar="-1" Cut="0.0000000000000000e+00" cType="1" res="1.0725799016654491e-02" rms="3.3510202169418335e-01" purity="6.6432517766952515e-01" nType="-99"/>
        </Node>
        <Node pos="r" depth="1" NCoef="0" IVar="3" Cut="7.3273772001266479e-01" cType="1" res="-5.2767299115657806e-02" rms="3.3823034167289734e-01" purity="3.7917378544807434e-01" nType="0">
          <Node pos="l" depth="2" NCoef="0" IVar="-1" Cut="0.0000000000000000e+00" cType="1" res="-1.7453681677579880e-02" rms="3.2617098093032837e-01" purity="2.3548807203769684e-01" nType="-99"/>
          <Node pos="r" depth="2" NCoef="0" IVar="-1" Cut="0.0000000000000000e+00" cType="1" res="-1.3153528561815619e-03" rms="3.6143279075622559e-01" purity="7.3010069131851196e-01" nType="-99"/>
        </Node>
      </Node>
    </BinaryTree>
    <BinaryTree type="DecisionTree" boostWeight="1.0000000000000000e+00" itree="47">
      <Node pos="s" depth="0" NCoef="0" IVar="7" Cut="-4.7417087554931641e+00" cType="1" res="-1.2099370360374451e-02" rms="3.3086028695106506e-01" purity="5.0000000000000000e-01" nType="0">
        <Node pos="l" depth="1" NCoef="0" IVar="8" Cut="-1.9832003116607666e-01" cType="1" res="2.3146003484725952e-02" rms="3.2338881492614746e-01" purity="6.1486762762069702e-01" nType="0">
          <Node pos="l" depth="2" NCoef="0" IVar="-1" Cut="0.0000000000000000e+00" cType="1" res="-3.0287610366940498e-02" rms="1.4383400976657867e-01" purity="2.0293349400162697e-02" nType="-99"/>
          <Node pos="r" depth="2" NCoef="0" IVar="-1" Cut="0.0000000000000000e+00" cType="1" res="1.2210839428007603e-02" rms="3.3495184779167175e-01" purity="6.8591409921646118e-01" nType="-99"/>
        </Node>
        <Node pos="r" depth="1" NCoef="0" IVar="6" Cut="-4.2030086517333984e+00" cType="1" res="-4.5562744140625000e-02" rms="3.3438056707382202e-01" purity="3.9094004034996033e-01" nType="0">
          <Node pos="l" depth="2" NCoef="0" IVar="-1" Cut="0.0000000000000000e+00" cType="1" res="-7.4247606098651886e-03" rms="3.3536627888679504e-01" purity="4.4231545925140381e-01" nType="-99"/>
          <Node pos="r" depth="2" NCoef="0" IVar="-1" Cut="0.0000000000000000e+00" cType="1" res="-2.3743288591504097e-02" rms="3.2658129930496216e-01" purity="2.5224691629409790e-01" nType="-99"/>
        </Node>
      </Node>
    </BinaryTree>
    <BinaryTree type="DecisionTree" boostWeight="1.0000000000000000e+00" itree="48">
