<?xml version="1.0"?>
<MethodSetup Method="BDT::BDTG">
  <GeneralInfo>
    <Info name="TMVA Release" value="4.2.0 [262656]"/>
    <Info name="ROOT Release" value="5.34/18 [336402]"/>
    <Info name="Creator" value="botta"/>
    <Info name="Date" value="Mon Jan  5 18:57:52 2015"/>
    <Info name="Host" value="Linux cmsdev02.cern.ch 2.6.32-431.23.3.el6.x86_64 #1 SMP Wed Jul 30 09:43:11 CEST 2014 x86_64 x86_64 x86_64 GNU/Linux"/>
    <Info name="Dir" value="/afs/cern.ch/user/b/botta/CMGToolsGit/newRecipe72/CMSSW_7_2_3/src/CMGTools/TTHAnalysis/macros/leptons/trainingPHYS14leptonMVA_good"/>
    <Info name="Training events" value="99097"/>
    <Info name="TrainingTime" value="6.67752230e+01"/>
    <Info name="AnalysisType" value="Classification"/>
  </GeneralInfo>
  <Options>
    <Option name="V" modified="Yes">False</Option>
    <Option name="VerbosityLevel" modified="No">Default</Option>
    <Option name="VarTransform" modified="No">None</Option>
    <Option name="H" modified="Yes">False</Option>
    <Option name="CreateMVAPdfs" modified="Yes">True</Option>
    <Option name="IgnoreNegWeightsInTraining" modified="No">False</Option>
    <Option name="NTrees" modified="Yes">500</Option>
    <Option name="MaxDepth" modified="Yes">2</Option>
    <Option name="MinNodeSize" modified="No">0.1009113.2</Option>
    <Option name="nCuts" modified="Yes">2000</Option>
    <Option name="BoostType" modified="Yes">Grad</Option>
    <Option name="AdaBoostR2Loss" modified="No">quadratic</Option>
    <Option name="UseBaggedBoost" modified="No">False</Option>
    <Option name="Shrinkage" modified="Yes">1.000000e-01</Option>
    <Option name="AdaBoostBeta" modified="No">5.000000e-01</Option>
    <Option name="UseRandomisedTrees" modified="No">False</Option>
    <Option name="UseNvars" modified="Yes">9</Option>
    <Option name="UsePoissonNvars" modified="No">True</Option>
    <Option name="BaggedSampleFraction" modified="No">6.000000e-01</Option>
    <Option name="UseYesNoLeaf" modified="No">True</Option>
    <Option name="NegWeightTreatment" modified="No">ignorenegweightsintraining</Option>
    <Option name="Css" modified="No">1.000000e+00</Option>
    <Option name="Cts_sb" modified="No">1.000000e+00</Option>
    <Option name="Ctb_ss" modified="No">1.000000e+00</Option>
    <Option name="Cbb" modified="No">1.000000e+00</Option>
    <Option name="NodePurityLimit" modified="No">5.000000e-01</Option>
    <Option name="SeparationType" modified="No">giniindex</Option>
    <Option name="DoBoostMonitor" modified="No">False</Option>
    <Option name="UseFisherCuts" modified="No">False</Option>
    <Option name="MinLinCorrForFisher" modified="No">8.000000e-01</Option>
    <Option name="UseExclusiveVars" modified="No">False</Option>
    <Option name="DoPreselection" modified="No">False</Option>
    <Option name="SigToBkgFraction" modified="No">1.000000e+00</Option>
    <Option name="PruneMethod" modified="Yes">costcomplexity</Option>
    <Option name="PruneStrength" modified="Yes">5.000000e+00</Option>
    <Option name="PruningValFraction" modified="No">5.000000e-01</Option>
    <Option name="nEventsMin" modified="Yes">100</Option>
    <Option name="UseBaggedGrad" modified="Yes">False</Option>
    <Option name="GradBaggingFraction" modified="No">6.000000e-01</Option>
    <Option name="UseNTrainEvents" modified="No">0</Option>
    <Option name="NNodesMax" modified="Yes">9</Option>
  </Options>
  <Variables NVar="9">
    <Variable VarIndex="0" Expression="LepGood_relIso03-LepGood_chargedHadRelIso03" Label="LepGood_neuRelIso03" Title="LepGood_neuRelIso03" Unit="" Internal="LepGood_neuRelIso03" Type="D" Min="0.00000000e+00" Max="4.99630213e-01"/>
    <Variable VarIndex="1" Expression="LepGood_chargedHadRelIso03" Label="LepGood_chRelIso03" Title="LepGood_chRelIso03" Unit="" Internal="LepGood_chRelIso03" Type="D" Min="0.00000000e+00" Max="4.99835461e-01"/>
    <Variable VarIndex="2" Expression="min(LepGood_jetDR,0.5)" Label="LepGood_jetDR" Title="LepGood_jetDR" Unit="" Internal="LepGood_jetDR" Type="D" Min="0.00000000e+00" Max="3.83657515e-01"/>
    <Variable VarIndex="3" Expression="min(LepGood_jetPtRatio,1.5)" Label="LepGood_jetPtRatio" Title="LepGood_jetPtRatio" Unit="" Internal="LepGood_jetPtRatio" Type="D" Min="8.75915587e-02" Max="1.50000000e+00"/>
    <Variable VarIndex="4" Expression="max(LepGood_jetBTagCSV,0)" Label="LepGood_jetBTagCSV" Title="LepGood_jetBTagCSV" Unit="" Internal="LepGood_jetBTagCSV" Type="D" Min="0.00000000e+00" Max="1.00000000e+00"/>
    <Variable VarIndex="5" Expression="LepGood_sip3d" Label="LepGood_sip3d" Title="LepGood_sip3d" Unit="" Internal="LepGood_sip3d" Type="D" Min="6.33593649e-03" Max="7.25025696e+02"/>
    <Variable VarIndex="6" Expression="log(abs(LepGood_dxy))" Label="LepGood_dxy" Title="LepGood_dxy" Unit="" Internal="LepGood_dxy" Type="D" Min="-1.64637318e+01" Max="-2.99605680e+00"/>
    <Variable VarIndex="7" Expression="log(abs(LepGood_dz))" Label="LepGood_dz" Title="LepGood_dz" Unit="" Internal="LepGood_dz" Type="D" Min="-1.52446804e+01" Max="-2.30267549e+00"/>
    <Variable VarIndex="8" Expression="LepGood_mvaId" Label="LepGood_mvaId" Title="LepGood_mvaId" Unit="" Internal="LepGood_mvaId" Type="D" Min="-9.98855174e-01" Max="9.99835789e-01"/>
  </Variables>
  <Spectators NSpec="0"/>
  <Classes NClass="2">
    <Class Name="Signal" Index="0"/>
    <Class Name="Background" Index="1"/>
  </Classes>
  <Transformations NTransformations="0"/>
  <MVAPdfs>
    <PDF Name="BDTG_PDFSig" MinNSmooth="0" MaxNSmooth="0" InterpolMethod="2" KDE_type="1" KDE_iter="1" KDE_border="1" KDE_finefactor="1.0000000000000000e+00">
      <Histogram Name="BDT_tr_S_original" NBins="1981" XMin="-9.9957728385925293e-01" XMax="9.9184978008270264e-01" HasEquidistantBins="1">
        0.00000000e+00 0.00000000e+00 1.20824966e-02 4.83299862e-02 3.62474897e-02 2.41649931e-02 1.20824966e-02 3.62474897e-02 3.62474897e-02 2.41649931e-02 2.41649931e-02 3.62474897e-02 4.83299862e-02 3.62474897e-02 1.20824966e-02 3.62474897e-02 7.24949794e-02 3.62474897e-02 3.62474897e-02 4.83299862e-02 1.20824966e-02 4.83299862e-02 3.62474897e-02 4.83299862e-02 4.83299862e-02 7.24949794e-02 1.20824966e-02 2.41649931e-02 8.45774759e-02 1.20824966e-02 4.83299862e-02 6.04124828e-02 3.62474897e-02 1.20824966e-02 2.41649931e-02 4.83299862e-02 7.24949794e-02 7.24949794e-02 2.41649931e-02 7.24949794e-02 1.20824966e-02 8.45774759e-02 8.45774759e-02 1.08742469e-01 7.24949794e-02 7.24949794e-02 8.45774759e-02 6.04124828e-02 4.83299862e-02 4.83299862e-02 1.20824966e-02 3.62474897e-02 4.83299862e-02 4.83299862e-02 7.24949794e-02 6.04124828e-02 1.20824966e-01 9.66599725e-02 3.62474897e-02 3.62474897e-02 3.62474897e-02 1.08742469e-01 7.24949794e-02 1.20824966e-01 4.83299862e-02 7.24949794e-02 7.24949794e-02 3.62474897e-02 6.04124828e-02 1.32907462e-01 8.45774759e-02 2.41649931e-02 4.83299862e-02 2.41649931e-02 8.45774759e-02 3.62474897e-02 3.62474897e-02 6.04124828e-02 7.24949794e-02 6.04124828e-02 6.04124828e-02 1.20824966e-01 6.04124828e-02 4.83299862e-02 8.45774759e-02 8.45774759e-02 7.24949794e-02 8.45774759e-02 3.62474897e-02 8.45774759e-02 4.83299862e-02 9.66599725e-02 6.04124828e-02 3.62474897e-02 4.83299862e-02 3.62474897e-02 9.66599725e-02 8.45774759e-02 0.00000000e+00 6.04124828e-02 7.24949794e-02 8.45774759e-02 6.04124828e-02 9.66599725e-02 3.62474897e-02 4.83299862e-02 4.83299862e-02 8.45774759e-02 1.20824966e-01 1.20824966e-02 6.04124828e-02 7.24949794e-02 3.62474897e-02 2.41649931e-02 8.45774759e-02 8.45774759e-02 2.41649931e-02 8.45774759e-02 8.45774759e-02 6.04124828e-02 8.45774759e-02 1.20824966e-01 4.83299862e-02 6.04124828e-02 1.08742469e-01 6.04124828e-02 6.04124828e-02 6.04124828e-02 7.24949794e-02 4.83299862e-02 1.20824966e-02 1.32907462e-01 1.32907462e-01 7.24949794e-02 6.04124828e-02 8.45774759e-02 1.08742469e-01 6.04124828e-02 2.41649931e-02 4.83299862e-02 3.62474897e-02 1.08742469e-01 6.04124828e-02 9.66599725e-02 1.08742469e-01 4.83299862e-02 7.24949794e-02 2.41649931e-02 8.45774759e-02 7.24949794e-02 4.83299862e-02 9.66599725e-02 1.08742469e-01 9.66599725e-02 1.08742469e-01 9.66599725e-02 6.04124828e-02 6.04124828e-02 7.24949794e-02 2.41649931e-02 8.45774759e-02 8.45774759e-02 6.04124828e-02 6.04124828e-02 9.66599725e-02 8.45774759e-02 1.20824966e-02 7.24949794e-02 1.20824966e-02 9.66599725e-02 1.20824966e-02 9.66599725e-02 7.24949794e-02 4.83299862e-02 7.24949794e-02 6.04124828e-02 8.45774759e-02 9.66599725e-02 8.45774759e-02 2.41649931e-02 1.20824966e-01 6.04124828e-02 7.24949794e-02 7.24949794e-02 7.24949794e-02 9.66599725e-02 1.44989959e-01 7.24949794e-02 6.04124828e-02 8.45774759e-02 6.04124828e-02 2.41649931e-02 1.20824966e-01 4.83299862e-02 3.62474897e-02 4.83299862e-02 6.04124828e-02 7.24949794e-02 7.24949794e-02 1.32907462e-01 3.62474897e-02 7.24949794e-02 7.24949794e-02 6.04124828e-02 1.32907462e-01 8.45774759e-02 2.41649931e-02 2.41649931e-02 6.04124828e-02 2.41649931e-02 8.45774759e-02 7.24949794e-02 1.44989959e-01 1.20824966e-01 6.04124828e-02 2.41649931e-02 6.04124828e-02 6.04124828e-02 1.32907462e-01 3.62474897e-02 7.24949794e-02 1.08742469e-01 1.20824966e-01 3.62474897e-02 6.04124828e-02 3.62474897e-02 9.66599725e-02 8.45774759e-02 6.04124828e-02 8.45774759e-02 1.57072455e-01 1.08742469e-01 7.24949794e-02 3.62474897e-02 3.62474897e-02 7.24949794e-02 8.45774759e-02 2.41649931e-02 6.04124828e-02 7.24949794e-02 4.83299862e-02 7.24949794e-02 6.04124828e-02 2.41649931e-02 1.20824966e-02 9.66599725e-02 7.24949794e-02 2.41649931e-02 8.45774759e-02 7.24949794e-02 2.41649931e-02 9.66599725e-02 6.04124828e-02 8.45774759e-02 6.04124828e-02 6.04124828e-02 9.66599725e-02 8.45774759e-02 4.83299862e-02 3.62474897e-02 6.04124828e-02 8.45774759e-02 8.45774759e-02 1.57072455e-01 1.44989959e-01 6.04124828e-02 1.20824966e-02 1.20824966e-02 7.24949794e-02 8.45774759e-02 1.20824966e-01 4.83299862e-02 4.83299862e-02 9.66599725e-02 1.69154952e-01 1.20824966e-01 6.04124828e-02 6.04124828e-02 3.62474897e-02 7.24949794e-02 7.24949794e-02 7.24949794e-02 1.20824966e-01 6.04124828e-02 1.08742469e-01 8.45774759e-02 8.45774759e-02 4.83299862e-02 9.66599725e-02 2.41649931e-02 3.62474897e-02 6.04124828e-02 1.20824966e-01 2.41649931e-02 4.83299862e-02 9.66599725e-02 4.83299862e-02 6.04124828e-02 8.45774759e-02 9.66599725e-02 1.20824966e-01 7.24949794e-02 1.20824966e-02 2.41649931e-02 4.83299862e-02 9.66599725e-02 6.04124828e-02 8.45774759e-02 6.04124828e-02 8.45774759e-02 9.66599725e-02 7.24949794e-02 6.04124828e-02 6.04124828e-02 7.24949794e-02 2.41649931e-02 1.20824966e-02 6.04124828e-02 6.04124828e-02 1.20824966e-02 1.08742469e-01 6.04124828e-02 1.08742469e-01 6.04124828e-02 8.45774759e-02 8.45774759e-02 3.62474897e-02 8.45774759e-02 7.24949794e-02 3.62474897e-02 7.24949794e-02 7.24949794e-02 4.83299862e-02 6.04124828e-02 1.20824966e-01 6.04124828e-02 9.66599725e-02 3.62474897e-02 7.24949794e-02 8.45774759e-02 3.62474897e-02 7.24949794e-02 8.45774759e-02 3.62474897e-02 1.32907462e-01 8.45774759e-02 6.04124828e-02 3.62474897e-02 1.08742469e-01 8.45774759e-02 7.24949794e-02 2.41649931e-02 3.62474897e-02 1.08742469e-01 6.04124828e-02 4.83299862e-02 6.04124828e-02 7.24949794e-02 7.24949794e-02 4.83299862e-02 2.41649931e-02 7.24949794e-02 7.24949794e-02 1.20824966e-02 8.45774759e-02 7.24949794e-02 4.83299862e-02 3.62474897e-02 1.08742469e-01 1.20824966e-01 3.62474897e-02 4.83299862e-02 8.45774759e-02 7.24949794e-02 8.45774759e-02 6.04124828e-02 1.08742469e-01 6.04124828e-02 8.45774759e-02 6.04124828e-02 3.62474897e-02 6.04124828e-02 6.04124828e-02 7.24949794e-02 4.83299862e-02 9.66599725e-02 3.62474897e-02 3.62474897e-02 1.20824966e-02 3.62474897e-02 3.62474897e-02 4.83299862e-02 3.62474897e-02 2.41649931e-02 4.83299862e-02 2.41649931e-02 7.24949794e-02 3.62474897e-02 6.04124828e-02 6.04124828e-02 9.66599725e-02 6.04124828e-02 2.41649931e-02 7.24949794e-02 4.83299862e-02 1.08742469e-01 7.24949794e-02 7.24949794e-02 1.32907462e-01 4.83299862e-02 4.83299862e-02 8.45774759e-02 9.66599725e-02 1.08742469e-01 8.45774759e-02 6.04124828e-02 6.04124828e-02 9.66599725e-02 9.66599725e-02 8.45774759e-02 4.83299862e-02 1.08742469e-01 6.04124828e-02 9.66599725e-02 3.62474897e-02 6.04124828e-02 6.04124828e-02 6.04124828e-02 1.20824966e-02 9.66599725e-02 7.24949794e-02 8.45774759e-02 8.45774759e-02 3.62474897e-02 6.04124828e-02 3.62474897e-02 8.45774759e-02 6.04124828e-02 4.83299862e-02 2.41649931e-02 7.24949794e-02 3.62474897e-02 8.45774759e-02 8.45774759e-02 6.04124828e-02 6.04124828e-02 3.62474897e-02 9.66599725e-02 1.44989959e-01 3.62474897e-02 3.62474897e-02 6.04124828e-02 3.62474897e-02 4.83299862e-02 3.62474897e-02 2.41649931e-02 1.08742469e-01 3.62474897e-02 7.24949794e-02 1.44989959e-01 3.62474897e-02 1.08742469e-01 2.41649931e-02 7.24949794e-02 6.04124828e-02 3.62474897e-02 8.45774759e-02 1.08742469e-01 4.83299862e-02 2.41649931e-02 4.83299862e-02 6.04124828e-02 2.41649931e-02 8.45774759e-02 9.66599725e-02 3.62474897e-02 6.04124828e-02 9.66599725e-02 3.62474897e-02 8.45774759e-02 8.45774759e-02 6.04124828e-02 7.24949794e-02 1.20824966e-01 6.04124828e-02 2.41649931e-02 6.04124828e-02 1.32907462e-01 1.32907462e-01 1.57072455e-01 4.83299862e-02 3.62474897e-02 6.04124828e-02 4.83299862e-02 8.45774759e-02 2.41649931e-02 4.83299862e-02 9.66599725e-02 9.66599725e-02 3.62474897e-02 3.62474897e-02 3.62474897e-02 3.62474897e-02 4.83299862e-02 1.32907462e-01 9.66599725e-02 9.66599725e-02 1.20824966e-02 7.24949794e-02 6.04124828e-02 8.45774759e-02 4.83299862e-02 9.66599725e-02 1.08742469e-01 7.24949794e-02 4.83299862e-02 4.83299862e-02 9.66599725e-02 3.62474897e-02 7.24949794e-02 7.24949794e-02 9.66599725e-02 1.08742469e-01 6.04124828e-02 7.24949794e-02 4.83299862e-02 6.04124828e-02 9.66599725e-02 7.24949794e-02 8.45774759e-02 7.24949794e-02 6.04124828e-02 8.45774759e-02 7.24949794e-02 4.83299862e-02 7.24949794e-02 7.24949794e-02 6.04124828e-02 4.83299862e-02 7.24949794e-02 8.45774759e-02 7.24949794e-02 4.83299862e-02 4.83299862e-02 1.20824966e-01 4.83299862e-02 4.83299862e-02 7.24949794e-02 3.62474897e-02 8.45774759e-02 4.83299862e-02 8.45774759e-02 2.41649931e-02 8.45774759e-02 8.45774759e-02 2.41649931e-02 7.24949794e-02 6.04124828e-02 9.66599725e-02 4.83299862e-02 1.08742469e-01 9.66599725e-02 8.45774759e-02 4.83299862e-02 8.45774759e-02 9.66599725e-02 1.44989959e-01 9.66599725e-02 9.66599725e-02 6.04124828e-02 6.04124828e-02 6.04124828e-02 8.45774759e-02 6.04124828e-02 3.62474897e-02 9.66599725e-02 6.04124828e-02 8.45774759e-02 8.45774759e-02 6.04124828e-02 8.45774759e-02 9.66599725e-02 8.45774759e-02 1.20824966e-01 4.83299862e-02 7.24949794e-02 6.04124828e-02 1.08742469e-01 4.83299862e-02 6.04124828e-02 2.41649931e-02 4.83299862e-02 6.04124828e-02 8.45774759e-02 6.04124828e-02 3.62474897e-02 7.24949794e-02 3.62474897e-02 4.83299862e-02 9.66599725e-02 8.45774759e-02 4.83299862e-02 8.45774759e-02 6.04124828e-02 4.83299862e-02 4.83299862e-02 8.45774759e-02 3.62474897e-02 7.24949794e-02 4.83299862e-02 6.04124828e-02 4.83299862e-02 4.83299862e-02 8.45774759e-02 3.62474897e-02 8.45774759e-02 4.83299862e-02 4.83299862e-02 7.24949794e-02 8.45774759e-02 4.83299862e-02 6.04124828e-02 9.66599725e-02 1.08742469e-01 4.83299862e-02 6.04124828e-02 9.66599725e-02 4.83299862e-02 6.04124828e-02 1.08742469e-01 6.04124828e-02 7.24949794e-02 4.83299862e-02 3.62474897e-02 7.24949794e-02 1.32907462e-01 4.83299862e-02 6.04124828e-02 6.04124828e-02 7.24949794e-02 6.04124828e-02 8.45774759e-02 7.24949794e-02 7.24949794e-02 8.45774759e-02 7.24949794e-02 2.41649931e-02 6.04124828e-02 6.04124828e-02 4.83299862e-02 9.66599725e-02 7.24949794e-02 9.66599725e-02 7.24949794e-02 4.83299862e-02 7.24949794e-02 6.04124828e-02 6.04124828e-02 8.45774759e-02 8.45774759e-02 3.62474897e-02 4.83299862e-02 4.83299862e-02 7.24949794e-02 9.66599725e-02 3.62474897e-02 6.04124828e-02 3.62474897e-02 4.83299862e-02 7.24949794e-02 7.24949794e-02 1.20824966e-01 8.45774759e-02 7.24949794e-02 1.20824966e-02 1.20824966e-01 4.83299862e-02 3.62474897e-02 1.20824966e-02 3.62474897e-02 1.08742469e-01 1.20824966e-01 6.04124828e-02 1.44989959e-01 7.24949794e-02 6.04124828e-02 1.08742469e-01 2.41649931e-02 7.24949794e-02 2.41649931e-02 7.24949794e-02 1.57072455e-01 6.04124828e-02 6.04124828e-02 8.45774759e-02 4.83299862e-02 1.08742469e-01 2.41649931e-02 7.24949794e-02 8.45774759e-02 4.83299862e-02 4.83299862e-02 6.04124828e-02 6.04124828e-02 7.24949794e-02 8.45774759e-02 4.83299862e-02 6.04124828e-02 8.45774759e-02 6.04124828e-02 7.24949794e-02 1.08742469e-01 6.04124828e-02 9.66599725e-02 9.66599725e-02 1.32907462e-01 2.41649931e-02 7.24949794e-02 2.41649931e-02 8.45774759e-02 1.20824966e-02 7.24949794e-02 7.24949794e-02 1.32907462e-01 6.04124828e-02 4.83299862e-02 6.04124828e-02 6.04124828e-02 7.24949794e-02 7.24949794e-02 1.32907462e-01 9.66599725e-02 4.83299862e-02 3.62474897e-02 4.83299862e-02 4.83299862e-02 8.45774759e-02 1.20824966e-01 6.04124828e-02 7.24949794e-02 7.24949794e-02 7.24949794e-02 2.41649931e-02 8.45774759e-02 6.04124828e-02 1.20824966e-02 4.83299862e-02 7.24949794e-02 7.24949794e-02 1.08742469e-01 9.66599725e-02 8.45774759e-02 1.08742469e-01 9.66599725e-02 2.41649931e-02 4.83299862e-02 7.24949794e-02 8.45774759e-02 9.66599725e-02 1.44989959e-01 1.20824966e-01 8.45774759e-02 1.08742469e-01 7.24949794e-02 8.45774759e-02 9.66599725e-02 1.20824966e-01 1.08742469e-01 8.45774759e-02 2.41649931e-02 8.45774759e-02 6.04124828e-02 2.41649931e-02 7.24949794e-02 1.08742469e-01 8.45774759e-02 4.83299862e-02 2.41649931e-02 8.45774759e-02 3.62474897e-02 6.04124828e-02 7.24949794e-02 8.45774759e-02 4.83299862e-02 8.45774759e-02 3.62474897e-02 7.24949794e-02 8.45774759e-02 1.44989959e-01 4.83299862e-02 1.44989959e-01 2.41649931e-02 8.45774759e-02 4.83299862e-02 7.24949794e-02 6.04124828e-02 8.45774759e-02 8.45774759e-02 6.04124828e-02 9.66599725e-02 4.83299862e-02 1.20824966e-01 1.08742469e-01 6.04124828e-02 4.83299862e-02 9.66599725e-02 3.62474897e-02 9.66599725e-02 9.66599725e-02 9.66599725e-02 1.20824966e-01 4.83299862e-02 1.20824966e-01 4.83299862e-02 9.66599725e-02 8.45774759e-02 7.24949794e-02 3.62474897e-02 4.83299862e-02 6.04124828e-02 1.08742469e-01 8.45774759e-02 2.41649931e-02 7.24949794e-02 8.45774759e-02 3.62474897e-02 3.62474897e-02 3.62474897e-02 1.32907462e-01 8.45774759e-02 4.83299862e-02 6.04124828e-02 3.62474897e-02 1.20824966e-02 8.45774759e-02 2.41649931e-02 8.45774759e-02 6.04124828e-02 8.45774759e-02 6.04124828e-02 7.24949794e-02 7.24949794e-02 9.66599725e-02 3.62474897e-02 9.66599725e-02 1.32907462e-01 3.62474897e-02 7.24949794e-02 7.24949794e-02 6.04124828e-02 6.04124828e-02 1.08742469e-01 9.66599725e-02 4.83299862e-02 1.32907462e-01 1.20824966e-02 7.24949794e-02 4.83299862e-02 1.44989959e-01 1.08742469e-01 9.66599725e-02 7.24949794e-02 1.20824966e-01 8.45774759e-02 8.45774759e-02 4.83299862e-02 1.32907462e-01 6.04124828e-02 9.66599725e-02 4.83299862e-02 9.66599725e-02 1.08742469e-01 3.62474897e-02 6.04124828e-02 8.45774759e-02 6.04124828e-02 1.08742469e-01 1.20824966e-02 6.04124828e-02 6.04124828e-02 9.66599725e-02 1.44989959e-01 4.83299862e-02 4.83299862e-02 8.45774759e-02 6.04124828e-02 8.45774759e-02 1.20824966e-01 1.08742469e-01 7.24949794e-02 8.45774759e-02 7.24949794e-02 8.45774759e-02 8.45774759e-02 6.04124828e-02 1.20824966e-01 9.66599725e-02 6.04124828e-02 4.83299862e-02 1.08742469e-01 4.83299862e-02 1.08742469e-01 1.08742469e-01 2.41649931e-02 1.20824966e-01 9.66599725e-02 1.81237448e-01 1.57072455e-01 1.08742469e-01 1.20824966e-01 6.04124828e-02 1.20824966e-01 6.04124828e-02 3.62474897e-02 4.83299862e-02 1.32907462e-01 9.66599725e-02 1.32907462e-01 9.66599725e-02 8.45774759e-02 4.83299862e-02 1.32907462e-01 8.45774759e-02 4.83299862e-02 3.62474897e-02 7.24949794e-02 2.41649931e-02 4.83299862e-02 1.08742469e-01 4.83299862e-02 1.44989959e-01 8.45774759e-02 1.57072455e-01 2.41649931e-02 7.24949794e-02 1.32907462e-01 1.08742469e-01 8.45774759e-02 9.66599725e-02 7.24949794e-02 6.04124828e-02 1.32907462e-01 1.44989959e-01 4.83299862e-02 8.45774759e-02 1.08742469e-01 4.83299862e-02 6.04124828e-02 4.83299862e-02 1.20824966e-01 1.20824966e-01 1.32907462e-01 8.45774759e-02 1.20824966e-01 6.04124828e-02 3.62474897e-02 1.08742469e-01 6.04124828e-02 9.66599725e-02 8.45774759e-02 7.24949794e-02 9.66599725e-02 1.20824966e-01 8.45774759e-02 8.45774759e-02 9.66599725e-02 9.66599725e-02 7.24949794e-02 8.45774759e-02 9.66599725e-02 7.24949794e-02 1.32907462e-01 7.24949794e-02 4.83299862e-02 3.62474897e-02 8.45774759e-02 1.81237448e-01 6.04124828e-02 6.04124828e-02 6.04124828e-02 1.08742469e-01 1.08742469e-01 4.83299862e-02 8.45774759e-02 4.83299862e-02 6.04124828e-02 7.24949794e-02 6.04124828e-02 7.24949794e-02 1.08742469e-01 8.45774759e-02 8.45774759e-02 1.32907462e-01 7.24949794e-02 7.24949794e-02 1.57072455e-01 9.66599725e-02 6.04124828e-02 7.24949794e-02 6.04124828e-02 9.66599725e-02 1.08742469e-01 1.57072455e-01 7.24949794e-02 7.24949794e-02 1.32907462e-01 8.45774759e-02 1.20824966e-01 9.66599725e-02 6.04124828e-02 8.45774759e-02 1.08742469e-01 3.62474897e-02 7.24949794e-02 1.20824966e-01 1.08742469e-01 7.24949794e-02 7.24949794e-02 1.32907462e-01 8.45774759e-02 1.20824966e-01 7.24949794e-02 9.66599725e-02 9.66599725e-02 3.62474897e-02 6.04124828e-02 4.83299862e-02 7.24949794e-02 7.24949794e-02 1.08742469e-01 1.32907462e-01 4.83299862e-02 1.32907462e-01 1.20824966e-01 1.20824966e-01 3.62474897e-02 1.20824966e-01 6.04124828e-02 8.45774759e-02 7.24949794e-02 6.04124828e-02 3.62474897e-02 4.83299862e-02 6.04124828e-02 9.66599725e-02 9.66599725e-02 4.83299862e-02 1.20824966e-01 9.66599725e-02 1.08742469e-01 1.20824966e-01 7.24949794e-02 1.20824966e-01 9.66599725e-02 8.45774759e-02 3.62474897e-02 1.08742469e-01 3.62474897e-02 7.24949794e-02 3.62474897e-02 8.45774759e-02 1.81237448e-01 4.83299862e-02 8.45774759e-02 4.83299862e-02 9.66599725e-02 7.24949794e-02 8.45774759e-02 8.45774759e-02 9.66599725e-02 9.66599725e-02 7.24949794e-02 1.08742469e-01 1.08742469e-01 3.62474897e-02 1.69154952e-01 4.83299862e-02 1.08742469e-01 6.04124828e-02 1.44989959e-01 1.44989959e-01 8.45774759e-02 9.66599725e-02 4.83299862e-02 8.45774759e-02 8.45774759e-02 1.57072455e-01 9.66599725e-02 1.32907462e-01 7.24949794e-02 1.20824966e-01 1.44989959e-01 1.20824966e-01 8.45774759e-02 1.20824966e-01 1.08742469e-01 7.24949794e-02 1.32907462e-01 7.24949794e-02 1.44989959e-01 9.66599725e-02 8.45774759e-02 8.45774759e-02 3.62474897e-02 8.45774759e-02 1.08742469e-01 8.45774759e-02 9.66599725e-02 8.45774759e-02 3.62474897e-02 8.45774759e-02 6.04124828e-02 1.20824966e-01 6.04124828e-02 1.20824966e-01 1.08742469e-01 1.08742469e-01 1.44989959e-01 7.24949794e-02 1.57072455e-01 8.45774759e-02 1.08742469e-01 9.66599725e-02 7.24949794e-02 1.08742469e-01 1.57072455e-01 8.45774759e-02 9.66599725e-02 1.44989959e-01 1.20824966e-01 9.66599725e-02 8.45774759e-02 1.20824966e-01 1.08742469e-01 1.32907462e-01 4.83299862e-02 1.32907462e-01 9.66599725e-02 1.20824966e-01 8.45774759e-02 4.83299862e-02 1.08742469e-01 1.08742469e-01 1.20824966e-01 1.20824966e-01 1.08742469e-01 1.20824966e-01 1.57072455e-01 7.24949794e-02 7.24949794e-02 1.08742469e-01 1.08742469e-01 1.08742469e-01 1.08742469e-01 1.57072455e-01 1.08742469e-01 8.45774759e-02 3.62474897e-02 8.45774759e-02 7.24949794e-02 1.69154952e-01 1.69154952e-01 1.20824966e-01 9.66599725e-02 1.08742469e-01 7.24949794e-02 9.66599725e-02 1.81237448e-01 9.66599725e-02 1.44989959e-01 2.05402442e-01 7.24949794e-02 1.57072455e-01 1.57072455e-01 1.08742469e-01 9.66599725e-02 1.08742469e-01 2.41649931e-02 7.24949794e-02 1.08742469e-01 1.44989959e-01 1.20824966e-01 1.08742469e-01 8.45774759e-02 1.08742469e-01 8.45774759e-02 9.66599725e-02 1.57072455e-01 1.20824966e-01 7.24949794e-02 6.04124828e-02 8.45774759e-02 8.45774759e-02 1.32907462e-01 1.32907462e-01 1.08742469e-01 1.81237448e-01 9.66599725e-02 8.45774759e-02 1.20824966e-01 9.66599725e-02 1.69154952e-01 9.66599725e-02 9.66599725e-02 1.08742469e-01 1.08742469e-01 1.08742469e-01 8.45774759e-02 9.66599725e-02 1.57072455e-01 1.20824966e-01 1.20824966e-01 1.32907462e-01 2.17484938e-01 1.20824966e-01 1.08742469e-01 1.69154952e-01 1.44989959e-01 8.45774759e-02 1.69154952e-01 1.32907462e-01 1.57072455e-01 1.44989959e-01 8.45774759e-02 7.24949794e-02 1.20824966e-01 9.66599725e-02 1.57072455e-01 2.41649931e-02 1.44989959e-01 1.32907462e-01 9.66599725e-02 1.32907462e-01 1.08742469e-01 8.45774759e-02 1.08742469e-01 9.66599725e-02 8.45774759e-02 1.57072455e-01 1.32907462e-01 8.45774759e-02 1.08742469e-01 1.32907462e-01 1.81237448e-01 8.45774759e-02 1.93319945e-01 4.83299862e-02 9.66599725e-02 1.20824966e-01 8.45774759e-02 1.08742469e-01 2.05402442e-01 9.66599725e-02 1.32907462e-01 1.20824966e-01 1.69154952e-01 1.57072455e-01 8.45774759e-02 1.44989959e-01 1.20824966e-01 9.66599725e-02 1.32907462e-01 1.44989959e-01 1.44989959e-01 1.32907462e-01 1.44989959e-01 1.93319945e-01 1.44989959e-01 1.57072455e-01 1.69154952e-01 1.69154952e-01 4.83299862e-02 7.24949794e-02 1.57072455e-01 9.66599725e-02 1.20824966e-01 1.57072455e-01 1.08742469e-01 1.08742469e-01 1.20824966e-01 7.24949794e-02 2.41649931e-01 1.57072455e-01 1.08742469e-01 1.69154952e-01 1.08742469e-01 1.44989959e-01 1.57072455e-01 1.20824966e-01 6.04124828e-02 2.05402442e-01 1.20824966e-01 1.69154952e-01 1.20824966e-01 1.69154952e-01 9.66599725e-02 1.08742469e-01 1.81237448e-01 2.05402442e-01 8.45774759e-02 1.08742469e-01 1.57072455e-01 1.20824966e-01 1.32907462e-01 1.81237448e-01 1.32907462e-01 1.08742469e-01 1.69154952e-01 1.20824966e-01 1.20824966e-01 2.05402442e-01 1.08742469e-01 1.57072455e-01 1.20824966e-01 1.20824966e-01 1.08742469e-01 9.66599725e-02 1.69154952e-01 1.81237448e-01 1.32907462e-01 1.69154952e-01 1.81237448e-01 1.20824966e-01 1.44989959e-01 1.81237448e-01 1.81237448e-01 8.45774759e-02 1.08742469e-01 1.81237448e-01 1.20824966e-01 1.44989959e-01 1.81237448e-01 2.05402442e-01 1.81237448e-01 1.32907462e-01 1.57072455e-01 1.44989959e-01 1.93319945e-01 1.20824966e-01 2.29567435e-01 1.20824966e-01 1.32907462e-01 1.08742469e-01 2.17484938e-01 2.53732428e-01 1.81237448e-01 1.69154952e-01 2.53732428e-01 1.44989959e-01 1.44989959e-01 2.05402442e-01 1.69154952e-01 1.32907462e-01 2.05402442e-01 1.20824966e-01 2.05402442e-01 9.66599725e-02 1.20824966e-01 1.44989959e-01 2.05402442e-01 1.69154952e-01 1.44989959e-01 1.08742469e-01 1.20824966e-01 1.20824966e-01 1.57072455e-01 1.69154952e-01 1.44989959e-01 1.57072455e-01 1.08742469e-01 1.44989959e-01 1.20824966e-01 1.08742469e-01 1.32907462e-01 1.93319945e-01 1.20824966e-01 1.57072455e-01 1.57072455e-01 1.81237448e-01 1.57072455e-01 1.69154952e-01 2.17484938e-01 1.08742469e-01 1.32907462e-01 1.93319945e-01 1.32907462e-01 1.57072455e-01 6.04124828e-02 2.53732428e-01 1.81237448e-01 2.17484938e-01 2.53732428e-01 8.45774759e-02 2.05402442e-01 1.93319945e-01 1.93319945e-01 1.44989959e-01 1.32907462e-01 2.41649931e-01 1.93319945e-01 1.32907462e-01 1.81237448e-01 1.57072455e-01 2.89979917e-01 2.05402442e-01 9.66599725e-02 1.81237448e-01 1.32907462e-01 1.32907462e-01 2.17484938e-01 2.05402442e-01 2.41649931e-01 2.89979917e-01 1.20824966e-01 1.93319945e-01 1.69154952e-01 1.57072455e-01 1.44989959e-01 1.44989959e-01 2.41649931e-01 1.93319945e-01 1.57072455e-01 2.53732428e-01 1.57072455e-01 1.32907462e-01 2.05402442e-01 2.17484938e-01 1.81237448e-01 1.57072455e-01 1.32907462e-01 2.41649931e-01 1.57072455e-01 1.93319945e-01 2.17484938e-01 3.02062414e-01 1.69154952e-01 2.29567435e-01 1.57072455e-01 1.44989959e-01 1.69154952e-01 1.44989959e-01 2.05402442e-01 1.93319945e-01 1.44989959e-01 2.41649931e-01 1.57072455e-01 2.05402442e-01 1.81237448e-01 1.57072455e-01 2.17484938e-01 3.98722386e-01 2.53732428e-01 1.57072455e-01 3.02062414e-01 1.08742469e-01 2.29567435e-01 2.53732428e-01 1.93319945e-01 1.69154952e-01 2.41649931e-01 2.05402442e-01 2.65814924e-01 2.29567435e-01 2.53732428e-01 1.57072455e-01 1.20824966e-01 2.77897421e-01 1.93319945e-01 2.17484938e-01 2.05402442e-01 2.53732428e-01 1.93319945e-01 1.69154952e-01 1.57072455e-01 2.17484938e-01 1.93319945e-01 1.69154952e-01 7.24949794e-02 2.89979917e-01 1.81237448e-01 2.29567435e-01 1.44989959e-01 2.65814924e-01 1.93319945e-01 2.53732428e-01 3.02062414e-01 2.77897421e-01 2.41649931e-01 2.05402442e-01 2.29567435e-01 2.65814924e-01 1.69154952e-01 1.81237448e-01 3.02062414e-01 2.17484938e-01 2.41649931e-01 2.05402442e-01 1.44989959e-01 3.38309904e-01 2.17484938e-01 2.17484938e-01 2.17484938e-01 1.81237448e-01 2.65814924e-01 2.53732428e-01 2.53732428e-01 2.17484938e-01 2.29567435e-01 2.77897421e-01 1.81237448e-01 1.44989959e-01 1.57072455e-01 2.65814924e-01 2.89979917e-01 2.53732428e-01 3.14144911e-01 2.29567435e-01 2.41649931e-01 2.53732428e-01 2.53732428e-01 2.53732428e-01 2.17484938e-01 2.77897421e-01 2.29567435e-01 3.02062414e-01 3.38309904e-01 2.05402442e-01 2.65814924e-01 2.41649931e-01 2.41649931e-01 2.77897421e-01 2.41649931e-01 2.05402442e-01 2.41649931e-01 1.93319945e-01 2.29567435e-01 1.93319945e-01 3.14144911e-01 2.29567435e-01 1.57072455e-01 1.44989959e-01 2.77897421e-01 1.81237448e-01 2.41649931e-01 1.81237448e-01 3.02062414e-01 3.02062414e-01 2.41649931e-01 3.62474897e-01 2.77897421e-01 3.26227407e-01 3.38309904e-01 3.14144911e-01 3.38309904e-01 2.53732428e-01 2.29567435e-01 2.77897421e-01 2.41649931e-01 2.41649931e-01 3.50392400e-01 2.77897421e-01 3.02062414e-01 2.77897421e-01 2.53732428e-01 3.62474897e-01 2.77897421e-01 2.77897421e-01 2.89979917e-01 2.41649931e-01 2.65814924e-01 3.98722386e-01 2.77897421e-01 3.14144911e-01 1.69154952e-01 3.02062414e-01 4.10804883e-01 2.65814924e-01 2.65814924e-01 3.02062414e-01 3.38309904e-01 2.53732428e-01 2.65814924e-01 2.77897421e-01 3.62474897e-01 3.26227407e-01 3.14144911e-01 3.02062414e-01 3.38309904e-01 2.05402442e-01 2.53732428e-01 1.81237448e-01 3.26227407e-01 3.38309904e-01 2.65814924e-01 3.98722386e-01 2.77897421e-01 4.10804883e-01 2.89979917e-01 3.26227407e-01 2.77897421e-01 3.02062414e-01 2.05402442e-01 3.74557393e-01 3.02062414e-01 3.14144911e-01 2.89979917e-01 2.53732428e-01 4.34969876e-01 4.22887380e-01 3.38309904e-01 3.26227407e-01 3.14144911e-01 3.26227407e-01 3.26227407e-01 3.26227407e-01 4.10804883e-01 3.86639890e-01 3.14144911e-01 2.65814924e-01 2.77897421e-01 3.74557393e-01 5.55794842e-01 2.89979917e-01 3.50392400e-01 3.86639890e-01 3.50392400e-01 2.89979917e-01 4.47052373e-01 3.38309904e-01 3.02062414e-01 2.77897421e-01 4.10804883e-01 4.22887380e-01 2.89979917e-01 3.50392400e-01 3.50392400e-01 4.83299862e-01 3.62474897e-01 3.74557393e-01 3.38309904e-01 4.22887380e-01 3.02062414e-01 3.98722386e-01 4.10804883e-01 4.10804883e-01 4.83299862e-01 4.22887380e-01 4.34969876e-01 3.02062414e-01 3.62474897e-01 3.62474897e-01 3.86639890e-01 3.38309904e-01 3.86639890e-01 3.86639890e-01 4.71217366e-01 3.02062414e-01 3.98722386e-01 5.67877338e-01 3.26227407e-01 3.86639890e-01 5.19547352e-01 4.47052373e-01 4.22887380e-01 4.47052373e-01 3.62474897e-01 3.98722386e-01 3.98722386e-01 5.19547352e-01 4.47052373e-01 3.74557393e-01 3.86639890e-01 3.26227407e-01 4.10804883e-01 3.62474897e-01 3.98722386e-01 4.47052373e-01 3.62474897e-01 4.59134869e-01 4.47052373e-01 3.74557393e-01 4.71217366e-01 5.07464855e-01 4.59134869e-01 5.92042331e-01 4.10804883e-01 5.43712345e-01 5.92042331e-01 3.62474897e-01 4.47052373e-01 4.83299862e-01 5.19547352e-01 3.98722386e-01 3.62474897e-01 5.67877338e-01 3.74557393e-01 4.83299862e-01 4.22887380e-01 4.10804883e-01 6.04124828e-01 3.26227407e-01 5.19547352e-01 5.43712345e-01 5.19547352e-01 4.59134869e-01 5.67877338e-01 5.67877338e-01 5.43712345e-01 6.28289821e-01 5.79959835e-01 5.55794842e-01 5.07464855e-01 5.07464855e-01 3.86639890e-01 5.31629849e-01 5.55794842e-01 4.95382359e-01 5.07464855e-01 5.07464855e-01 4.71217366e-01 5.67877338e-01 6.04124828e-01 4.22887380e-01 5.07464855e-01 5.67877338e-01 6.04124828e-01 5.92042331e-01 4.83299862e-01 7.00784800e-01 6.64537311e-01 4.95382359e-01 6.40372318e-01 5.79959835e-01 5.92042331e-01 5.67877338e-01 6.16207325e-01 5.92042331e-01 6.28289821e-01 5.55794842e-01 5.31629849e-01 6.04124828e-01 6.28289821e-01 4.95382359e-01 5.67877338e-01 6.64537311e-01 6.88702304e-01 6.04124828e-01 6.76619807e-01 7.85362276e-01 7.61197283e-01 6.88702304e-01 6.40372318e-01 7.85362276e-01 7.61197283e-01 7.00784800e-01 7.37032290e-01 7.97444773e-01 6.04124828e-01 6.76619807e-01 7.73279780e-01 7.73279780e-01 6.40372318e-01 7.49114787e-01 6.76619807e-01 7.85362276e-01 6.64537311e-01 7.97444773e-01 7.24949794e-01 6.76619807e-01 9.06187242e-01 7.61197283e-01 8.57857256e-01 6.40372318e-01 8.57857256e-01 7.37032290e-01 6.88702304e-01 7.49114787e-01 7.00784800e-01 7.97444773e-01 8.69939752e-01 7.24949794e-01 8.57857256e-01 7.12867297e-01 7.85362276e-01 8.21609766e-01 7.85362276e-01 7.37032290e-01 1.08742469e+00 9.78682221e-01 7.61197283e-01 8.21609766e-01 8.82022249e-01 9.18269738e-01 8.09527269e-01 8.45774759e-01 1.00284721e+00 8.33692263e-01 1.03909470e+00 8.69939752e-01 9.66599725e-01 9.90764718e-01 1.13575468e+00 9.90764718e-01 8.45774759e-01 8.82022249e-01 8.94104745e-01 7.61197283e-01 1.05117720e+00 9.30352235e-01 9.90764718e-01 1.06325970e+00 1.05117720e+00 1.25657964e+00 1.06325970e+00 1.00284721e+00 1.08742469e+00 1.08742469e+00 1.36532211e+00 9.42434732e-01 1.06325970e+00 9.42434732e-01 1.12367218e+00 1.09950719e+00 1.18408466e+00 1.15991967e+00 1.11158968e+00 1.18408466e+00 1.24449715e+00 1.15991967e+00 1.31699212e+00 1.29282713e+00 1.35323961e+00 1.38948710e+00 1.25657964e+00 1.26866214e+00 1.35323961e+00 1.34115712e+00 1.24449715e+00 1.31699212e+00 1.31699212e+00 1.28074464e+00 1.43781709e+00 1.26866214e+00 1.47406458e+00 1.14783717e+00 1.36532211e+00 1.43781709e+00 1.54655956e+00 1.47406458e+00 1.40156960e+00 1.53447706e+00 1.29282713e+00 1.70363201e+00 1.61905454e+00 1.71571451e+00 1.64321953e+00 1.81237448e+00 1.73987950e+00 1.31699212e+00 1.61905454e+00 1.61905454e+00 1.53447706e+00 1.61905454e+00 1.55864206e+00 1.59488955e+00 1.98152944e+00 1.78820949e+00 1.86070447e+00 1.99361193e+00 2.24734436e+00 2.04194192e+00 2.09027190e+00 1.76404450e+00 1.88486946e+00 2.00569443e+00 2.17484938e+00 2.17484938e+00 2.06610691e+00 1.98152944e+00 2.40441682e+00 2.07818941e+00 2.06610691e+00 2.15068439e+00 1.93319945e+00 2.36816933e+00 2.25942686e+00 2.25942686e+00 2.40441682e+00 2.47691179e+00 2.36816933e+00 2.52524178e+00 2.48899429e+00 2.67023174e+00 2.70647923e+00 2.51315928e+00 2.70647923e+00 2.65814924e+00 2.63398425e+00 2.83938669e+00 2.63398425e+00 2.57357177e+00 2.91188167e+00 2.93604666e+00 3.32268655e+00 3.11728411e+00 2.85146919e+00 3.47975901e+00 3.55225399e+00 3.34685155e+00 3.35893404e+00 3.44351152e+00 3.25019157e+00 3.57641898e+00 3.62474897e+00 3.46767651e+00 3.74557393e+00 3.84223391e+00 4.16846131e+00 3.83015141e+00 4.01138886e+00 3.91472889e+00 3.98722386e+00 4.49468872e+00 3.91472889e+00 4.49468872e+00 4.62759618e+00 4.90549360e+00 4.33761626e+00 4.67592617e+00 5.12297854e+00 5.23172101e+00 5.03840107e+00 5.52170093e+00 5.77543336e+00 5.77543336e+00 5.34046348e+00 6.34331069e+00 5.82376334e+00 5.89625832e+00 6.83869305e+00 6.68162060e+00 6.46413566e+00 7.49114787e+00 7.18908545e+00 7.46698287e+00 7.28574542e+00 7.76904529e+00 7.91403525e+00 8.42150010e+00 8.19193267e+00 8.72356252e+00 9.44851231e+00 9.67807974e+00 1.00888846e+01 9.54517228e+00 1.02217921e+01 1.03788645e+01 1.07050920e+01 1.14662892e+01 1.19616716e+01 1.14662892e+01 1.18529291e+01 1.37619636e+01 1.26503739e+01 1.27591164e+01 1.39190360e+01 1.43298409e+01 1.38102936e+01 1.42815109e+01 1.39673660e+01 1.43419234e+01 1.39311185e+01 1.26382914e+01 1.18770941e+01 9.71432723e+00 8.50607758e+00 5.71502087e+00 2.44066430e+00 6.76619807e-01 1.20824966e-01 3.62474897e-02 
      </Histogram>
    </PDF>
    <PDF Name="BDTG_PDFBkg" MinNSmooth="0" MaxNSmooth="0" InterpolMethod="2" KDE_type="1" KDE_iter="1" KDE_border="1" KDE_finefactor="1.0000000000000000e+00">
      <Histogram Name="BDT_tr_B_original" NBins="1981" XMin="-9.9957728385925293e-01" XMax="9.9184978008270264e-01" HasEquidistantBins="1">
        9.49372167e-01 8.48501375e+00 1.65546772e+01 2.33782896e+01 2.68197637e+01 2.49803552e+01 2.28442678e+01 2.05301731e+01 1.91061149e+01 1.77413924e+01 1.59019838e+01 1.46559328e+01 1.54866335e+01 1.38252322e+01 1.26385170e+01 1.36472249e+01 1.28165243e+01 1.06804369e+01 1.07991084e+01 1.10957872e+01 1.04430938e+01 9.79040048e+00 8.60368527e+00 8.60368527e+00 9.07837135e+00 7.77298462e+00 7.95099190e+00 7.41697006e+00 8.01032766e+00 6.94228397e+00 7.35763430e+00 7.06095550e+00 7.41697006e+00 6.52693365e+00 6.11158333e+00 5.63689724e+00 6.34892637e+00 6.23025485e+00 4.92486812e+00 5.39955420e+00 5.39955420e+00 5.04353964e+00 4.86553236e+00 4.33151051e+00 4.68752508e+00 4.98420388e+00 4.09416747e+00 4.86553236e+00 3.50080987e+00 4.15350323e+00 3.85682443e+00 4.27217475e+00 4.27217475e+00 3.56014563e+00 4.03483171e+00 3.50080987e+00 3.67881715e+00 4.21283899e+00 3.56014563e+00 3.44147411e+00 3.73815291e+00 3.56014563e+00 3.56014563e+00 2.96678802e+00 3.44147411e+00 2.61077346e+00 3.50080987e+00 2.61077346e+00 4.33151051e+00 2.61077346e+00 2.31409466e+00 2.19542314e+00 2.90745226e+00 2.13608738e+00 2.43276618e+00 2.01741586e+00 2.72944498e+00 2.49210194e+00 2.25475890e+00 1.78007281e+00 2.37343042e+00 1.54272977e+00 2.49210194e+00 2.13608738e+00 2.31409466e+00 2.37343042e+00 2.43276618e+00 1.60206553e+00 1.72073705e+00 1.78007281e+00 1.95808010e+00 1.89874433e+00 2.01741586e+00 1.89874433e+00 2.19542314e+00 1.66140129e+00 1.60206553e+00 1.78007281e+00 1.30538673e+00 1.54272977e+00 1.60206553e+00 1.83940857e+00 1.78007281e+00 1.54272977e+00 1.12737945e+00 1.54272977e+00 1.42405825e+00 1.78007281e+00 1.72073705e+00 1.95808010e+00 2.19542314e+00 1.78007281e+00 1.12737945e+00 1.66140129e+00 1.54272977e+00 1.89874433e+00 1.66140129e+00 1.36472249e+00 1.42405825e+00 1.60206553e+00 1.12737945e+00 1.18671521e+00 1.42405825e+00 1.30538673e+00 1.36472249e+00 1.12737945e+00 1.48339401e+00 1.54272977e+00 1.30538673e+00 1.72073705e+00 1.00870793e+00 2.01741586e+00 1.36472249e+00 1.00870793e+00 1.24605097e+00 1.00870793e+00 8.30700647e-01 1.30538673e+00 1.06804369e+00 1.66140129e+00 1.18671521e+00 1.36472249e+00 1.06804369e+00 1.30538673e+00 1.12737945e+00 1.36472249e+00 9.49372167e-01 1.06804369e+00 8.90036407e-01 1.06804369e+00 1.06804369e+00 8.90036407e-01 1.12737945e+00 1.12737945e+00 7.71364886e-01 7.12029126e-01 1.00870793e+00 8.90036407e-01 1.00870793e+00 1.66140129e+00 1.00870793e+00 8.30700647e-01 7.12029126e-01 1.00870793e+00 7.71364886e-01 8.30700647e-01 1.18671521e+00 8.90036407e-01 7.12029126e-01 1.36472249e+00 7.71364886e-01 7.12029126e-01 8.30700647e-01 1.06804369e+00 1.06804369e+00 3.56014563e-01 6.52693365e-01 1.00870793e+00 9.49372167e-01 2.96678802e-01 6.52693365e-01 7.12029126e-01 6.52693365e-01 8.90036407e-01 8.90036407e-01 8.90036407e-01 8.90036407e-01 8.90036407e-01 5.93357605e-01 7.12029126e-01 8.90036407e-01 6.52693365e-01 9.49372167e-01 7.12029126e-01 3.56014563e-01 7.12029126e-01 8.90036407e-01 5.93357605e-01 4.15350323e-01 7.12029126e-01 8.30700647e-01 5.34021844e-01 6.52693365e-01 9.49372167e-01 6.52693365e-01 9.49372167e-01 6.52693365e-01 5.34021844e-01 5.93357605e-01 6.52693365e-01 4.74686084e-01 4.74686084e-01 7.12029126e-01 6.52693365e-01 6.52693365e-01 3.56014563e-01 4.15350323e-01 7.12029126e-01 4.15350323e-01 7.12029126e-01 2.37343042e-01 5.93357605e-01 6.52693365e-01 1.06804369e+00 6.52693365e-01 6.52693365e-01 4.15350323e-01 4.74686084e-01 7.71364886e-01 2.96678802e-01 5.93357605e-01 7.12029126e-01 5.34021844e-01 5.93357605e-01 5.93357605e-01 7.12029126e-01 5.34021844e-01 3.56014563e-01 2.37343042e-01 7.12029126e-01 4.15350323e-01 6.52693365e-01 5.93357605e-01 3.56014563e-01 1.78007281e-01 5.34021844e-01 2.96678802e-01 5.93357605e-01 5.34021844e-01 5.93357605e-01 5.93357605e-01 5.34021844e-01 5.34021844e-01 7.71364886e-01 3.56014563e-01 2.96678802e-01 5.93357605e-01 4.74686084e-01 7.12029126e-01 8.30700647e-01 1.78007281e-01 2.37343042e-01 2.96678802e-01 5.93357605e-01 2.37343042e-01 6.52693365e-01 4.74686084e-01 2.37343042e-01 4.74686084e-01 4.15350323e-01 3.56014563e-01 6.52693365e-01 4.74686084e-01 4.15350323e-01 6.52693365e-01 5.93357605e-01 4.15350323e-01 2.96678802e-01 4.15350323e-01 4.15350323e-01 4.15350323e-01 4.15350323e-01 4.74686084e-01 4.15350323e-01 9.49372167e-01 2.96678802e-01 8.90036407e-01 4.15350323e-01 1.18671521e-01 4.15350323e-01 1.78007281e-01 1.78007281e-01 3.56014563e-01 2.96678802e-01 8.30700647e-01 1.78007281e-01 5.34021844e-01 3.56014563e-01 4.74686084e-01 5.34021844e-01 4.74686084e-01 4.74686084e-01 1.78007281e-01 2.96678802e-01 1.18671521e-01 6.52693365e-01 2.37343042e-01 5.34021844e-01 2.37343042e-01 3.56014563e-01 3.56014563e-01 7.12029126e-01 2.37343042e-01 6.52693365e-01 1.18671521e-01 6.52693365e-01 2.96678802e-01 5.34021844e-01 1.18671521e-01 2.37343042e-01 1.78007281e-01 4.74686084e-01 1.18671521e-01 2.96678802e-01 2.96678802e-01 2.37343042e-01 2.96678802e-01 5.93357605e-01 4.74686084e-01 1.78007281e-01 2.96678802e-01 3.56014563e-01 2.96678802e-01 5.34021844e-01 3.56014563e-01 1.78007281e-01 4.15350323e-01 4.74686084e-01 2.96678802e-01 5.34021844e-01 3.56014563e-01 2.37343042e-01 2.37343042e-01 1.18671521e-01 2.96678802e-01 3.56014563e-01 1.78007281e-01 3.56014563e-01 7.12029126e-01 3.56014563e-01 4.74686084e-01 4.15350323e-01 2.37343042e-01 2.96678802e-01 2.37343042e-01 3.56014563e-01 2.37343042e-01 2.37343042e-01 1.18671521e-01 2.37343042e-01 2.96678802e-01 2.96678802e-01 2.37343042e-01 1.78007281e-01 1.18671521e-01 4.74686084e-01 4.15350323e-01 5.93357605e-02 2.96678802e-01 1.78007281e-01 1.78007281e-01 3.56014563e-01 3.56014563e-01 2.96678802e-01 1.18671521e-01 2.96678802e-01 1.78007281e-01 1.78007281e-01 1.78007281e-01 2.37343042e-01 5.93357605e-02 2.37343042e-01 1.78007281e-01 2.37343042e-01 1.78007281e-01 2.96678802e-01 2.96678802e-01 1.18671521e-01 2.37343042e-01 2.96678802e-01 1.18671521e-01 2.96678802e-01 4.15350323e-01 4.15350323e-01 4.74686084e-01 4.15350323e-01 3.56014563e-01 1.78007281e-01 3.56014563e-01 5.93357605e-02 2.37343042e-01 2.96678802e-01 3.56014563e-01 1.78007281e-01 2.96678802e-01 2.37343042e-01 2.96678802e-01 1.18671521e-01 1.78007281e-01 1.18671521e-01 2.37343042e-01 1.78007281e-01 2.96678802e-01 5.93357605e-01 1.18671521e-01 1.78007281e-01 4.15350323e-01 1.18671521e-01 2.37343042e-01 3.56014563e-01 2.96678802e-01 1.78007281e-01 2.96678802e-01 2.37343042e-01 2.96678802e-01 0.00000000e+00 2.96678802e-01 2.96678802e-01 1.18671521e-01 1.78007281e-01 1.18671521e-01 3.56014563e-01 1.18671521e-01 3.56014563e-01 3.56014563e-01 1.18671521e-01 1.78007281e-01 1.18671521e-01 5.93357605e-02 1.78007281e-01 1.78007281e-01 2.37343042e-01 2.96678802e-01 5.34021844e-01 2.37343042e-01 1.78007281e-01 1.78007281e-01 5.93357605e-02 2.37343042e-01 3.56014563e-01 2.96678802e-01 1.78007281e-01 1.18671521e-01 1.18671521e-01 1.78007281e-01 5.93357605e-02 3.56014563e-01 2.96678802e-01 1.18671521e-01 5.93357605e-02 3.56014563e-01 5.93357605e-02 1.18671521e-01 3.56014563e-01 4.74686084e-01 2.37343042e-01 1.18671521e-01 1.78007281e-01 1.78007281e-01 2.96678802e-01 1.78007281e-01 5.93357605e-02 1.18671521e-01 5.93357605e-02 1.18671521e-01 1.78007281e-01 2.96678802e-01 3.56014563e-01 1.78007281e-01 1.18671521e-01 1.78007281e-01 5.93357605e-02 3.56014563e-01 5.93357605e-02 2.37343042e-01 2.96678802e-01 5.93357605e-02 5.93357605e-02 1.18671521e-01 3.56014563e-01 2.37343042e-01 1.78007281e-01 1.18671521e-01 2.96678802e-01 1.18671521e-01 1.18671521e-01 5.93357605e-02 1.18671521e-01 2.37343042e-01 5.93357605e-02 1.18671521e-01 1.78007281e-01 5.93357605e-02 1.18671521e-01 2.96678802e-01 1.78007281e-01 1.18671521e-01 1.78007281e-01 1.18671521e-01 3.56014563e-01 5.93357605e-02 2.96678802e-01 2.96678802e-01 2.37343042e-01 2.37343042e-01 2.37343042e-01 1.78007281e-01 2.96678802e-01 5.93357605e-02 5.93357605e-02 2.96678802e-01 0.00000000e+00 2.37343042e-01 5.93357605e-02 1.18671521e-01 2.96678802e-01 1.18671521e-01 1.18671521e-01 1.18671521e-01 1.18671521e-01 1.18671521e-01 5.93357605e-02 5.93357605e-02 1.18671521e-01 2.37343042e-01 5.93357605e-02 2.37343042e-01 1.78007281e-01 1.18671521e-01 1.18671521e-01 2.37343042e-01 1.18671521e-01 2.37343042e-01 1.78007281e-01 1.18671521e-01 5.93357605e-02 1.18671521e-01 2.37343042e-01 1.78007281e-01 2.37343042e-01 5.93357605e-02 3.56014563e-01 4.15350323e-01 1.18671521e-01 2.96678802e-01 1.78007281e-01 1.18671521e-01 1.78007281e-01 1.78007281e-01 1.78007281e-01 0.00000000e+00 1.18671521e-01 2.96678802e-01 1.78007281e-01 1.18671521e-01 5.93357605e-02 1.78007281e-01 3.56014563e-01 5.93357605e-02 1.18671521e-01 3.56014563e-01 1.78007281e-01 5.93357605e-02 3.56014563e-01 1.18671521e-01 2.37343042e-01 1.78007281e-01 1.18671521e-01 1.78007281e-01 1.18671521e-01 2.37343042e-01 5.93357605e-02 2.37343042e-01 1.18671521e-01 5.93357605e-02 1.18671521e-01 2.37343042e-01 5.93357605e-02 1.78007281e-01 2.37343042e-01 1.78007281e-01 1.78007281e-01 5.93357605e-02 1.18671521e-01 1.78007281e-01 1.78007281e-01 1.78007281e-01 5.93357605e-02 2.37343042e-01 2.37343042e-01 0.00000000e+00 0.00000000e+00 1.18671521e-01 5.93357605e-02 0.00000000e+00 1.18671521e-01 1.78007281e-01 2.37343042e-01 1.78007281e-01 0.00000000e+00 2.37343042e-01 5.93357605e-02 5.93357605e-02 1.18671521e-01 1.18671521e-01 1.18671521e-01 2.37343042e-01 5.93357605e-02 1.18671521e-01 2.96678802e-01 1.78007281e-01 0.00000000e+00 1.78007281e-01 1.78007281e-01 1.18671521e-01 2.96678802e-01 5.93357605e-02 5.93357605e-02 5.93357605e-02 5.93357605e-02 1.18671521e-01 2.37343042e-01 5.93357605e-02 2.96678802e-01 1.18671521e-01 1.18671521e-01 2.37343042e-01 1.78007281e-01 1.18671521e-01 1.78007281e-01 2.37343042e-01 2.37343042e-01 1.78007281e-01 2.96678802e-01 5.93357605e-02 5.93357605e-02 0.00000000e+00 1.78007281e-01 1.18671521e-01 0.00000000e+00 5.93357605e-02 0.00000000e+00 5.93357605e-02 1.18671521e-01 1.18671521e-01 2.37343042e-01 3.56014563e-01 5.93357605e-02 5.93357605e-02 1.18671521e-01 1.18671521e-01 1.78007281e-01 5.93357605e-02 5.93357605e-02 1.18671521e-01 5.93357605e-02 1.18671521e-01 5.93357605e-02 1.18671521e-01 1.78007281e-01 1.78007281e-01 1.18671521e-01 1.18671521e-01 1.18671521e-01 2.96678802e-01 1.18671521e-01 1.18671521e-01 1.18671521e-01 0.00000000e+00 1.78007281e-01 5.93357605e-02 1.18671521e-01 1.18671521e-01 5.93357605e-02 1.78007281e-01 1.18671521e-01 5.93357605e-02 5.93357605e-02 0.00000000e+00 1.78007281e-01 0.00000000e+00 1.18671521e-01 5.93357605e-02 5.93357605e-02 1.18671521e-01 1.78007281e-01 5.93357605e-02 1.18671521e-01 5.93357605e-02 5.93357605e-02 5.93357605e-02 5.93357605e-02 5.93357605e-02 5.93357605e-02 2.37343042e-01 0.00000000e+00 1.78007281e-01 3.56014563e-01 1.18671521e-01 1.78007281e-01 5.93357605e-02 1.78007281e-01 0.00000000e+00 4.15350323e-01 2.37343042e-01 1.78007281e-01 1.18671521e-01 0.00000000e+00 1.18671521e-01 1.78007281e-01 0.00000000e+00 0.00000000e+00 2.37343042e-01 0.00000000e+00 0.00000000e+00 0.00000000e+00 5.93357605e-02 1.18671521e-01 5.93357605e-02 0.00000000e+00 0.00000000e+00 0.00000000e+00 2.37343042e-01 1.18671521e-01 5.93357605e-02 0.00000000e+00 1.78007281e-01 5.93357605e-02 5.93357605e-02 0.00000000e+00 1.78007281e-01 1.18671521e-01 5.93357605e-02 5.93357605e-02 1.78007281e-01 1.18671521e-01 1.18671521e-01 1.18671521e-01 1.78007281e-01 1.18671521e-01 3.56014563e-01 0.00000000e+00 5.93357605e-02 1.18671521e-01 5.93357605e-02 1.78007281e-01 1.18671521e-01 1.78007281e-01 1.18671521e-01 5.93357605e-02 5.93357605e-02 1.18671521e-01 0.00000000e+00 1.78007281e-01 1.18671521e-01 5.93357605e-02 1.78007281e-01 0.00000000e+00 5.93357605e-02 1.78007281e-01 0.00000000e+00 5.93357605e-02 5.93357605e-02 1.18671521e-01 0.00000000e+00 1.18671521e-01 5.93357605e-02 5.93357605e-02 0.00000000e+00 0.00000000e+00 4.74686084e-01 5.93357605e-02 2.96678802e-01 1.78007281e-01 1.18671521e-01 1.78007281e-01 1.18671521e-01 2.37343042e-01 0.00000000e+00 2.96678802e-01 1.18671521e-01 5.93357605e-02 1.18671521e-01 1.18671521e-01 1.18671521e-01 1.18671521e-01 5.93357605e-02 1.18671521e-01 5.93357605e-02 0.00000000e+00 0.00000000e+00 1.18671521e-01 2.37343042e-01 5.93357605e-02 1.78007281e-01 0.00000000e+00 5.93357605e-02 1.78007281e-01 1.18671521e-01 5.93357605e-02 0.00000000e+00 1.78007281e-01 5.93357605e-02 5.93357605e-02 5.93357605e-02 5.93357605e-02 1.18671521e-01 1.18671521e-01 5.93357605e-02 1.18671521e-01 1.78007281e-01 0.00000000e+00 5.93357605e-02 5.93357605e-02 1.78007281e-01 5.93357605e-02 1.78007281e-01 5.93357605e-02 5.93357605e-02 0.00000000e+00 2.37343042e-01 0.00000000e+00 0.00000000e+00 0.00000000e+00 1.78007281e-01 1.18671521e-01 1.18671521e-01 1.78007281e-01 5.93357605e-02 1.18671521e-01 2.96678802e-01 0.00000000e+00 0.00000000e+00 1.78007281e-01 0.00000000e+00 1.18671521e-01 5.93357605e-02 1.18671521e-01 0.00000000e+00 5.93357605e-02 1.18671521e-01 5.93357605e-02 2.37343042e-01 1.78007281e-01 1.18671521e-01 5.93357605e-02 5.93357605e-02 5.93357605e-02 1.78007281e-01 1.18671521e-01 5.93357605e-02 5.93357605e-02 1.18671521e-01 0.00000000e+00 1.78007281e-01 1.78007281e-01 1.78007281e-01 5.93357605e-02 1.18671521e-01 5.93357605e-02 1.18671521e-01 0.00000000e+00 1.18671521e-01 5.93357605e-02 5.93357605e-02 1.18671521e-01 5.93357605e-02 0.00000000e+00 5.93357605e-02 5.93357605e-02 1.18671521e-01 1.78007281e-01 0.00000000e+00 5.93357605e-02 1.78007281e-01 1.78007281e-01 0.00000000e+00 1.18671521e-01 2.37343042e-01 5.93357605e-02 1.18671521e-01 5.93357605e-02 0.00000000e+00 2.96678802e-01 5.93357605e-02 1.18671521e-01 1.18671521e-01 2.37343042e-01 5.93357605e-02 0.00000000e+00 1.78007281e-01 1.78007281e-01 5.93357605e-02 5.93357605e-02 1.18671521e-01 2.37343042e-01 0.00000000e+00 0.00000000e+00 1.18671521e-01 5.93357605e-02 5.93357605e-02 5.93357605e-02 5.93357605e-02 1.18671521e-01 5.93357605e-02 0.00000000e+00 1.18671521e-01 0.00000000e+00 1.18671521e-01 5.93357605e-02 1.18671521e-01 5.93357605e-02 1.18671521e-01 0.00000000e+00 0.00000000e+00 5.93357605e-02 1.18671521e-01 0.00000000e+00 1.18671521e-01 5.93357605e-02 1.18671521e-01 0.00000000e+00 0.00000000e+00 0.00000000e+00 1.78007281e-01 0.00000000e+00 5.93357605e-02 0.00000000e+00 5.93357605e-02 1.78007281e-01 0.00000000e+00 0.00000000e+00 5.93357605e-02 1.78007281e-01 1.78007281e-01 2.96678802e-01 1.18671521e-01 5.93357605e-02 5.93357605e-02 1.78007281e-01 0.00000000e+00 1.18671521e-01 5.93357605e-02 1.78007281e-01 5.93357605e-02 1.18671521e-01 5.93357605e-02 0.00000000e+00 2.96678802e-01 1.18671521e-01 0.00000000e+00 2.37343042e-01 1.18671521e-01 0.00000000e+00 5.93357605e-02 1.18671521e-01 5.93357605e-02 1.78007281e-01 0.00000000e+00 0.00000000e+00 0.00000000e+00 2.37343042e-01 5.93357605e-02 5.93357605e-02 1.78007281e-01 5.93357605e-02 0.00000000e+00 0.00000000e+00 1.18671521e-01 0.00000000e+00 1.18671521e-01 5.93357605e-02 5.93357605e-02 1.18671521e-01 5.93357605e-02 1.78007281e-01 0.00000000e+00 5.93357605e-02 0.00000000e+00 1.18671521e-01 5.93357605e-02 5.93357605e-02 5.93357605e-02 0.00000000e+00 5.93357605e-02 1.18671521e-01 5.93357605e-02 1.18671521e-01 0.00000000e+00 1.18671521e-01 0.00000000e+00 0.00000000e+00 1.18671521e-01 0.00000000e+00 1.78007281e-01 1.18671521e-01 1.18671521e-01 5.93357605e-02 0.00000000e+00 5.93357605e-02 2.37343042e-01 1.18671521e-01 0.00000000e+00 0.00000000e+00 5.93357605e-02 0.00000000e+00 1.78007281e-01 5.93357605e-02 5.93357605e-02 5.93357605e-02 5.93357605e-02 1.18671521e-01 5.93357605e-02 0.00000000e+00 0.00000000e+00 1.18671521e-01 1.18671521e-01 5.93357605e-02 1.78007281e-01 0.00000000e+00 1.78007281e-01 5.93357605e-02 0.00000000e+00 1.18671521e-01 0.00000000e+00 0.00000000e+00 1.18671521e-01 5.93357605e-02 5.93357605e-02 0.00000000e+00 0.00000000e+00 5.93357605e-02 1.18671521e-01 1.18671521e-01 5.93357605e-02 1.18671521e-01 1.78007281e-01 1.78007281e-01 1.18671521e-01 5.93357605e-02 1.78007281e-01 1.18671521e-01 5.93357605e-02 5.93357605e-02 0.00000000e+00 1.78007281e-01 1.18671521e-01 0.00000000e+00 5.93357605e-02 1.18671521e-01 1.18671521e-01 5.93357605e-02 5.93357605e-02 5.93357605e-02 1.78007281e-01 1.18671521e-01 1.78007281e-01 0.00000000e+00 2.37343042e-01 5.93357605e-02 1.18671521e-01 0.00000000e+00 1.18671521e-01 5.93357605e-02 0.00000000e+00 5.93357605e-02 5.93357605e-02 5.93357605e-02 5.93357605e-02 1.18671521e-01 0.00000000e+00 5.93357605e-02 0.00000000e+00 1.18671521e-01 0.00000000e+00 5.93357605e-02 1.18671521e-01 0.00000000e+00 5.93357605e-02 5.93357605e-02 5.93357605e-02 0.00000000e+00 5.93357605e-02 1.18671521e-01 3.56014563e-01 1.18671521e-01 5.93357605e-02 5.93357605e-02 5.93357605e-02 1.18671521e-01 5.93357605e-02 5.93357605e-02 5.93357605e-02 5.93357605e-02 5.93357605e-02 5.93357605e-02 0.00000000e+00 0.00000000e+00 1.18671521e-01 0.00000000e+00 1.78007281e-01 1.18671521e-01 5.93357605e-02 1.18671521e-01 2.96678802e-01 1.18671521e-01 0.00000000e+00 5.93357605e-02 5.93357605e-02 0.00000000e+00 5.93357605e-02 5.93357605e-02 5.93357605e-02 1.18671521e-01 1.18671521e-01 1.18671521e-01 0.00000000e+00 2.37343042e-01 2.37343042e-01 0.00000000e+00 5.93357605e-02 0.00000000e+00 1.18671521e-01 1.18671521e-01 1.18671521e-01 5.93357605e-02 1.18671521e-01 5.93357605e-02 0.00000000e+00 5.93357605e-02 1.78007281e-01 1.78007281e-01 2.37343042e-01 5.93357605e-02 5.93357605e-02 5.93357605e-02 1.18671521e-01 2.37343042e-01 5.93357605e-02 5.93357605e-02 0.00000000e+00 0.00000000e+00 0.00000000e+00 5.93357605e-02 0.00000000e+00 1.18671521e-01 0.00000000e+00 5.93357605e-02 2.37343042e-01 0.00000000e+00 5.93357605e-02 1.18671521e-01 0.00000000e+00 2.37343042e-01 0.00000000e+00 0.00000000e+00 5.93357605e-02 5.93357605e-02 5.93357605e-02 5.93357605e-02 0.00000000e+00 0.00000000e+00 5.93357605e-02 0.00000000e+00 0.00000000e+00 0.00000000e+00 1.18671521e-01 0.00000000e+00 5.93357605e-02 1.18671521e-01 2.37343042e-01 5.93357605e-02 0.00000000e+00 5.93357605e-02 0.00000000e+00 1.18671521e-01 1.18671521e-01 5.93357605e-02 1.78007281e-01 1.78007281e-01 5.93357605e-02 5.93357605e-02 1.18671521e-01 5.93357605e-02 5.93357605e-02 1.18671521e-01 0.00000000e+00 0.00000000e+00 0.00000000e+00 1.18671521e-01 5.93357605e-02 5.93357605e-02 1.78007281e-01 0.00000000e+00 1.18671521e-01 0.00000000e+00 5.93357605e-02 1.18671521e-01 1.78007281e-01 0.00000000e+00 1.18671521e-01 0.00000000e+00 1.18671521e-01 5.93357605e-02 5.93357605e-02 5.93357605e-02 5.93357605e-02 5.93357605e-02 1.18671521e-01 0.00000000e+00 0.00000000e+00 1.78007281e-01 1.78007281e-01 1.18671521e-01 5.93357605e-02 5.93357605e-02 5.93357605e-02 1.18671521e-01 1.18671521e-01 0.00000000e+00 5.93357605e-02 5.93357605e-02 0.00000000e+00 1.18671521e-01 1.18671521e-01 1.78007281e-01 0.00000000e+00 0.00000000e+00 0.00000000e+00 0.00000000e+00 5.93357605e-02 5.93357605e-02 0.00000000e+00 5.93357605e-02 5.93357605e-02 5.93357605e-02 1.78007281e-01 0.00000000e+00 5.93357605e-02 5.93357605e-02 1.18671521e-01 1.18671521e-01 0.00000000e+00 0.00000000e+00 1.78007281e-01 5.93357605e-02 1.18671521e-01 5.93357605e-02 1.18671521e-01 0.00000000e+00 1.18671521e-01 0.00000000e+00 0.00000000e+00 5.93357605e-02 5.93357605e-02 5.93357605e-02 0.00000000e+00 0.00000000e+00 5.93357605e-02 0.00000000e+00 1.78007281e-01 0.00000000e+00 1.18671521e-01 1.18671521e-01 5.93357605e-02 1.18671521e-01 5.93357605e-02 2.96678802e-01 1.18671521e-01 1.78007281e-01 5.93357605e-02 1.18671521e-01 5.93357605e-02 5.93357605e-02 0.00000000e+00 5.93357605e-02 5.93357605e-02 5.93357605e-02 1.78007281e-01 5.93357605e-02 0.00000000e+00 1.18671521e-01 5.93357605e-02 1.18671521e-01 1.78007281e-01 0.00000000e+00 1.18671521e-01 5.93357605e-02 0.00000000e+00 5.93357605e-02 1.18671521e-01 0.00000000e+00 1.78007281e-01 1.78007281e-01 5.93357605e-02 0.00000000e+00 5.93357605e-02 0.00000000e+00 0.00000000e+00 5.93357605e-02 1.18671521e-01 1.18671521e-01 1.18671521e-01 1.18671521e-01 1.18671521e-01 0.00000000e+00 0.00000000e+00 0.00000000e+00 0.00000000e+00 5.93357605e-02 0.00000000e+00 0.00000000e+00 0.00000000e+00 1.18671521e-01 0.00000000e+00 5.93357605e-02 1.18671521e-01 5.93357605e-02 5.93357605e-02 1.18671521e-01 1.18671521e-01 5.93357605e-02 5.93357605e-02 5.93357605e-02 1.18671521e-01 5.93357605e-02 0.00000000e+00 5.93357605e-02 5.93357605e-02 5.93357605e-02 0.00000000e+00 5.93357605e-02 5.93357605e-02 1.18671521e-01 5.93357605e-02 0.00000000e+00 1.18671521e-01 5.93357605e-02 1.18671521e-01 0.00000000e+00 0.00000000e+00 0.00000000e+00 1.18671521e-01 5.93357605e-02 5.93357605e-02 1.18671521e-01 5.93357605e-02 0.00000000e+00 5.93357605e-02 5.93357605e-02 1.18671521e-01 0.00000000e+00 5.93357605e-02 0.00000000e+00 5.93357605e-02 0.00000000e+00 5.93357605e-02 1.18671521e-01 1.18671521e-01 5.93357605e-02 2.37343042e-01 1.18671521e-01 1.78007281e-01 1.18671521e-01 5.93357605e-02 0.00000000e+00 3.56014563e-01 0.00000000e+00 5.93357605e-02 0.00000000e+00 1.18671521e-01 5.93357605e-02 5.93357605e-02 0.00000000e+00 5.93357605e-02 5.93357605e-02 1.18671521e-01 5.93357605e-02 5.93357605e-02 5.93357605e-02 2.37343042e-01 0.00000000e+00 1.18671521e-01 0.00000000e+00 0.00000000e+00 1.18671521e-01 1.78007281e-01 0.00000000e+00 0.00000000e+00 0.00000000e+00 0.00000000e+00 0.00000000e+00 5.93357605e-02 2.37343042e-01 0.00000000e+00 1.18671521e-01 1.78007281e-01 0.00000000e+00 1.78007281e-01 1.18671521e-01 1.78007281e-01 0.00000000e+00 5.93357605e-02 1.78007281e-01 1.18671521e-01 0.00000000e+00 0.00000000e+00 0.00000000e+00 1.18671521e-01 0.00000000e+00 1.78007281e-01 0.00000000e+00 5.93357605e-02 5.93357605e-02 0.00000000e+00 0.00000000e+00 1.78007281e-01 0.00000000e+00 1.18671521e-01 0.00000000e+00 1.78007281e-01 0.00000000e+00 5.93357605e-02 1.18671521e-01 5.93357605e-02 5.93357605e-02 5.93357605e-02 0.00000000e+00 1.78007281e-01 5.93357605e-02 1.18671521e-01 1.18671521e-01 5.93357605e-02 1.18671521e-01 0.00000000e+00 1.78007281e-01 0.00000000e+00 2.37343042e-01 1.18671521e-01 1.18671521e-01 5.93357605e-02 0.00000000e+00 5.93357605e-02 5.93357605e-02 0.00000000e+00 0.00000000e+00 5.93357605e-02 1.18671521e-01 0.00000000e+00 0.00000000e+00 5.93357605e-02 1.18671521e-01 0.00000000e+00 1.18671521e-01 5.93357605e-02 5.93357605e-02 5.93357605e-02 0.00000000e+00 1.18671521e-01 0.00000000e+00 0.00000000e+00 0.00000000e+00 1.18671521e-01 1.18671521e-01 0.00000000e+00 5.93357605e-02 0.00000000e+00 1.18671521e-01 1.18671521e-01 1.18671521e-01 0.00000000e+00 0.00000000e+00 0.00000000e+00 0.00000000e+00 5.93357605e-02 0.00000000e+00 5.93357605e-02 1.18671521e-01 2.96678802e-01 2.96678802e-01 1.78007281e-01 0.00000000e+00 0.00000000e+00 5.93357605e-02 1.18671521e-01 1.18671521e-01 1.18671521e-01 5.93357605e-02 0.00000000e+00 5.93357605e-02 5.93357605e-02 0.00000000e+00 0.00000000e+00 1.18671521e-01 5.93357605e-02 0.00000000e+00 5.93357605e-02 0.00000000e+00 0.00000000e+00 1.18671521e-01 1.18671521e-01 5.93357605e-02 5.93357605e-02 1.18671521e-01 5.93357605e-02 1.18671521e-01 1.18671521e-01 0.00000000e+00 1.78007281e-01 5.93357605e-02 0.00000000e+00 0.00000000e+00 1.18671521e-01 2.96678802e-01 1.18671521e-01 1.18671521e-01 0.00000000e+00 5.93357605e-02 5.93357605e-02 5.93357605e-02 0.00000000e+00 1.18671521e-01 5.93357605e-02 2.37343042e-01 1.18671521e-01 0.00000000e+00 0.00000000e+00 1.18671521e-01 0.00000000e+00 1.18671521e-01 1.78007281e-01 1.18671521e-01 0.00000000e+00 5.93357605e-02 1.18671521e-01 1.18671521e-01 5.93357605e-02 1.18671521e-01 1.18671521e-01 5.93357605e-02 1.18671521e-01 5.93357605e-02 1.78007281e-01 5.93357605e-02 1.18671521e-01 2.37343042e-01 5.93357605e-02 5.93357605e-02 1.18671521e-01 0.00000000e+00 1.78007281e-01 2.37343042e-01 5.93357605e-02 5.93357605e-02 5.93357605e-02 1.18671521e-01 0.00000000e+00 0.00000000e+00 1.18671521e-01 0.00000000e+00 5.93357605e-02 5.93357605e-02 1.18671521e-01 2.37343042e-01 0.00000000e+00 5.93357605e-02 0.00000000e+00 5.93357605e-02 0.00000000e+00 1.18671521e-01 0.00000000e+00 5.93357605e-02 5.93357605e-02 1.78007281e-01 5.93357605e-02 2.37343042e-01 1.18671521e-01 5.93357605e-02 0.00000000e+00 5.93357605e-02 5.93357605e-02 5.93357605e-02 1.78007281e-01 1.18671521e-01 5.93357605e-02 1.78007281e-01 0.00000000e+00 1.18671521e-01 5.93357605e-02 5.93357605e-02 0.00000000e+00 5.93357605e-02 0.00000000e+00 5.93357605e-02 1.18671521e-01 0.00000000e+00 1.78007281e-01 5.93357605e-02 2.37343042e-01 5.93357605e-02 0.00000000e+00 1.18671521e-01 1.18671521e-01 1.18671521e-01 5.93357605e-02 1.18671521e-01 1.18671521e-01 1.18671521e-01 5.93357605e-02 5.93357605e-02 1.78007281e-01 0.00000000e+00 5.93357605e-02 5.93357605e-02 1.78007281e-01 1.18671521e-01 1.18671521e-01 0.00000000e+00 5.93357605e-02 1.78007281e-01 2.96678802e-01 1.18671521e-01 5.93357605e-02 5.93357605e-02 0.00000000e+00 0.00000000e+00 5.93357605e-02 0.00000000e+00 1.18671521e-01 1.18671521e-01 1.78007281e-01 0.00000000e+00 2.37343042e-01 5.93357605e-02 1.18671521e-01 5.93357605e-02 1.78007281e-01 0.00000000e+00 1.78007281e-01 0.00000000e+00 1.18671521e-01 5.93357605e-02 5.93357605e-02 2.37343042e-01 1.78007281e-01 5.93357605e-02 1.18671521e-01 2.96678802e-01 1.78007281e-01 0.00000000e+00 1.18671521e-01 5.93357605e-02 5.93357605e-02 1.18671521e-01 1.18671521e-01 1.78007281e-01 1.78007281e-01 5.93357605e-02 5.93357605e-02 5.93357605e-02 1.18671521e-01 1.78007281e-01 1.78007281e-01 1.18671521e-01 1.18671521e-01 5.93357605e-02 5.93357605e-02 0.00000000e+00 1.78007281e-01 0.00000000e+00 1.78007281e-01 0.00000000e+00 5.93357605e-02 1.18671521e-01 5.93357605e-02 5.93357605e-02 1.78007281e-01 5.93357605e-02 1.18671521e-01 5.93357605e-02 0.00000000e+00 1.18671521e-01 0.00000000e+00 5.93357605e-02 0.00000000e+00 5.93357605e-02 0.00000000e+00 5.93357605e-02 1.78007281e-01 1.18671521e-01 5.93357605e-02 5.93357605e-02 5.93357605e-02 1.78007281e-01 5.93357605e-02 0.00000000e+00 5.93357605e-02 5.93357605e-02 1.78007281e-01 5.93357605e-02 1.78007281e-01 1.78007281e-01 1.18671521e-01 1.18671521e-01 5.93357605e-02 5.93357605e-02 0.00000000e+00 5.93357605e-02 1.18671521e-01 0.00000000e+00 1.18671521e-01 1.18671521e-01 5.93357605e-02 2.37343042e-01 1.78007281e-01 5.93357605e-02 1.18671521e-01 5.93357605e-02 0.00000000e+00 0.00000000e+00 1.78007281e-01 1.18671521e-01 5.93357605e-02 1.18671521e-01 1.18671521e-01 1.78007281e-01 1.18671521e-01 5.93357605e-02 1.18671521e-01 1.78007281e-01 1.18671521e-01 2.96678802e-01 2.37343042e-01 1.18671521e-01 1.18671521e-01 5.93357605e-02 0.00000000e+00 5.93357605e-02 5.93357605e-02 1.18671521e-01 2.37343042e-01 1.18671521e-01 5.93357605e-02 0.00000000e+00 0.00000000e+00 1.18671521e-01 1.18671521e-01 2.37343042e-01 5.93357605e-02 1.78007281e-01 0.00000000e+00 1.18671521e-01 0.00000000e+00 2.96678802e-01 1.78007281e-01 5.93357605e-02 0.00000000e+00 5.93357605e-02 5.93357605e-02 1.78007281e-01 5.93357605e-02 1.18671521e-01 1.18671521e-01 0.00000000e+00 2.37343042e-01 5.93357605e-02 0.00000000e+00 1.78007281e-01 1.18671521e-01 1.18671521e-01 0.00000000e+00 0.00000000e+00 5.93357605e-02 5.93357605e-02 1.18671521e-01 1.18671521e-01 1.18671521e-01 0.00000000e+00 5.93357605e-02 5.93357605e-02 1.78007281e-01 1.18671521e-01 1.78007281e-01 1.18671521e-01 5.93357605e-02 1.18671521e-01 1.78007281e-01 1.18671521e-01 0.00000000e+00 1.18671521e-01 1.18671521e-01 5.93357605e-02 5.93357605e-02 5.93357605e-02 0.00000000e+00 1.78007281e-01 1.18671521e-01 2.37343042e-01 1.78007281e-01 5.93357605e-02 1.78007281e-01 1.18671521e-01 1.18671521e-01 0.00000000e+00 1.78007281e-01 1.18671521e-01 2.37343042e-01 0.00000000e+00 1.18671521e-01 1.78007281e-01 5.93357605e-02 0.00000000e+00 2.96678802e-01 5.93357605e-02 2.96678802e-01 0.00000000e+00 1.18671521e-01 1.18671521e-01 2.37343042e-01 1.18671521e-01 0.00000000e+00 1.78007281e-01 1.18671521e-01 1.18671521e-01 0.00000000e+00 5.93357605e-02 5.93357605e-02 5.93357605e-02 0.00000000e+00 1.78007281e-01 2.37343042e-01 1.18671521e-01 5.93357605e-02 0.00000000e+00 0.00000000e+00 0.00000000e+00 5.93357605e-02 1.18671521e-01 2.96678802e-01 5.93357605e-02 0.00000000e+00 0.00000000e+00 1.18671521e-01 1.18671521e-01 1.18671521e-01 1.18671521e-01 1.18671521e-01 1.78007281e-01 0.00000000e+00 5.93357605e-02 5.93357605e-02 3.56014563e-01 0.00000000e+00 0.00000000e+00 0.00000000e+00 1.18671521e-01 5.93357605e-02 1.78007281e-01 1.18671521e-01 5.93357605e-02 4.15350323e-01 5.93357605e-02 1.78007281e-01 5.93357605e-02 1.18671521e-01 2.96678802e-01 0.00000000e+00 1.18671521e-01 0.00000000e+00 2.37343042e-01 0.00000000e+00 1.78007281e-01 1.18671521e-01 1.18671521e-01 5.93357605e-02 1.78007281e-01 5.93357605e-02 2.37343042e-01 5.93357605e-02 0.00000000e+00 1.18671521e-01 4.15350323e-01 2.96678802e-01 1.18671521e-01 2.37343042e-01 1.18671521e-01 2.37343042e-01 5.93357605e-02 5.93357605e-02 5.93357605e-02 5.93357605e-02 0.00000000e+00 5.93357605e-02 5.93357605e-02 1.78007281e-01 0.00000000e+00 5.93357605e-02 1.78007281e-01 1.18671521e-01 1.78007281e-01 4.15350323e-01 1.78007281e-01 5.93357605e-02 1.18671521e-01 5.93357605e-02 1.18671521e-01 1.18671521e-01 0.00000000e+00 5.93357605e-02 5.93357605e-02 1.78007281e-01 1.18671521e-01 1.18671521e-01 5.93357605e-02 3.56014563e-01 5.93357605e-02 0.00000000e+00 2.37343042e-01 5.93357605e-02 1.78007281e-01 2.96678802e-01 1.18671521e-01 0.00000000e+00 5.93357605e-02 1.78007281e-01 1.78007281e-01 0.00000000e+00 2.37343042e-01 1.78007281e-01 2.37343042e-01 5.93357605e-02 1.18671521e-01 2.37343042e-01 1.18671521e-01 5.93357605e-02 5.93357605e-02 5.93357605e-02 0.00000000e+00 2.96678802e-01 1.18671521e-01 5.93357605e-02 0.00000000e+00 2.37343042e-01 1.78007281e-01 1.18671521e-01 5.93357605e-02 1.18671521e-01 1.18671521e-01 1.18671521e-01 1.18671521e-01 5.93357605e-02 5.93357605e-02 5.93357605e-02 1.18671521e-01 5.93357605e-02 0.00000000e+00 1.18671521e-01 5.93357605e-02 5.93357605e-02 0.00000000e+00 5.93357605e-02 5.93357605e-02 5.93357605e-02 0.00000000e+00 0.00000000e+00 5.93357605e-02 5.93357605e-02 0.00000000e+00 0.00000000e+00 0.00000000e+00 0.00000000e+00 
      </Histogram>
    </PDF>
  </MVAPdfs>
  <Weights NTrees="500" AnalysisType="1">
    <BinaryTree type="DecisionTree" boostWeight="1.0000000000000000e+00" itree="0">
      <Node pos="s" depth="0" NCoef="0" IVar="1" Cut="4.2214989662170410e-02" cType="1" res="2.3056523121398227e-14" rms="5.0000000000000000e-01" purity="5.0000000000000000e-01" nType="0">
        <Node pos="l" depth="1" NCoef="0" IVar="8" Cut="9.3790733814239502e-01" cType="1" res="2.8873419761657715e-01" rms="4.0820652246475220e-01" purity="7.8873419761657715e-01" nType="0">
          <Node pos="l" depth="2" NCoef="0" IVar="-1" Cut="0.0000000000000000e+00" cType="1" res="-2.1584566682577133e-02" rms="4.2870402336120605e-01" purity="2.4268138408660889e-01" nType="-99"/>
          <Node pos="r" depth="2" NCoef="0" IVar="-1" Cut="0.0000000000000000e+00" cType="1" res="9.4798251986503601e-02" rms="3.0199643969535828e-01" purity="8.9849489927291870e-01" nType="-99"/>
        </Node>
        <Node pos="r" depth="1" NCoef="0" IVar="8" Cut="9.7569209337234497e-01" cType="1" res="-3.9264297485351562e-01" rms="3.0956661701202393e-01" purity="1.0735702514648438e-01" nType="0">
          <Node pos="l" depth="2" NCoef="0" IVar="-1" Cut="0.0000000000000000e+00" cType="1" res="-3.2261345535516739e-02" rms="1.8998217582702637e-01" purity="3.7499438971281052e-02" nType="-99"/>
          <Node pos="r" depth="2" NCoef="0" IVar="-1" Cut="0.0000000000000000e+00" cType="1" res="-1.7037134617567062e-02" rms="4.6269357204437256e-01" purity="3.1048840284347534e-01" nType="-99"/>
        </Node>
      </Node>
    </BinaryTree>
    <BinaryTree type="DecisionTree" boostWeight="1.0000000000000000e+00" itree="1">
      <Node pos="s" depth="0" NCoef="0" IVar="1" Cut="4.5212503522634506e-02" cType="1" res="-1.5625661239027977e-02" rms="4.7672671079635620e-01" purity="5.0000000000000000e-01" nType="0">
        <Node pos="l" depth="1" NCoef="0" IVar="8" Cut="9.1493386030197144e-01" cType="1" res="2.4720452725887299e-01" rms="3.9855134487152100e-01" purity="7.8407287597656250e-01" nType="0">
          <Node pos="l" depth="2" NCoef="0" IVar="-1" Cut="0.0000000000000000e+00" cType="1" res="-2.4043845012784004e-02" rms="3.8964012265205383e-01" purity="1.8672445416450500e-01" nType="-99"/>
          <Node pos="r" depth="2" NCoef="0" IVar="-1" Cut="0.0000000000000000e+00" cType="1" res="7.9015448689460754e-02" rms="3.1582617759704590e-01" purity="8.8596302270889282e-01" nType="-99"/>
        </Node>
        <Node pos="r" depth="1" NCoef="0" IVar="8" Cut="9.7569209337234497e-01" cType="1" res="-3.8477051258087158e-01" rms="3.0013528466224670e-01" purity="1.0101982951164246e-01" nType="0">
          <Node pos="l" depth="2" NCoef="0" IVar="-1" Cut="0.0000000000000000e+00" cType="1" res="-3.1252104789018631e-02" rms="1.8533441424369812e-01" purity="3.5617448389530182e-02" nType="-99"/>
          <Node pos="r" depth="2" NCoef="0" IVar="-1" Cut="0.0000000000000000e+00" cType="1" res="-1.7357891425490379e-02" rms="4.5620968937873840e-01" purity="2.9537174105644226e-01" nType="-99"/>
        </Node>
      </Node>
    </BinaryTree>
    <BinaryTree type="DecisionTree" boostWeight="1.0000000000000000e+00" itree="2">
      <Node pos="s" depth="0" NCoef="0" IVar="1" Cut="4.9708772450685501e-02" cType="1" res="-2.8211206197738647e-02" rms="4.5721137523651123e-01" purity="5.0000000000000000e-01" nType="0">
        <Node pos="l" depth="1" NCoef="0" IVar="8" Cut="9.5189118385314941e-01" cType="1" res="2.1079006791114807e-01" rms="3.9241072535514832e-01" purity="7.7736657857894897e-01" nType="0">
          <Node pos="l" depth="2" NCoef="0" IVar="-1" Cut="0.0000000000000000e+00" cType="1" res="-1.8906407058238983e-02" rms="4.3605965375900269e-01" purity="2.7968508005142212e-01" nType="-99"/>
          <Node pos="r" depth="2" NCoef="0" IVar="-1" Cut="0.0000000000000000e+00" cType="1" res="7.8048653900623322e-02" rms="2.9765090346336365e-01" purity="9.0077602863311768e-01" nType="-99"/>
        </Node>
        <Node pos="r" depth="1" NCoef="0" IVar="8" Cut="9.7569209337234497e-01" cType="1" res="-3.7921646237373352e-01" rms="2.8775689005851746e-01" purity="9.2650212347507477e-02" nType="0">
          <Node pos="l" depth="2" NCoef="0" IVar="-1" Cut="0.0000000000000000e+00" cType="1" res="-3.0364956706762314e-02" rms="1.7913106083869934e-01" purity="3.3189475536346436e-02" nType="-99"/>
          <Node pos="r" depth="2" NCoef="0" IVar="-1" Cut="0.0000000000000000e+00" cType="1" res="-1.8071142956614494e-02" rms="4.4619077444076538e-01" purity="2.7435913681983948e-01" nType="-99"/>
        </Node>
      </Node>
    </BinaryTree>
    <BinaryTree type="DecisionTree" boostWeight="1.0000000000000000e+00" itree="3">
      <Node pos="s" depth="0" NCoef="0" IVar="3" Cut="7.8567850589752197e-01" cType="1" res="-3.9389044046401978e-02" rms="4.3921464681625366e-01" purity="5.0000000000000000e-01" nType="0">
        <Node pos="l" depth="1" NCoef="0" IVar="1" Cut="6.2198415398597717e-02" cType="1" res="-3.1522601842880249e-01" rms="3.4136995673179626e-01" purity="1.6937308013439178e-01" nType="0">
          <Node pos="l" depth="2" NCoef="0" IVar="-1" Cut="0.0000000000000000e+00" cType="1" res="-1.2133552692830563e-02" rms="4.5685988664627075e-01" purity="4.3231752514839172e-01" nType="-99"/>
          <Node pos="r" depth="2" NCoef="0" IVar="-1" Cut="0.0000000000000000e+00" cType="1" res="-2.8644202277064323e-02" rms="2.2889812290668488e-01" purity="5.6587554514408112e-02" nType="-99"/>
        </Node>
        <Node pos="r" depth="1" NCoef="0" IVar="8" Cut="9.1402137279510498e-01" cType="1" res="2.2624260187149048e-01" rms="3.5018372535705566e-01" purity="8.1839448213577271e-01" nType="0">
          <Node pos="l" depth="2" NCoef="0" IVar="-1" Cut="0.0000000000000000e+00" cType="1" res="-2.0877707749605179e-02" rms="4.0341681241989136e-01" purity="2.0720370113849640e-01" nType="-99"/>
          <Node pos="r" depth="2" NCoef="0" IVar="-1" Cut="0.0000000000000000e+00" cType="1" res="7.2177603840827942e-02" rms="2.8844344615936279e-01" purity="8.9791280031204224e-01" nType="-99"/>
        </Node>
      </Node>
    </BinaryTree>
    <BinaryTree type="DecisionTree" boostWeight="1.0000000000000000e+00" itree="4">
      <Node pos="s" depth="0" NCoef="0" IVar="1" Cut="3.7718717008829117e-02" cType="1" res="-4.8167280852794647e-02" rms="4.2381927371025085e-01" purity="5.0000000000000000e-01" nType="0">
        <Node pos="l" depth="1" NCoef="0" IVar="8" Cut="8.7797659635543823e-01" cType="1" res="1.7513836920261383e-01" rms="3.6306190490722656e-01" purity="7.9547828435897827e-01" nType="0">
          <Node pos="l" depth="2" NCoef="0" IVar="-1" Cut="0.0000000000000000e+00" cType="1" res="-2.4155475199222565e-02" rms="3.5396581888198853e-01" purity="1.4639191329479218e-01" nType="-99"/>
          <Node pos="r" depth="2" NCoef="0" IVar="-1" Cut="0.0000000000000000e+00" cType="1" res="5.9195790439844131e-02" rms="3.1096398830413818e-01" purity="8.8187861442565918e-01" nType="-99"/>
        </Node>
        <Node pos="r" depth="1" NCoef="0" IVar="8" Cut="9.7669035196304321e-01" cType="1" res="-3.3656945824623108e-01" rms="3.0625292658805847e-01" purity="1.1838594079017639e-01" nType="0">
          <Node pos="l" depth="2" NCoef="0" IVar="-1" Cut="0.0000000000000000e+00" cType="1" res="-2.8529614210128784e-02" rms="1.9617663323879242e-01" purity="4.2365305125713348e-02" nType="-99"/>
          <Node pos="r" depth="2" NCoef="0" IVar="-1" Cut="0.0000000000000000e+00" cType="1" res="-1.3769880868494511e-02" rms="4.5455908775329590e-01" purity="3.3971956372261047e-01" nType="-99"/>
        </Node>
      </Node>
    </BinaryTree>
    <BinaryTree type="DecisionTree" boostWeight="1.0000000000000000e+00" itree="5">
      <Node pos="s" depth="0" NCoef="0" IVar="3" Cut="7.8214925527572632e-01" cType="1" res="-5.5281851440668106e-02" rms="4.1068676114082336e-01" purity="5.0000000000000000e-01" nType="0">
        <Node pos="l" depth="1" NCoef="0" IVar="8" Cut="9.6980112791061401e-01" cType="1" res="-3.0162391066551208e-01" rms="3.2911282777786255e-01" purity="1.6451944410800934e-01" nType="0">
          <Node pos="l" depth="2" NCoef="0" IVar="-1" Cut="0.0000000000000000e+00" cType="1" res="-2.7699127793312073e-02" rms="2.1685545146465302e-01" purity="5.7793155312538147e-02" nType="-99"/>
          <Node pos="r" depth="2" NCoef="0" IVar="-1" Cut="0.0000000000000000e+00" cType="1" res="-1.2999702244997025e-02" rms="4.4312742352485657e-01" purity="3.9448538422584534e-01" nType="-99"/>
        </Node>
        <Node pos="r" depth="1" NCoef="0" IVar="8" Cut="9.5493286848068237e-01" cType="1" res="1.7493876814842224e-01" rms="3.3962923288345337e-01" purity="8.1352555751800537e-01" nType="0">
          <Node pos="l" depth="2" NCoef="0" IVar="-1" Cut="0.0000000000000000e+00" cType="1" res="-1.5254688449203968e-02" rms="4.3421971797943115e-01" purity="3.2569018006324768e-01" nType="-99"/>
          <Node pos="r" depth="2" NCoef="0" IVar="-1" Cut="0.0000000000000000e+00" cType="1" res="6.8354830145835876e-02" rms="2.6860731840133667e-01" purity="9.1327232122421265e-01" nType="-99"/>
        </Node>
      </Node>
    </BinaryTree>
    <BinaryTree type="DecisionTree" boostWeight="1.0000000000000000e+00" itree="6">
      <Node pos="s" depth="0" NCoef="0" IVar="1" Cut="6.0699660331010818e-02" cType="1" res="-6.1773654073476791e-02" rms="3.9798313379287720e-01" purity="5.0000000000000000e-01" nType="0">
        <Node pos="l" depth="1" NCoef="0" IVar="8" Cut="9.2692005634307861e-01" cType="1" res="1.1563657224178314e-01" rms="3.6522603034973145e-01" purity="7.6182097196578979e-01" nType="0">
          <Node pos="l" depth="2" NCoef="0" IVar="-1" Cut="0.0000000000000000e+00" cType="1" res="-2.0691119134426117e-02" rms="3.8400709629058838e-01" purity="1.9208723306655884e-01" nType="-99"/>
          <Node pos="r" depth="2" NCoef="0" IVar="-1" Cut="0.0000000000000000e+00" cType="1" res="4.9373611807823181e-02" rms="3.1164547801017761e-01" purity="8.7715905904769897e-01" nType="-99"/>
        </Node>
        <Node pos="r" depth="1" NCoef="0" IVar="8" Cut="9.8367810249328613e-01" cType="1" res="-3.4811365604400635e-01" rms="2.5680956244468689e-01" purity="7.7421151101589203e-02" nType="0">
          <Node pos="l" depth="2" NCoef="0" IVar="-1" Cut="0.0000000000000000e+00" cType="1" res="-2.7279956266283989e-02" rms="1.8777626752853394e-01" purity="3.8296803832054138e-02" nType="-99"/>
          <Node pos="r" depth="2" NCoef="0" IVar="-1" Cut="0.0000000000000000e+00" cType="1" res="-1.6936987638473511e-02" rms="4.3229743838310242e-01" purity="2.6770085096359253e-01" nType="-99"/>
        </Node>
      </Node>
    </BinaryTree>
    <BinaryTree type="DecisionTree" boostWeight="1.0000000000000000e+00" itree="7">
      <Node pos="s" depth="0" NCoef="0" IVar="1" Cut="3.1973481178283691e-02" cType="1" res="-6.6553473472595215e-02" rms="3.8757875561714172e-01" purity="5.0000000000000000e-01" nType="0">
        <Node pos="l" depth="1" NCoef="0" IVar="8" Cut="8.5500311851501465e-01" cType="1" res="1.2777486443519592e-01" rms="3.3913275599479675e-01" purity="8.0544275045394897e-01" nType="0">
          <Node pos="l" depth="2" NCoef="0" IVar="-1" Cut="0.0000000000000000e+00" cType="1" res="-2.2600967437028885e-02" rms="3.4178999066352844e-01" purity="1.3523785769939423e-01" nType="-99"/>
          <Node pos="r" depth="2" NCoef="0" IVar="-1" Cut="0.0000000000000000e+00" cType="1" res="4.8149593174457550e-02" rms="3.0342474579811096e-01" purity="8.8307523727416992e-01" nType="-99"/>
        </Node>
        <Node pos="r" depth="1" NCoef="0" IVar="8" Cut="9.7968506813049316e-01" cType="1" res="-2.9855775833129883e-01" rms="3.0551311373710632e-01" purity="1.3533869385719299e-01" nType="0">
          <Node pos="l" depth="2" NCoef="0" IVar="-1" Cut="0.0000000000000000e+00" cType="1" res="-2.6349319145083427e-02" rms="2.1035695075988770e-01" purity="5.3301498293876648e-02" nType="-99"/>
          <Node pos="r" depth="2" NCoef="0" IVar="-1" Cut="0.0000000000000000e+00" cType="1" res="-1.1281235143542290e-02" rms="4.4695377349853516e-01" purity="3.9005169272422791e-01" nType="-99"/>
        </Node>
      </Node>
    </BinaryTree>
    <BinaryTree type="DecisionTree" boostWeight="1.0000000000000000e+00" itree="8">
      <Node pos="s" depth="0" NCoef="0" IVar="3" Cut="7.7297317981719971e-01" cType="1" res="-7.0361867547035217e-02" rms="3.7830695509910583e-01" purity="5.0000000000000000e-01" nType="0">
        <Node pos="l" depth="1" NCoef="0" IVar="8" Cut="9.6680468320846558e-01" cType="1" res="-2.8635928034782410e-01" rms="3.0923727154731750e-01" purity="1.5377570688724518e-01" nType="0">
          <Node pos="l" depth="2" NCoef="0" IVar="-1" Cut="0.0000000000000000e+00" cType="1" res="-2.6158757507801056e-02" rms="2.0121082663536072e-01" purity="5.0857674330472946e-02" nType="-99"/>
          <Node pos="r" depth="2" NCoef="0" IVar="-1" Cut="0.0000000000000000e+00" cType="1" res="-1.4937534928321838e-02" rms="4.2586246132850647e-01" purity="3.6589950323104858e-01" nType="-99"/>
        </Node>
        <Node pos="r" depth="1" NCoef="0" IVar="8" Cut="9.5992213487625122e-01" cType="1" res="1.1751085519790649e-01" rms="3.2946175336837769e-01" purity="8.0114299058914185e-01" nType="0">
          <Node pos="l" depth="2" NCoef="0" IVar="-1" Cut="0.0000000000000000e+00" cType="1" res="-1.4811103232204914e-02" rms="4.1861021518707275e-01" purity="3.3370032906532288e-01" nType="-99"/>
          <Node pos="r" depth="2" NCoef="0" IVar="-1" Cut="0.0000000000000000e+00" cType="1" res="5.6959751993417740e-02" rms="2.6642480492591858e-01" purity="9.1245257854461670e-01" nType="-99"/>
        </Node>
      </Node>
    </BinaryTree>
    <BinaryTree type="DecisionTree" boostWeight="1.0000000000000000e+00" itree="9">
      <Node pos="s" depth="0" NCoef="0" IVar="1" Cut="6.2947794795036316e-02" cType="1" res="-7.3957413434982300e-02" rms="3.6913084983825684e-01" purity="5.0000000000000000e-01" nType="0">
        <Node pos="l" depth="1" NCoef="0" IVar="8" Cut="9.5588654279708862e-01" cType="1" res="7.4851863086223602e-02" rms="3.5061943531036377e-01" purity="7.5894749164581299e-01" nType="0">
          <Node pos="l" depth="2" NCoef="0" IVar="-1" Cut="0.0000000000000000e+00" cType="1" res="-1.7068523913621902e-02" rms="4.0875810384750366e-01" purity="2.7823787927627563e-01" nType="-99"/>
          <Node pos="r" depth="2" NCoef="0" IVar="-1" Cut="0.0000000000000000e+00" cType="1" res="4.5585788786411285e-02" rms="2.9235893487930298e-01" purity="8.9424651861190796e-01" nType="-99"/>
        </Node>
        <Node pos="r" depth="1" NCoef="0" IVar="8" Cut="9.8367810249328613e-01" cType="1" res="-3.1839752197265625e-01" rms="2.4903318285942078e-01" purity="7.4642419815063477e-02" nType="0">
          <Node pos="l" depth="2" NCoef="0" IVar="-1" Cut="0.0000000000000000e+00" cType="1" res="-2.5552188977599144e-02" rms="1.8377131223678589e-01" purity="3.7001460790634155e-02" nType="-99"/>
          <Node pos="r" depth="2" NCoef="0" IVar="-1" Cut="0.0000000000000000e+00" cType="1" res="-1.6356863081455231e-02" rms="4.2472440004348755e-01" purity="2.5976690649986267e-01" nType="-99"/>
        </Node>
      </Node>
    </BinaryTree>
    <BinaryTree type="DecisionTree" boostWeight="1.0000000000000000e+00" itree="10">
      <Node pos="s" depth="0" NCoef="0" IVar="3" Cut="7.9273700714111328e-01" cType="1" res="-7.6633274555206299e-02" rms="3.6128804087638855e-01" purity="5.0000000000000000e-01" nType="0">
        <Node pos="l" depth="1" NCoef="0" IVar="8" Cut="9.6980112791061401e-01" cType="1" res="-2.5464856624603271e-01" rms="3.1718972325325012e-01" purity="1.7963095009326935e-01" nType="0">
          <Node pos="l" depth="2" NCoef="0" IVar="-1" Cut="0.0000000000000000e+00" cType="1" res="-2.4799421429634094e-02" rms="2.1686471998691559e-01" purity="6.2207378447055817e-02" nType="-99"/>
          <Node pos="r" depth="2" NCoef="0" IVar="-1" Cut="0.0000000000000000e+00" cType="1" res="-1.2174896895885468e-02" rms="4.2511963844299316e-01" purity="4.2154607176780701e-01" nType="-99"/>
        </Node>
        <Node pos="r" depth="1" NCoef="0" IVar="8" Cut="7.9727387428283691e-01" cType="1" res="1.0524203628301620e-01" rms="3.0926093459129333e-01" purity="8.2731580734252930e-01" nType="0">
          <Node pos="l" depth="2" NCoef="0" IVar="-1" Cut="0.0000000000000000e+00" cType="1" res="-2.2129088640213013e-02" rms="3.0890992283821106e-01" purity="1.0859508812427521e-01" nType="-99"/>
          <Node pos="r" depth="2" NCoef="0" IVar="-1" Cut="0.0000000000000000e+00" cType="1" res="4.0388733148574829e-02" rms="2.8850010037422180e-01" purity="8.8186931610107422e-01" nType="-99"/>
        </Node>
      </Node>
    </BinaryTree>
    <BinaryTree type="DecisionTree" boostWeight="1.0000000000000000e+00" itree="11">
      <Node pos="s" depth="0" NCoef="0" IVar="1" Cut="6.2697999179363251e-02" cType="1" res="-7.7995210886001587e-02" rms="3.5475718975067139e-01" purity="5.0000000000000000e-01" nType="0">
        <Node pos="l" depth="1" NCoef="0" IVar="8" Cut="8.7597888708114624e-01" cType="1" res="5.6564144790172577e-02" rms="3.4271618723869324e-01" purity="7.5916481018066406e-01" nType="0">
          <Node pos="l" depth="2" NCoef="0" IVar="-1" Cut="0.0000000000000000e+00" cType="1" res="-2.0930863916873932e-02" rms="3.2431492209434509e-01" purity="1.2390121072530746e-01" nType="-99"/>
          <Node pos="r" depth="2" NCoef="0" IVar="-1" Cut="0.0000000000000000e+00" cType="1" res="2.9625950381159782e-02" rms="3.1800174713134766e-01" purity="8.5669320821762085e-01" nType="-99"/>
        </Node>
        <Node pos="r" depth="1" NCoef="0" IVar="8" Cut="9.8367810249328613e-01" cType="1" res="-2.9874056577682495e-01" rms="2.4738271534442902e-01" purity="7.4838690459728241e-02" nType="0">
          <Node pos="l" depth="2" NCoef="0" IVar="-1" Cut="0.0000000000000000e+00" cType="1" res="-2.4565929546952248e-02" rms="1.8346150219440460e-01" purity="3.7154715508222580e-02" nType="-99"/>
          <Node pos="r" depth="2" NCoef="0" IVar="-1" Cut="0.0000000000000000e+00" cType="1" res="-1.5620214864611626e-02" rms="4.2286118865013123e-01" purity="2.5989529490470886e-01" nType="-99"/>
        </Node>
      </Node>
    </BinaryTree>
    <BinaryTree type="DecisionTree" boostWeight="1.0000000000000000e+00" itree="12">
      <Node pos="s" depth="0" NCoef="0" IVar="1" Cut="3.0224932357668877e-02" cType="1" res="-7.8783452510833740e-02" rms="3.4915176033973694e-01" purity="5.0000000000000000e-01" nType="0">
        <Node pos="l" depth="1" NCoef="0" IVar="0" Cut="5.8926902711391449e-02" cType="1" res="7.3699086904525757e-02" rms="3.2033184170722961e-01" purity="8.0826264619827271e-01" nType="0">
          <Node pos="l" depth="2" NCoef="0" IVar="-1" Cut="0.0000000000000000e+00" cType="1" res="3.9688076823949814e-02" rms="2.7686238288879395e-01" purity="8.8837212324142456e-01" nType="-99"/>
          <Node pos="r" depth="2" NCoef="0" IVar="-1" Cut="0.0000000000000000e+00" cType="1" res="-1.9006036221981049e-02" rms="4.0113985538482666e-01" purity="4.1080084443092346e-01" nType="-99"/>
        </Node>
        <Node pos="r" depth="1" NCoef="0" IVar="8" Cut="9.8467636108398438e-01" cType="1" res="-2.5637453794479370e-01" rms="2.9284876585006714e-01" purity="1.4097718894481659e-01" nType="0">
          <Node pos="l" depth="2" NCoef="0" IVar="-1" Cut="0.0000000000000000e+00" cType="1" res="-2.3630386218428612e-02" rms="2.2556804120540619e-01" purity="6.8849913775920868e-02" nType="-99"/>
          <Node pos="r" depth="2" NCoef="0" IVar="-1" Cut="0.0000000000000000e+00" cType="1" res="-8.5677737370133400e-03" rms="4.3489587306976318e-01" purity="4.3655017018318176e-01" nType="-99"/>
        </Node>
      </Node>
    </BinaryTree>
    <BinaryTree type="DecisionTree" boostWeight="1.0000000000000000e+00" itree="13">
      <Node pos="s" depth="0" NCoef="0" IVar="3" Cut="7.6732635498046875e-01" cType="1" res="-7.9589180648326874e-02" rms="3.4329518675804138e-01" purity="5.0000000000000000e-01" nType="0">
        <Node pos="l" depth="1" NCoef="0" IVar="8" Cut="9.8278564214706421e-01" cType="1" res="-2.5059622526168823e-01" rms="2.9358595609664917e-01" purity="1.4754693210124969e-01" nType="0">
          <Node pos="l" depth="2" NCoef="0" IVar="-1" Cut="0.0000000000000000e+00" cType="1" res="-2.3287497460842133e-02" rms="2.3332174122333527e-01" purity="7.8695297241210938e-02" nType="-99"/>
          <Node pos="r" depth="2" NCoef="0" IVar="-1" Cut="0.0000000000000000e+00" cType="1" res="-1.1146136559545994e-02" rms="4.2674142122268677e-01" purity="4.1499766707420349e-01" nType="-99"/>
        </Node>
        <Node pos="r" depth="1" NCoef="0" IVar="8" Cut="9.6690702438354492e-01" cType="1" res="6.2291361391544342e-02" rms="3.1579348444938660e-01" purity="7.9242205619812012e-01" nType="0">
          <Node pos="l" depth="2" NCoef="0" IVar="-1" Cut="0.0000000000000000e+00" cType="1" res="-1.4038140885531902e-02" rms="4.0032851696014404e-01" purity="3.7058600783348083e-01" nType="-99"/>
          <Node pos="r" depth="2" NCoef="0" IVar="-1" Cut="0.0000000000000000e+00" cType="1" res="4.4940285384654999e-02" rms="2.6062738895416260e-01" purity="9.1451066732406616e-01" nType="-99"/>
        </Node>
      </Node>
    </BinaryTree>
    <BinaryTree type="DecisionTree" boostWeight="1.0000000000000000e+00" itree="14">
      <Node pos="s" depth="0" NCoef="0" IVar="1" Cut="6.5945304930210114e-02" cType="1" res="-8.0451920628547668e-02" rms="3.3769875764846802e-01" purity="5.0000000000000000e-01" nType="0">
        <Node pos="l" depth="1" NCoef="0" IVar="0" Cut="8.2148097455501556e-02" cType="1" res="3.4188393503427505e-02" rms="3.3496853709220886e-01" purity="7.5437355041503906e-01" nType="0">
          <Node pos="l" depth="2" NCoef="0" IVar="-1" Cut="0.0000000000000000e+00" cType="1" res="2.3129288107156754e-02" rms="3.0525913834571838e-01" purity="8.4094828367233276e-01" nType="-99"/>
          <Node pos="r" depth="2" NCoef="0" IVar="-1" Cut="0.0000000000000000e+00" cType="1" res="-2.1888921037316322e-02" rms="3.6895430088043213e-01" purity="2.7176582813262939e-01" nType="-99"/>
        </Node>
        <Node pos="r" depth="1" NCoef="0" IVar="8" Cut="9.6567243337631226e-01" cType="1" res="-2.7367129921913147e-01" rms="2.4010689556598663e-01" purity="7.1268603205680847e-02" nType="0">
          <Node pos="l" depth="2" NCoef="0" IVar="-1" Cut="0.0000000000000000e+00" cType="1" res="-2.3858061060309410e-02" rms="1.3741801679134369e-01" purity="1.9589448347687721e-02" nType="-99"/>
          <Node pos="r" depth="2" NCoef="0" IVar="-1" Cut="0.0000000000000000e+00" cType="1" res="-1.7312172800302505e-02" rms="3.8141137361526489e-01" purity="1.9787915050983429e-01" nType="-99"/>
        </Node>
      </Node>
    </BinaryTree>
    <BinaryTree type="DecisionTree" boostWeight="1.0000000000000000e+00" itree="15">
      <Node pos="s" depth="0" NCoef="0" IVar="1" Cut="3.0224932357668877e-02" cType="1" res="-7.9897895455360413e-02" rms="3.3350530266761780e-01" purity="5.0000000000000000e-01" nType="0">
        <Node pos="l" depth="1" NCoef="0" IVar="8" Cut="8.2803428173065186e-01" cType="1" res="5.2299343049526215e-02" rms="3.1344348192214966e-01" purity="8.0826264619827271e-01" nType="0">
          <Node pos="l" depth="2" NCoef="0" IVar="-1" Cut="0.0000000000000000e+00" cType="1" res="-2.0308889448642731e-02" rms="3.1631413102149963e-01" purity="1.1906519532203674e-01" nType="-99"/>
          <Node pos="r" depth="2" NCoef="0" IVar="-1" Cut="0.0000000000000000e+00" cType="1" res="2.8352636843919754e-02" rms="2.9580938816070557e-01" purity="8.7940555810928345e-01" nType="-99"/>
        </Node>
        <Node pos="r" depth="1" NCoef="0" IVar="8" Cut="9.8567461967468262e-01" cType="1" res="-2.3386342823505402e-01" rms="2.8684967756271362e-01" purity="1.4097718894481659e-01" nType="0">
          <Node pos="l" depth="2" NCoef="0" IVar="-1" Cut="0.0000000000000000e+00" cType="1" res="-2.2334946319460869e-02" rms="2.2761996090412140e-01" purity="7.2460763156414032e-02" nType="-99"/>
          <Node pos="r" depth="2" NCoef="0" IVar="-1" Cut="0.0000000000000000e+00" cType="1" res="-7.7419793233275414e-03" rms="4.2863434553146362e-01" purity="4.4416964054107666e-01" nType="-99"/>
        </Node>
      </Node>
    </BinaryTree>
    <BinaryTree type="DecisionTree" boostWeight="1.0000000000000000e+00" itree="16">
      <Node pos="s" depth="0" NCoef="0" IVar="3" Cut="7.7297317981719971e-01" cType="1" res="-7.9667538404464722e-02" rms="3.2936814427375793e-01" purity="5.0000000000000000e-01" nType="0">
        <Node pos="l" depth="1" NCoef="0" IVar="8" Cut="9.8278564214706421e-01" cType="1" res="-2.2509860992431641e-01" rms="2.9241937398910522e-01" purity="1.5377570688724518e-01" nType="0">
          <Node pos="l" depth="2" NCoef="0" IVar="-1" Cut="0.0000000000000000e+00" cType="1" res="-2.2044679149985313e-02" rms="2.3437823355197906e-01" purity="8.2044489681720734e-02" nType="-99"/>
          <Node pos="r" depth="2" NCoef="0" IVar="-1" Cut="0.0000000000000000e+00" cType="1" res="-9.9282022565603256e-03" rms="4.2241546511650085e-01" purity="4.2682272195816040e-01" nType="-99"/>
        </Node>
        <Node pos="r" depth="1" NCoef="0" IVar="8" Cut="8.7310981750488281e-01" cType="1" res="4.6827189624309540e-02" rms="3.0670672655105591e-01" purity="8.0114299058914185e-01" nType="0">
          <Node pos="l" depth="2" NCoef="0" IVar="-1" Cut="0.0000000000000000e+00" cType="1" res="-1.8720651045441628e-02" rms="3.2885122299194336e-01" purity="1.3823260366916656e-01" nType="-99"/>
          <Node pos="r" depth="2" NCoef="0" IVar="-1" Cut="0.0000000000000000e+00" cType="1" res="2.6682330295443535e-02" rms="2.8826463222503662e-01" purity="8.7679827213287354e-01" nType="-99"/>
        </Node>
      </Node>
    </BinaryTree>
    <BinaryTree type="DecisionTree" boostWeight="1.0000000000000000e+00" itree="17">
      <Node pos="s" depth="0" NCoef="0" IVar="1" Cut="6.9941990077495575e-02" cType="1" res="-7.9056032001972198e-02" rms="3.2568815350532532e-01" purity="5.0000000000000000e-01" nType="0">
        <Node pos="l" depth="1" NCoef="0" IVar="8" Cut="9.6987038850784302e-01" cType="1" res="1.9736634567379951e-02" rms="3.2998132705688477e-01" purity="7.4809497594833374e-01" nType="0">
          <Node pos="l" depth="2" NCoef="0" IVar="-1" Cut="0.0000000000000000e+00" cType="1" res="-1.5487913042306900e-02" rms="3.9064753055572510e-01" purity="3.5022205114364624e-01" nType="-99"/>
          <Node pos="r" depth="2" NCoef="0" IVar="-1" Cut="0.0000000000000000e+00" cType="1" res="3.3206567168235779e-02" rms="2.7766996622085571e-01" purity="9.0233898162841797e-01" nType="-99"/>
        </Node>
        <Node pos="r" depth="1" NCoef="0" IVar="8" Cut="9.5968300104141235e-01" cType="1" res="-2.5141647458076477e-01" rms="2.3329298198223114e-01" purity="6.7156560719013214e-02" nType="0">
          <Node pos="l" depth="2" NCoef="0" IVar="-1" Cut="0.0000000000000000e+00" cType="1" res="-2.2935088723897934e-02" rms="1.2618862092494965e-01" purity="1.6442596912384033e-02" nType="-99"/>
          <Node pos="r" depth="2" NCoef="0" IVar="-1" Cut="0.0000000000000000e+00" cType="1" res="-1.6973152756690979e-02" rms="3.6572641134262085e-01" purity="1.7758208513259888e-01" nType="-99"/>
        </Node>
      </Node>
    </BinaryTree>
    <BinaryTree type="DecisionTree" boostWeight="1.0000000000000000e+00" itree="18">
      <Node pos="s" depth="0" NCoef="0" IVar="1" Cut="3.0224932357668877e-02" cType="1" res="-7.8875109553337097e-02" rms="3.2174140214920044e-01" purity="5.0000000000000000e-01" nType="0">
        <Node pos="l" depth="1" NCoef="0" IVar="0" Cut="5.8926902711391449e-02" cType="1" res="3.6559816449880600e-02" rms="3.0858534574508667e-01" purity="8.0826264619827271e-01" nType="0">
          <Node pos="l" depth="2" NCoef="0" IVar="-1" Cut="0.0000000000000000e+00" cType="1" res="2.8390046209096909e-02" rms="2.7402520179748535e-01" purity="8.8837212324142456e-01" nType="-99"/>
          <Node pos="r" depth="2" NCoef="0" IVar="-1" Cut="0.0000000000000000e+00" cType="1" res="-1.8079608678817749e-02" rms="3.8952612876892090e-01" purity="4.1080084443092346e-01" nType="-99"/>
        </Node>
        <Node pos="r" depth="1" NCoef="0" IVar="8" Cut="9.8567461967468262e-01" cType="1" res="-2.1331813931465149e-01" rms="2.8210154175758362e-01" purity="1.4097718894481659e-01" nType="0">
          <Node pos="l" depth="2" NCoef="0" IVar="-1" Cut="0.0000000000000000e+00" cType="1" res="-2.1272219717502594e-02" rms="2.2592489421367645e-01" purity="7.2460763156414032e-02" nType="-99"/>
          <Node pos="r" depth="2" NCoef="0" IVar="-1" Cut="0.0000000000000000e+00" cType="1" res="-7.6074227690696716e-03" rms="4.2360934615135193e-01" purity="4.4416964054107666e-01" nType="-99"/>
        </Node>
      </Node>
    </BinaryTree>
    <BinaryTree type="DecisionTree" boostWeight="1.0000000000000000e+00" itree="19">
      <Node pos="s" depth="0" NCoef="0" IVar="3" Cut="7.6097369194030762e-01" cType="1" res="-7.8052960336208344e-02" rms="3.1837746500968933e-01" purity="5.0000000000000000e-01" nType="0">
        <Node pos="l" depth="1" NCoef="0" IVar="8" Cut="9.6680468320846558e-01" cType="1" res="-2.1158501505851746e-01" rms="2.8132373094558716e-01" purity="1.4144478738307953e-01" nType="0">
          <Node pos="l" depth="2" NCoef="0" IVar="-1" Cut="0.0000000000000000e+00" cType="1" res="-2.1683471277356148e-02" rms="1.9013336300849915e-01" purity="4.7117806971073151e-02" nType="-99"/>
          <Node pos="r" depth="2" NCoef="0" IVar="-1" Cut="0.0000000000000000e+00" cType="1" res="-1.3634019531309605e-02" rms="4.0142384171485901e-01" purity="3.4330365061759949e-01" nType="-99"/>
        </Node>
        <Node pos="r" depth="1" NCoef="0" IVar="8" Cut="9.7688543796539307e-01" cType="1" res="2.7139972895383835e-02" rms="3.0619809031486511e-01" purity="7.8246009349822998e-01" nType="0">
          <Node pos="l" depth="2" NCoef="0" IVar="-1" Cut="0.0000000000000000e+00" cType="1" res="-1.3150366954505444e-02" rms="3.8438776135444641e-01" purity="4.4963490962982178e-01" nType="-99"/>
          <Node pos="r" depth="2" NCoef="0" IVar="-1" Cut="0.0000000000000000e+00" cType="1" res="3.8099195808172226e-02" rms="2.4657627940177917e-01" purity="9.2217880487442017e-01" nType="-99"/>
        </Node>
      </Node>
    </BinaryTree>
    <BinaryTree type="DecisionTree" boostWeight="1.0000000000000000e+00" itree="20">
      <Node pos="s" depth="0" NCoef="0" IVar="1" Cut="6.9941990077495575e-02" cType="1" res="-7.7474482357501984e-02" rms="3.1499668955802917e-01" purity="5.0000000000000000e-01" nType="0">
        <Node pos="l" depth="1" NCoef="0" IVar="0" Cut="5.7179071009159088e-02" cType="1" res="8.8451802730560303e-03" rms="3.2370236515998840e-01" purity="7.4809497594833374e-01" nType="0">
          <Node pos="l" depth="2" NCoef="0" IVar="-1" Cut="0.0000000000000000e+00" cType="1" res="1.8202317878603935e-02" rms="2.9286020994186401e-01" purity="8.5331714153289795e-01" nType="-99"/>
          <Node pos="r" depth="2" NCoef="0" IVar="-1" Cut="0.0000000000000000e+00" cType="1" res="-1.8308443948626518e-02" rms="3.7277770042419434e-01" purity="3.4198451042175293e-01" nType="-99"/>
        </Node>
        <Node pos="r" depth="1" NCoef="0" IVar="4" Cut="4.9975013826042414e-04" cType="1" res="-2.2807367146015167e-01" rms="2.3203933238983154e-01" purity="6.7156560719013214e-02" nType="0">
          <Node pos="l" depth="2" NCoef="0" IVar="-1" Cut="0.0000000000000000e+00" cType="1" res="-4.6232528984546661e-03" rms="4.1324123740196228e-01" purity="3.0232074856758118e-01" nType="-99"/>
          <Node pos="r" depth="2" NCoef="0" IVar="-1" Cut="0.0000000000000000e+00" cType="1" res="-2.0543307065963745e-02" rms="2.2022680938243866e-01" purity="5.8902826160192490e-02" nType="-99"/>
        </Node>
      </Node>
    </BinaryTree>
    <BinaryTree type="DecisionTree" boostWeight="1.0000000000000000e+00" itree="21">
      <Node pos="s" depth="0" NCoef="0" IVar="1" Cut="2.3980112746357918e-02" cType="1" res="-7.6051354408264160e-02" rms="3.1235861778259277e-01" purity="5.0000000000000000e-01" nType="0">
        <Node pos="l" depth="1" NCoef="0" IVar="8" Cut="6.3725465536117554e-01" cType="1" res="3.0943231657147408e-02" rms="2.9952758550643921e-01" purity="8.1766051054000854e-01" nType="0">
          <Node pos="l" depth="2" NCoef="0" IVar="-1" Cut="0.0000000000000000e+00" cType="1" res="-2.1897053346037865e-02" rms="2.3856484889984131e-01" purity="6.3620261847972870e-02" nType="-99"/>
          <Node pos="r" depth="2" NCoef="0" IVar="-1" Cut="0.0000000000000000e+00" cType="1" res="1.8552975729107857e-02" rms="2.9228264093399048e-01" purity="8.6820065975189209e-01" nType="-99"/>
        </Node>
        <Node pos="r" depth="1" NCoef="0" IVar="8" Cut="9.8467636108398438e-01" cType="1" res="-1.8836037814617157e-01" rms="2.8491967916488647e-01" purity="1.6656121611595154e-01" nType="0">
          <Node pos="l" depth="2" NCoef="0" IVar="-1" Cut="0.0000000000000000e+00" cType="1" res="-2.0463211461901665e-02" rms="2.2904294729232788e-01" purity="8.0367632210254669e-02" nType="-99"/>
          <Node pos="r" depth="2" NCoef="0" IVar="-1" Cut="0.0000000000000000e+00" cType="1" res="-6.7579192109405994e-03" rms="4.0739884972572327e-01" purity="4.9032354354858398e-01" nType="-99"/>
        </Node>
      </Node>
    </BinaryTree>
    <BinaryTree type="DecisionTree" boostWeight="1.0000000000000000e+00" itree="22">
      <Node pos="s" depth="0" NCoef="0" IVar="8" Cut="9.7686231136322021e-01" cType="1" res="-7.4685737490653992e-02" rms="3.0991926789283752e-01" purity="5.0000000000000000e-01" nType="0">
        <Node pos="l" depth="1" NCoef="0" IVar="4" Cut="4.9975013826042414e-04" cType="1" res="-1.8095505237579346e-01" rms="2.8442972898483276e-01" purity="1.9190175831317902e-01" nType="0">
          <Node pos="l" depth="2" NCoef="0" IVar="-1" Cut="0.0000000000000000e+00" cType="1" res="-1.9474083092063665e-03" rms="3.8429224491119385e-01" purity="5.7100397348403931e-01" nType="-99"/>
          <Node pos="r" depth="2" NCoef="0" IVar="-1" Cut="0.0000000000000000e+00" cType="1" res="-2.0102242007851601e-02" rms="2.5472146272659302e-01" purity="1.3097037374973297e-01" nType="-99"/>
        </Node>
        <Node pos="r" depth="1" NCoef="0" IVar="4" Cut="6.8665665388107300e-01" cType="1" res="2.9075706377625465e-02" rms="2.9841080307960510e-01" purity="8.0082732439041138e-01" nType="0">
