<?xml version="1.0"?>
<MethodSetup Method="BDT::BDTG">
  <GeneralInfo>
    <Info name="TMVA Release" value="4.2.0 [262656]"/>
    <Info name="ROOT Release" value="5.34/18 [336402]"/>
    <Info name="Creator" value="botta"/>
    <Info name="Date" value="Mon Jan  5 18:47:46 2015"/>
    <Info name="Host" value="Linux cmsdev02.cern.ch 2.6.32-431.23.3.el6.x86_64 #1 SMP Wed Jul 30 09:43:11 CEST 2014 x86_64 x86_64 x86_64 GNU/Linux"/>
    <Info name="Dir" value="/afs/cern.ch/user/b/botta/CMGToolsGit/newRecipe72/CMSSW_7_2_3/src/CMGTools/TTHAnalysis/macros/leptons/trainingPHYS14leptonMVA_good"/>
    <Info name="Training events" value="61444"/>
    <Info name="TrainingTime" value="3.84958799e+01"/>
    <Info name="AnalysisType" value="Classification"/>
  </GeneralInfo>
  <Options>
    <Option name="V" modified="Yes">False</Option>
    <Option name="VerbosityLevel" modified="No">Default</Option>
    <Option name="VarTransform" modified="No">None</Option>
    <Option name="H" modified="Yes">False</Option>
    <Option name="CreateMVAPdfs" modified="Yes">True</Option>
    <Option name="IgnoreNegWeightsInTraining" modified="No">False</Option>
    <Option name="NTrees" modified="Yes">500</Option>
    <Option name="MaxDepth" modified="Yes">2</Option>
    <Option name="MinNodeSize" modified="No">0.1627503.2</Option>
    <Option name="nCuts" modified="Yes">2000</Option>
    <Option name="BoostType" modified="Yes">Grad</Option>
    <Option name="AdaBoostR2Loss" modified="No">quadratic</Option>
    <Option name="UseBaggedBoost" modified="No">False</Option>
    <Option name="Shrinkage" modified="Yes">1.000000e-01</Option>
    <Option name="AdaBoostBeta" modified="No">5.000000e-01</Option>
    <Option name="UseRandomisedTrees" modified="No">False</Option>
    <Option name="UseNvars" modified="Yes">9</Option>
    <Option name="UsePoissonNvars" modified="No">True</Option>
    <Option name="BaggedSampleFraction" modified="No">6.000000e-01</Option>
    <Option name="UseYesNoLeaf" modified="No">True</Option>
    <Option name="NegWeightTreatment" modified="No">ignorenegweightsintraining</Option>
    <Option name="Css" modified="No">1.000000e+00</Option>
    <Option name="Cts_sb" modified="No">1.000000e+00</Option>
    <Option name="Ctb_ss" modified="No">1.000000e+00</Option>
    <Option name="Cbb" modified="No">1.000000e+00</Option>
    <Option name="NodePurityLimit" modified="No">5.000000e-01</Option>
    <Option name="SeparationType" modified="No">giniindex</Option>
    <Option name="DoBoostMonitor" modified="No">False</Option>
    <Option name="UseFisherCuts" modified="No">False</Option>
    <Option name="MinLinCorrForFisher" modified="No">8.000000e-01</Option>
    <Option name="UseExclusiveVars" modified="No">False</Option>
    <Option name="DoPreselection" modified="No">False</Option>
    <Option name="SigToBkgFraction" modified="No">1.000000e+00</Option>
    <Option name="PruneMethod" modified="Yes">costcomplexity</Option>
    <Option name="PruneStrength" modified="Yes">5.000000e+00</Option>
    <Option name="PruningValFraction" modified="No">5.000000e-01</Option>
    <Option name="nEventsMin" modified="Yes">100</Option>
    <Option name="UseBaggedGrad" modified="Yes">False</Option>
    <Option name="GradBaggingFraction" modified="No">6.000000e-01</Option>
    <Option name="UseNTrainEvents" modified="No">0</Option>
    <Option name="NNodesMax" modified="Yes">9</Option>
  </Options>
  <Variables NVar="9">
    <Variable VarIndex="0" Expression="LepGood_relIso03-LepGood_chargedHadRelIso03" Label="LepGood_neuRelIso03" Title="LepGood_neuRelIso03" Unit="" Internal="LepGood_neuRelIso03" Type="D" Min="0.00000000e+00" Max="4.99985576e-01"/>
    <Variable VarIndex="1" Expression="LepGood_chargedHadRelIso03" Label="LepGood_chRelIso03" Title="LepGood_chRelIso03" Unit="" Internal="LepGood_chRelIso03" Type="D" Min="0.00000000e+00" Max="4.99963224e-01"/>
    <Variable VarIndex="2" Expression="min(LepGood_jetDR,0.5)" Label="LepGood_jetDR" Title="LepGood_jetDR" Unit="" Internal="LepGood_jetDR" Type="D" Min="0.00000000e+00" Max="3.99712831e-01"/>
    <Variable VarIndex="3" Expression="min(LepGood_jetPtRatio,1.5)" Label="LepGood_jetPtRatio" Title="LepGood_jetPtRatio" Unit="" Internal="LepGood_jetPtRatio" Type="D" Min="1.95791777e-02" Max="1.50000000e+00"/>
    <Variable VarIndex="4" Expression="max(LepGood_jetBTagCSV,0)" Label="LepGood_jetBTagCSV" Title="LepGood_jetBTagCSV" Unit="" Internal="LepGood_jetBTagCSV" Type="D" Min="0.00000000e+00" Max="1.00000000e+00"/>
    <Variable VarIndex="5" Expression="LepGood_sip3d" Label="LepGood_sip3d" Title="LepGood_sip3d" Unit="" Internal="LepGood_sip3d" Type="D" Min="5.23854466e-03" Max="2.80013763e+02"/>
    <Variable VarIndex="6" Expression="log(abs(LepGood_dxy))" Label="LepGood_dxy" Title="LepGood_dxy" Unit="" Internal="LepGood_dxy" Type="D" Min="-1.69401379e+01" Max="-2.99585152e+00"/>
    <Variable VarIndex="7" Expression="log(abs(LepGood_dz))" Label="LepGood_dz" Title="LepGood_dz" Unit="" Internal="LepGood_dz" Type="D" Min="-1.50163326e+01" Max="-2.30267382e+00"/>
    <Variable VarIndex="8" Expression="LepGood_segmentCompatibility" Label="LepGood_segmentCompatibility" Title="LepGood_segmentCompatibility" Unit="" Internal="LepGood_segmentCompatibility" Type="D" Min="3.03107142e-01" Max="1.00000000e+00"/>
  </Variables>
  <Spectators NSpec="0"/>
  <Classes NClass="2">
    <Class Name="Signal" Index="0"/>
    <Class Name="Background" Index="1"/>
  </Classes>
  <Transformations NTransformations="0"/>
  <MVAPdfs>
    <PDF Name="BDTG_PDFSig" MinNSmooth="0" MaxNSmooth="0" InterpolMethod="2" KDE_type="1" KDE_iter="1" KDE_border="1" KDE_finefactor="1.0000000000000000e+00">
      <Histogram Name="BDT_tr_S_original" NBins="1228" XMin="-9.9853891134262085e-01" XMax="9.7309297323226929e-01" HasEquidistantBins="1">
        0.00000000e+00 0.00000000e+00 0.00000000e+00 0.00000000e+00 0.00000000e+00 0.00000000e+00 0.00000000e+00 0.00000000e+00 0.00000000e+00 7.18461550e-02 2.39487183e-02 0.00000000e+00 0.00000000e+00 2.39487183e-02 2.39487183e-02 2.39487183e-02 0.00000000e+00 0.00000000e+00 4.78974367e-02 2.39487183e-02 4.78974367e-02 0.00000000e+00 4.78974367e-02 4.78974367e-02 7.18461550e-02 2.39487183e-02 0.00000000e+00 4.78974367e-02 2.39487183e-02 1.19743592e-01 0.00000000e+00 2.39487183e-02 9.57948734e-02 0.00000000e+00 4.78974367e-02 7.18461550e-02 7.18461550e-02 9.57948734e-02 0.00000000e+00 4.78974367e-02 0.00000000e+00 4.78974367e-02 9.57948734e-02 2.39487183e-02 7.18461550e-02 9.57948734e-02 7.18461550e-02 0.00000000e+00 4.78974367e-02 7.18461550e-02 4.78974367e-02 0.00000000e+00 4.78974367e-02 4.78974367e-02 1.19743592e-01 7.18461550e-02 4.78974367e-02 9.57948734e-02 4.78974367e-02 7.18461550e-02 4.78974367e-02 1.19743592e-01 4.78974367e-02 9.57948734e-02 4.78974367e-02 4.78974367e-02 1.19743592e-01 7.18461550e-02 4.78974367e-02 2.39487183e-02 7.18461550e-02 7.18461550e-02 4.78974367e-02 1.43692310e-01 0.00000000e+00 2.39487183e-02 9.57948734e-02 4.78974367e-02 2.39487183e-02 7.18461550e-02 7.18461550e-02 2.39487183e-02 4.78974367e-02 4.78974367e-02 4.78974367e-02 9.57948734e-02 0.00000000e+00 0.00000000e+00 2.39487183e-02 2.39487183e-02 0.00000000e+00 1.19743592e-01 2.39487183e-02 4.78974367e-02 7.18461550e-02 4.78974367e-02 4.78974367e-02 9.57948734e-02 1.19743592e-01 9.57948734e-02 4.78974367e-02 4.78974367e-02 9.57948734e-02 2.39487183e-02 7.18461550e-02 2.39487183e-02 4.78974367e-02 2.15538465e-01 7.18461550e-02 1.19743592e-01 1.43692310e-01 4.78974367e-02 4.78974367e-02 2.39487183e-02 7.18461550e-02 1.19743592e-01 4.78974367e-02 2.39487183e-02 2.39487183e-02 4.78974367e-02 1.43692310e-01 9.57948734e-02 0.00000000e+00 2.39487183e-02 1.19743592e-01 9.57948734e-02 1.67641028e-01 9.57948734e-02 9.57948734e-02 1.43692310e-01 1.43692310e-01 1.19743592e-01 2.39487183e-02 1.91589747e-01 1.43692310e-01 1.19743592e-01 1.43692310e-01 1.43692310e-01 4.78974367e-02 1.19743592e-01 7.18461550e-02 0.00000000e+00 7.18461550e-02 7.18461550e-02 2.39487183e-02 4.78974367e-02 9.57948734e-02 1.19743592e-01 9.57948734e-02 9.57948734e-02 9.57948734e-02 7.18461550e-02 9.57948734e-02 7.18461550e-02 1.91589747e-01 9.57948734e-02 0.00000000e+00 1.43692310e-01 1.43692310e-01 7.18461550e-02 7.18461550e-02 4.78974367e-02 1.67641028e-01 2.39487183e-02 1.91589747e-01 4.78974367e-02 9.57948734e-02 9.57948734e-02 7.18461550e-02 1.67641028e-01 4.78974367e-02 7.18461550e-02 1.43692310e-01 0.00000000e+00 2.39487183e-02 7.18461550e-02 1.19743592e-01 9.57948734e-02 7.18461550e-02 1.19743592e-01 9.57948734e-02 1.43692310e-01 9.57948734e-02 2.15538465e-01 1.43692310e-01 1.43692310e-01 9.57948734e-02 1.43692310e-01 1.19743592e-01 4.78974367e-02 4.78974367e-02 9.57948734e-02 1.67641028e-01 1.67641028e-01 7.18461550e-02 1.19743592e-01 9.57948734e-02 7.18461550e-02 1.91589747e-01 1.43692310e-01 1.67641028e-01 9.57948734e-02 1.43692310e-01 2.39487183e-01 9.57948734e-02 1.43692310e-01 1.91589747e-01 1.67641028e-01 1.19743592e-01 1.67641028e-01 2.39487183e-02 1.19743592e-01 2.63435902e-01 1.67641028e-01 1.19743592e-01 1.19743592e-01 1.67641028e-01 1.91589747e-01 7.18461550e-02 1.43692310e-01 1.91589747e-01 4.78974367e-02 1.19743592e-01 3.11333338e-01 2.63435902e-01 1.91589747e-01 1.43692310e-01 1.43692310e-01 1.67641028e-01 1.19743592e-01 1.43692310e-01 2.63435902e-01 1.43692310e-01 1.19743592e-01 9.57948734e-02 1.67641028e-01 1.19743592e-01 4.78974367e-02 1.67641028e-01 1.67641028e-01 4.78974367e-02 9.57948734e-02 7.18461550e-02 9.57948734e-02 2.39487183e-01 2.63435902e-01 1.19743592e-01 7.18461550e-02 1.19743592e-01 1.19743592e-01 3.35282057e-01 2.15538465e-01 1.67641028e-01 9.57948734e-02 9.57948734e-02 2.39487183e-02 2.39487183e-01 1.43692310e-01 2.15538465e-01 1.67641028e-01 1.91589747e-01 1.43692310e-01 9.57948734e-02 1.43692310e-01 1.19743592e-01 2.87384620e-01 2.87384620e-01 1.67641028e-01 1.19743592e-01 1.43692310e-01 1.19743592e-01 1.43692310e-01 1.67641028e-01 2.39487183e-01 1.91589747e-01 1.67641028e-01 1.91589747e-01 2.15538465e-01 1.19743592e-01 1.67641028e-01 2.15538465e-01 9.57948734e-02 9.57948734e-02 9.57948734e-02 1.91589747e-01 1.67641028e-01 1.43692310e-01 1.43692310e-01 2.63435902e-01 1.91589747e-01 2.39487183e-01 4.78974367e-02 1.91589747e-01 4.78974367e-02 1.67641028e-01 1.67641028e-01 1.19743592e-01 1.19743592e-01 1.19743592e-01 3.11333338e-01 1.19743592e-01 1.67641028e-01 1.43692310e-01 2.63435902e-01 1.67641028e-01 1.43692310e-01 1.67641028e-01 1.67641028e-01 1.19743592e-01 9.57948734e-02 2.63435902e-01 2.15538465e-01 1.67641028e-01 1.67641028e-01 3.11333338e-01 1.67641028e-01 1.43692310e-01 1.67641028e-01 2.15538465e-01 9.57948734e-02 1.19743592e-01 1.67641028e-01 1.19743592e-01 2.15538465e-01 2.15538465e-01 3.35282057e-01 2.39487183e-02 1.91589747e-01 1.43692310e-01 1.43692310e-01 9.57948734e-02 2.15538465e-01 1.91589747e-01 1.91589747e-01 1.91589747e-01 2.39487183e-01 1.43692310e-01 1.91589747e-01 1.67641028e-01 2.39487183e-01 1.91589747e-01 1.91589747e-01 2.15538465e-01 2.15538465e-01 1.91589747e-01 1.43692310e-01 1.67641028e-01 3.35282057e-01 1.91589747e-01 7.18461550e-02 1.19743592e-01 2.39487183e-01 1.67641028e-01 3.11333338e-01 2.15538465e-01 4.31076930e-01 1.19743592e-01 1.43692310e-01 9.57948734e-02 1.19743592e-01 1.67641028e-01 1.19743592e-01 1.43692310e-01 2.15538465e-01 1.19743592e-01 1.91589747e-01 1.67641028e-01 2.15538465e-01 1.67641028e-01 3.35282057e-01 2.63435902e-01 2.39487183e-01 1.67641028e-01 1.19743592e-01 2.15538465e-01 2.87384620e-01 3.11333338e-01 1.43692310e-01 1.67641028e-01 2.39487183e-01 9.57948734e-02 2.15538465e-01 1.91589747e-01 2.39487183e-01 3.83179493e-01 1.67641028e-01 1.67641028e-01 2.87384620e-01 3.11333338e-01 1.91589747e-01 9.57948734e-02 2.63435902e-01 1.43692310e-01 1.19743592e-01 2.87384620e-01 1.19743592e-01 3.59230775e-01 1.67641028e-01 1.91589747e-01 1.91589747e-01 2.63435902e-01 2.15538465e-01 2.15538465e-01 2.15538465e-01 2.63435902e-01 1.43692310e-01 4.78974367e-02 1.67641028e-01 2.39487183e-01 2.39487183e-01 1.67641028e-01 1.19743592e-01 1.43692310e-01 1.43692310e-01 2.15538465e-01 2.87384620e-01 2.87384620e-01 2.63435902e-01 2.15538465e-01 1.19743592e-01 2.15538465e-01 2.39487183e-01 1.91589747e-01 3.35282057e-01 1.91589747e-01 1.43692310e-01 1.43692310e-01 2.15538465e-01 2.87384620e-01 2.87384620e-01 1.67641028e-01 9.57948734e-02 1.67641028e-01 1.67641028e-01 1.67641028e-01 2.87384620e-01 2.39487183e-01 4.31076930e-01 1.43692310e-01 1.67641028e-01 2.87384620e-01 2.15538465e-01 2.15538465e-01 2.39487183e-01 2.39487183e-01 1.91589747e-01 2.39487183e-01 1.67641028e-01 2.39487183e-01 2.15538465e-01 3.35282057e-01 2.63435902e-01 3.59230775e-01 1.67641028e-01 2.63435902e-01 2.63435902e-01 2.87384620e-01 4.07128212e-01 2.39487183e-01 1.91589747e-01 2.63435902e-01 1.91589747e-01 3.59230775e-01 2.39487183e-01 2.87384620e-01 2.15538465e-01 3.35282057e-01 2.87384620e-01 3.59230775e-01 3.11333338e-01 2.87384620e-01 1.91589747e-01 1.67641028e-01 2.87384620e-01 2.87384620e-01 2.87384620e-01 2.63435902e-01 2.63435902e-01 3.11333338e-01 3.35282057e-01 4.55025648e-01 3.59230775e-01 1.19743592e-01 2.63435902e-01 3.11333338e-01 3.11333338e-01 2.87384620e-01 2.15538465e-01 3.59230775e-01 2.87384620e-01 1.91589747e-01 2.63435902e-01 2.63435902e-01 2.87384620e-01 2.87384620e-01 3.35282057e-01 3.11333338e-01 2.63435902e-01 3.35282057e-01 2.39487183e-01 1.91589747e-01 2.87384620e-01 1.91589747e-01 5.02923085e-01 9.57948734e-02 5.02923085e-01 1.91589747e-01 1.67641028e-01 1.43692310e-01 3.59230775e-01 1.19743592e-01 2.39487183e-01 3.59230775e-01 4.31076930e-01 2.87384620e-01 3.11333338e-01 3.59230775e-01 1.67641028e-01 3.83179493e-01 1.91589747e-01 3.11333338e-01 4.31076930e-01 3.35282057e-01 2.15538465e-01 2.15538465e-01 3.83179493e-01 1.91589747e-01 2.63435902e-01 3.59230775e-01 2.15538465e-01 2.39487183e-01 3.35282057e-01 4.78974367e-01 3.11333338e-01 3.11333338e-01 2.39487183e-01 2.39487183e-01 4.55025648e-01 2.39487183e-01 3.83179493e-01 2.63435902e-01 2.15538465e-01 3.35282057e-01 2.87384620e-01 1.91589747e-01 2.15538465e-01 7.18461550e-02 2.63435902e-01 2.63435902e-01 3.59230775e-01 3.83179493e-01 3.59230775e-01 3.83179493e-01 2.87384620e-01 2.87384620e-01 2.15538465e-01 3.35282057e-01 9.57948734e-02 2.15538465e-01 2.87384620e-01 3.59230775e-01 3.11333338e-01 2.15538465e-01 1.67641028e-01 3.59230775e-01 2.15538465e-01 2.39487183e-01 2.39487183e-01 3.35282057e-01 2.15538465e-01 2.15538465e-01 2.39487183e-01 3.35282057e-01 2.39487183e-01 3.59230775e-01 3.35282057e-01 2.87384620e-01 3.11333338e-01 3.59230775e-01 3.59230775e-01 3.35282057e-01 3.11333338e-01 4.55025648e-01 3.11333338e-01 3.11333338e-01 3.83179493e-01 3.59230775e-01 2.63435902e-01 2.15538465e-01 2.87384620e-01 3.83179493e-01 4.55025648e-01 3.83179493e-01 3.83179493e-01 4.07128212e-01 3.35282057e-01 3.11333338e-01 4.31076930e-01 3.11333338e-01 2.63435902e-01 4.78974367e-01 1.43692310e-01 3.11333338e-01 2.15538465e-01 3.35282057e-01 2.63435902e-01 2.87384620e-01 2.39487183e-01 4.31076930e-01 3.83179493e-01 4.31076930e-01 3.11333338e-01 1.91589747e-01 2.63435902e-01 3.83179493e-01 4.07128212e-01 4.78974367e-01 3.35282057e-01 3.35282057e-01 4.07128212e-01 4.78974367e-01 2.15538465e-01 3.83179493e-01 2.87384620e-01 3.35282057e-01 3.35282057e-01 3.83179493e-01 3.83179493e-01 2.87384620e-01 3.11333338e-01 5.74769240e-01 3.11333338e-01 4.07128212e-01 4.78974367e-01 4.31076930e-01 4.78974367e-01 3.59230775e-01 4.78974367e-01 2.39487183e-01 2.63435902e-01 4.55025648e-01 4.31076930e-01 3.59230775e-01 2.87384620e-01 2.63435902e-01 4.31076930e-01 4.78974367e-01 3.11333338e-01 3.59230775e-01 4.55025648e-01 4.07128212e-01 2.63435902e-01 3.11333338e-01 3.11333338e-01 2.87384620e-01 2.63435902e-01 2.15538465e-01 3.83179493e-01 4.55025648e-01 4.07128212e-01 3.83179493e-01 5.26871804e-01 3.35282057e-01 3.11333338e-01 3.35282057e-01 5.02923085e-01 2.87384620e-01 4.31076930e-01 1.19743592e-01 4.31076930e-01 3.35282057e-01 4.78974367e-01 4.07128212e-01 4.07128212e-01 4.55025648e-01 3.83179493e-01 5.02923085e-01 4.78974367e-01 4.31076930e-01 2.87384620e-01 4.55025648e-01 2.87384620e-01 2.39487183e-01 4.55025648e-01 3.83179493e-01 4.07128212e-01 4.07128212e-01 3.11333338e-01 2.39487183e-01 5.74769240e-01 3.35282057e-01 2.87384620e-01 5.26871804e-01 3.11333338e-01 5.50820522e-01 5.02923085e-01 5.02923085e-01 3.11333338e-01 5.50820522e-01 4.55025648e-01 3.83179493e-01 4.31076930e-01 4.07128212e-01 3.59230775e-01 5.74769240e-01 5.02923085e-01 2.63435902e-01 4.31076930e-01 3.83179493e-01 3.83179493e-01 5.98717959e-01 4.31076930e-01 2.87384620e-01 1.43692310e-01 5.26871804e-01 4.55025648e-01 5.74769240e-01 6.22666677e-01 4.55025648e-01 4.55025648e-01 4.31076930e-01 4.07128212e-01 5.26871804e-01 4.07128212e-01 4.78974367e-01 3.59230775e-01 5.02923085e-01 4.78974367e-01 5.02923085e-01 3.83179493e-01 4.78974367e-01 4.31076930e-01 3.59230775e-01 5.26871804e-01 3.83179493e-01 5.74769240e-01 3.11333338e-01 3.59230775e-01 4.07128212e-01 4.31076930e-01 5.74769240e-01 5.74769240e-01 3.35282057e-01 4.78974367e-01 5.74769240e-01 4.55025648e-01 4.07128212e-01 5.74769240e-01 5.98717959e-01 3.59230775e-01 4.55025648e-01 5.02923085e-01 3.59230775e-01 4.78974367e-01 4.55025648e-01 4.55025648e-01 5.26871804e-01 5.02923085e-01 3.59230775e-01 3.35282057e-01 5.02923085e-01 3.11333338e-01 3.11333338e-01 4.07128212e-01 3.59230775e-01 4.31076930e-01 4.78974367e-01 4.78974367e-01 4.07128212e-01 5.50820522e-01 5.74769240e-01 5.26871804e-01 6.22666677e-01 5.50820522e-01 5.98717959e-01 7.18461550e-01 8.38205142e-01 3.59230775e-01 4.78974367e-01 5.98717959e-01 5.02923085e-01 4.55025648e-01 6.22666677e-01 4.07128212e-01 4.07128212e-01 3.59230775e-01 3.35282057e-01 3.35282057e-01 6.46615395e-01 5.50820522e-01 4.07128212e-01 3.59230775e-01 5.50820522e-01 5.50820522e-01 6.22666677e-01 5.26871804e-01 5.02923085e-01 4.31076930e-01 5.74769240e-01 5.02923085e-01 4.78974367e-01 4.78974367e-01 5.74769240e-01 5.98717959e-01 4.55025648e-01 5.74769240e-01 7.42410269e-01 3.11333338e-01 4.78974367e-01 6.46615395e-01 5.50820522e-01 8.14256424e-01 5.74769240e-01 6.94512832e-01 5.98717959e-01 4.07128212e-01 4.78974367e-01 3.83179493e-01 6.22666677e-01 3.83179493e-01 4.78974367e-01 4.07128212e-01 2.15538465e-01 6.22666677e-01 5.50820522e-01 5.74769240e-01 7.18461550e-01 5.02923085e-01 5.98717959e-01 6.22666677e-01 5.50820522e-01 5.50820522e-01 6.46615395e-01 7.66358987e-01 6.46615395e-01 5.50820522e-01 4.55025648e-01 6.94512832e-01 5.74769240e-01 5.02923085e-01 5.74769240e-01 3.83179493e-01 4.55025648e-01 5.98717959e-01 4.78974367e-01 7.90307705e-01 5.98717959e-01 8.14256424e-01 6.70564114e-01 5.74769240e-01 6.70564114e-01 7.18461550e-01 8.38205142e-01 4.55025648e-01 6.94512832e-01 5.50820522e-01 6.46615395e-01 8.38205142e-01 5.26871804e-01 5.26871804e-01 5.98717959e-01 9.81897452e-01 6.94512832e-01 9.10051297e-01 5.74769240e-01 5.98717959e-01 5.50820522e-01 6.22666677e-01 6.70564114e-01 7.66358987e-01 5.26871804e-01 5.26871804e-01 6.94512832e-01 7.66358987e-01 7.66358987e-01 5.26871804e-01 6.70564114e-01 6.46615395e-01 5.98717959e-01 7.90307705e-01 8.38205142e-01 5.74769240e-01 5.50820522e-01 8.38205142e-01 5.26871804e-01 8.38205142e-01 6.22666677e-01 5.98717959e-01 8.62153860e-01 5.74769240e-01 9.10051297e-01 9.81897452e-01 7.66358987e-01 5.26871804e-01 8.38205142e-01 9.34000015e-01 5.98717959e-01 9.10051297e-01 8.14256424e-01 8.14256424e-01 9.57948734e-01 7.42410269e-01 8.86102579e-01 7.18461550e-01 8.14256424e-01 4.55025648e-01 6.22666677e-01 6.94512832e-01 5.98717959e-01 8.62153860e-01 7.18461550e-01 7.66358987e-01 6.94512832e-01 8.86102579e-01 8.38205142e-01 1.00584617e+00 7.66358987e-01 7.18461550e-01 1.07769233e+00 8.86102579e-01 7.66358987e-01 5.26871804e-01 6.70564114e-01 4.78974367e-01 9.10051297e-01 9.57948734e-01 1.10164104e+00 1.05374361e+00 7.66358987e-01 7.18461550e-01 9.10051297e-01 7.18461550e-01 6.94512832e-01 9.57948734e-01 8.38205142e-01 7.18461550e-01 6.94512832e-01 8.62153860e-01 9.10051297e-01 6.46615395e-01 9.34000015e-01 7.42410269e-01 7.18461550e-01 7.90307705e-01 9.10051297e-01 8.86102579e-01 1.00584617e+00 9.81897452e-01 9.57948734e-01 1.00584617e+00 8.62153860e-01 7.66358987e-01 8.14256424e-01 7.18461550e-01 7.66358987e-01 7.42410269e-01 1.00584617e+00 7.90307705e-01 6.94512832e-01 1.00584617e+00 7.18461550e-01 9.10051297e-01 7.18461550e-01 5.98717959e-01 8.62153860e-01 8.38205142e-01 8.14256424e-01 9.57948734e-01 5.02923085e-01 8.14256424e-01 7.66358987e-01 9.10051297e-01 9.34000015e-01 6.94512832e-01 9.57948734e-01 8.14256424e-01 8.14256424e-01 8.14256424e-01 1.05374361e+00 9.81897452e-01 8.86102579e-01 6.70564114e-01 7.90307705e-01 9.81897452e-01 9.81897452e-01 9.34000015e-01 1.36507695e+00 9.10051297e-01 1.22138464e+00 9.34000015e-01 8.38205142e-01 1.19743592e+00 1.00584617e+00 9.81897452e-01 1.26928207e+00 1.00584617e+00 1.26928207e+00 9.10051297e-01 9.81897452e-01 1.02979489e+00 9.34000015e-01 8.86102579e-01 1.26928207e+00 1.14953848e+00 8.62153860e-01 8.62153860e-01 1.05374361e+00 1.02979489e+00 9.34000015e-01 8.62153860e-01 1.22138464e+00 1.05374361e+00 8.86102579e-01 1.24533335e+00 1.05374361e+00 1.43692310e+00 1.05374361e+00 1.14953848e+00 1.31717951e+00 1.22138464e+00 1.26928207e+00 1.17348720e+00 1.36507695e+00 1.05374361e+00 1.26928207e+00 1.07769233e+00 1.24533335e+00 7.18461550e-01 1.14953848e+00 1.50876926e+00 1.43692310e+00 9.57948734e-01 1.14953848e+00 1.43692310e+00 1.48482054e+00 1.10164104e+00 1.19743592e+00 1.19743592e+00 1.46087182e+00 1.29323079e+00 1.17348720e+00 1.26928207e+00 1.14953848e+00 1.10164104e+00 1.05374361e+00 1.00584617e+00 1.38902566e+00 1.65246157e+00 1.58061541e+00 1.24533335e+00 1.36507695e+00 1.55666669e+00 1.41297438e+00 1.26928207e+00 1.74825644e+00 1.82010259e+00 1.55666669e+00 2.22723081e+00 1.41297438e+00 1.58061541e+00 1.41297438e+00 2.77805133e+00 1.58061541e+00 1.74825644e+00 1.86800003e+00 1.89194875e+00 1.50876926e+00 1.46087182e+00 1.77220516e+00 1.84405131e+00 1.46087182e+00 1.86800003e+00 1.55666669e+00 2.17933337e+00 1.38902566e+00 1.67641028e+00 1.58061541e+00 1.70035900e+00 1.96379490e+00 1.22138464e+00 1.62851285e+00 1.34112823e+00 1.98774362e+00 1.43692310e+00 1.58061541e+00 1.77220516e+00 2.03564106e+00 1.84405131e+00 1.46087182e+00 1.96379490e+00 1.67641028e+00 2.01169234e+00 1.58061541e+00 1.89194875e+00 1.74825644e+00 2.25117952e+00 1.53271797e+00 1.98774362e+00 1.67641028e+00 2.25117952e+00 1.72430772e+00 2.22723081e+00 1.43692310e+00 1.60456413e+00 1.46087182e+00 2.82594876e+00 1.10164104e+00 1.70035900e+00 2.15538465e+00 1.53271797e+00 1.29323079e+00 1.79615388e+00 1.67641028e+00 1.34112823e+00 1.43692310e+00 1.38902566e+00 1.86800003e+00 1.34112823e+00 1.22138464e+00 1.70035900e+00 1.77220516e+00 1.70035900e+00 1.43692310e+00 1.84405131e+00 1.41297438e+00 1.34112823e+00 1.19743592e+00 1.43692310e+00 1.17348720e+00 1.34112823e+00 1.50876926e+00 9.10051297e-01 1.38902566e+00 1.31717951e+00 9.10051297e-01 1.12558976e+00 1.12558976e+00 7.90307705e-01 1.00584617e+00 1.02979489e+00 1.05374361e+00 9.81897452e-01 1.10164104e+00 7.66358987e-01 7.66358987e-01 9.57948734e-01 1.12558976e+00 7.90307705e-01 7.18461550e-01 6.70564114e-01 8.38205142e-01 7.90307705e-01 6.46615395e-01 7.90307705e-01 1.00584617e+00 6.94512832e-01 7.18461550e-01 9.10051297e-01 7.90307705e-01 7.90307705e-01 1.00584617e+00 1.24533335e+00 9.34000015e-01 1.19743592e+00 8.62153860e-01 8.86102579e-01 9.10051297e-01 1.17348720e+00 9.81897452e-01 1.19743592e+00 1.14953848e+00 9.57948734e-01 8.62153860e-01 8.86102579e-01 1.10164104e+00 1.12558976e+00 8.62153860e-01 8.86102579e-01 9.81897452e-01 1.36507695e+00 1.00584617e+00 8.38205142e-01 1.19743592e+00 1.31717951e+00 1.00584617e+00 1.29323079e+00 7.90307705e-01 1.14953848e+00 1.26928207e+00 1.29323079e+00 1.48482054e+00 9.10051297e-01 1.24533335e+00 1.24533335e+00 9.57948734e-01 1.48482054e+00 1.31717951e+00 1.67641028e+00 1.26928207e+00 1.31717951e+00 1.36507695e+00 1.62851285e+00 1.55666669e+00 1.36507695e+00 1.55666669e+00 9.81897452e-01 1.72430772e+00 1.34112823e+00 1.55666669e+00 1.77220516e+00 1.17348720e+00 1.36507695e+00 1.02979489e+00 9.10051297e-01 8.14256424e-01 6.94512832e-01 5.26871804e-01 5.02923085e-01 4.78974367e-01 3.59230775e-01 1.43692310e-01 2.15538465e-01 1.67641028e-01 4.78974367e-02 4.78974367e-02 0.00000000e+00 0.00000000e+00 0.00000000e+00 
      </Histogram>
    </PDF>
    <PDF Name="BDTG_PDFBkg" MinNSmooth="0" MaxNSmooth="0" InterpolMethod="2" KDE_type="1" KDE_iter="1" KDE_border="1" KDE_finefactor="1.0000000000000000e+00">
      <Histogram Name="BDT_tr_B_original" NBins="1228" XMin="-9.9853891134262085e-01" XMax="9.7309297323226929e-01" HasEquidistantBins="1">
        4.56984204e-01 1.68732629e+00 2.74190523e+00 3.84921311e+00 5.18501309e+00 5.48381045e+00 5.92321834e+00 6.29232097e+00 5.50138677e+00 5.87048939e+00 5.72987887e+00 5.51896308e+00 4.39407889e+00 5.09713151e+00 4.86863941e+00 4.69287625e+00 4.04255258e+00 3.84921311e+00 3.55041574e+00 3.33949995e+00 3.42738153e+00 3.30434732e+00 3.21646575e+00 2.86493944e+00 2.70675260e+00 2.32007365e+00 2.56614207e+00 2.26734471e+00 2.84736312e+00 2.30249734e+00 2.09158155e+00 2.16188681e+00 2.12673418e+00 1.82793682e+00 1.96854734e+00 1.24791840e+00 1.70490261e+00 1.66974998e+00 1.38852893e+00 1.91581840e+00 1.66974998e+00 1.58186840e+00 1.35337630e+00 1.52913945e+00 1.37095261e+00 1.35337630e+00 1.31822367e+00 1.38852893e+00 1.37095261e+00 1.35337630e+00 1.21276577e+00 1.14246051e+00 1.12488420e+00 1.16003683e+00 1.10730788e+00 1.24791840e+00 1.23034209e+00 1.33579998e+00 1.16003683e+00 9.31544724e-01 1.12488420e+00 9.13968409e-01 9.84273671e-01 1.08973156e+00 1.03700262e+00 9.66697355e-01 1.21276577e+00 1.17761314e+00 1.07215525e+00 9.66697355e-01 7.20628938e-01 1.12488420e+00 8.61239462e-01 1.12488420e+00 1.05457893e+00 1.08973156e+00 9.49121040e-01 8.96392093e-01 9.66697355e-01 8.43663147e-01 1.23034209e+00 1.03700262e+00 8.26086831e-01 1.01942630e+00 7.90934200e-01 1.03700262e+00 8.96392093e-01 1.00184999e+00 8.78815778e-01 1.14246051e+00 1.08973156e+00 8.96392093e-01 1.08973156e+00 1.01942630e+00 7.90934200e-01 1.05457893e+00 8.26086831e-01 9.49121040e-01 7.73357884e-01 8.26086831e-01 9.31544724e-01 9.49121040e-01 7.03052622e-01 6.32747360e-01 9.13968409e-01 7.38205253e-01 8.43663147e-01 9.13968409e-01 1.26549472e+00 1.19518946e+00 1.00184999e+00 1.03700262e+00 6.67899991e-01 8.08510515e-01 8.26086831e-01 9.13968409e-01 8.08510515e-01 8.78815778e-01 8.26086831e-01 1.16003683e+00 5.97594729e-01 9.13968409e-01 8.08510515e-01 8.26086831e-01 1.00184999e+00 8.96392093e-01 1.00184999e+00 8.61239462e-01 1.03700262e+00 8.96392093e-01 7.73357884e-01 7.73357884e-01 7.20628938e-01 8.61239462e-01 9.31544724e-01 8.26086831e-01 8.78815778e-01 8.26086831e-01 7.38205253e-01 7.38205253e-01 6.85476307e-01 8.08510515e-01 6.15171044e-01 7.73357884e-01 6.85476307e-01 5.80018413e-01 7.90934200e-01 8.61239462e-01 7.55781569e-01 7.90934200e-01 6.67899991e-01 6.15171044e-01 1.05457893e+00 7.03052622e-01 5.97594729e-01 8.26086831e-01 7.03052622e-01 8.08510515e-01 1.03700262e+00 7.20628938e-01 8.08510515e-01 6.32747360e-01 7.38205253e-01 8.08510515e-01 6.32747360e-01 6.32747360e-01 7.20628938e-01 7.55781569e-01 6.67899991e-01 8.08510515e-01 7.55781569e-01 8.78815778e-01 7.55781569e-01 7.03052622e-01 8.08510515e-01 7.20628938e-01 6.32747360e-01 5.27289467e-01 8.26086831e-01 7.03052622e-01 6.50323675e-01 6.32747360e-01 5.80018413e-01 7.90934200e-01 7.38205253e-01 6.50323675e-01 6.85476307e-01 9.66697355e-01 6.15171044e-01 7.55781569e-01 8.43663147e-01 8.26086831e-01 5.97594729e-01 6.85476307e-01 7.20628938e-01 8.61239462e-01 7.73357884e-01 6.85476307e-01 8.61239462e-01 6.32747360e-01 7.03052622e-01 6.50323675e-01 5.62442098e-01 8.08510515e-01 8.96392093e-01 7.20628938e-01 5.62442098e-01 5.97594729e-01 7.90934200e-01 5.97594729e-01 4.56984204e-01 7.20628938e-01 7.90934200e-01 7.73357884e-01 8.26086831e-01 5.09713151e-01 8.43663147e-01 5.09713151e-01 7.03052622e-01 7.38205253e-01 6.85476307e-01 6.85476307e-01 4.74560520e-01 5.44865782e-01 5.80018413e-01 8.26086831e-01 7.90934200e-01 7.55781569e-01 4.74560520e-01 5.97594729e-01 8.61239462e-01 6.67899991e-01 6.67899991e-01 5.97594729e-01 4.56984204e-01 4.04255258e-01 5.62442098e-01 5.97594729e-01 7.38205253e-01 6.32747360e-01 4.21831573e-01 5.44865782e-01 6.15171044e-01 6.32747360e-01 6.85476307e-01 5.80018413e-01 6.67899991e-01 5.09713151e-01 7.55781569e-01 6.67899991e-01 5.97594729e-01 6.67899991e-01 6.67899991e-01 6.85476307e-01 6.15171044e-01 6.32747360e-01 5.97594729e-01 7.20628938e-01 5.09713151e-01 5.62442098e-01 6.85476307e-01 5.97594729e-01 7.03052622e-01 5.97594729e-01 5.44865782e-01 5.97594729e-01 5.62442098e-01 7.20628938e-01 5.27289467e-01 4.04255258e-01 4.56984204e-01 5.97594729e-01 5.44865782e-01 4.92136835e-01 6.32747360e-01 5.44865782e-01 5.97594729e-01 6.50323675e-01 5.97594729e-01 5.62442098e-01 7.38205253e-01 6.50323675e-01 5.44865782e-01 6.15171044e-01 6.32747360e-01 6.50323675e-01 7.55781569e-01 5.62442098e-01 5.62442098e-01 5.27289467e-01 4.04255258e-01 4.39407889e-01 5.09713151e-01 6.50323675e-01 5.27289467e-01 6.32747360e-01 5.44865782e-01 6.50323675e-01 6.15171044e-01 6.50323675e-01 3.51526311e-01 5.97594729e-01 4.74560520e-01 6.15171044e-01 5.44865782e-01 6.15171044e-01 6.15171044e-01 5.80018413e-01 4.21831573e-01 7.38205253e-01 5.27289467e-01 3.51526311e-01 4.56984204e-01 5.97594729e-01 6.32747360e-01 5.80018413e-01 4.74560520e-01 5.62442098e-01 4.56984204e-01 5.09713151e-01 6.32747360e-01 4.21831573e-01 5.27289467e-01 4.74560520e-01 5.80018413e-01 4.56984204e-01 7.03052622e-01 5.09713151e-01 4.04255258e-01 4.04255258e-01 4.92136835e-01 5.09713151e-01 4.92136835e-01 5.80018413e-01 6.15171044e-01 6.32747360e-01 3.86678942e-01 3.69102627e-01 4.04255258e-01 5.97594729e-01 3.86678942e-01 4.74560520e-01 3.51526311e-01 6.85476307e-01 4.56984204e-01 4.74560520e-01 6.15171044e-01 3.16373680e-01 5.44865782e-01 4.39407889e-01 4.56984204e-01 2.63644733e-01 4.74560520e-01 5.27289467e-01 4.04255258e-01 4.56984204e-01 4.39407889e-01 3.86678942e-01 5.44865782e-01 5.44865782e-01 5.27289467e-01 5.09713151e-01 6.32747360e-01 5.09713151e-01 4.39407889e-01 4.56984204e-01 4.21831573e-01 3.51526311e-01 4.21831573e-01 5.09713151e-01 4.04255258e-01 7.73357884e-01 3.69102627e-01 5.27289467e-01 2.81221049e-01 6.15171044e-01 4.92136835e-01 3.51526311e-01 5.09713151e-01 3.51526311e-01 5.27289467e-01 4.92136835e-01 4.04255258e-01 4.74560520e-01 5.27289467e-01 3.51526311e-01 4.21831573e-01 3.86678942e-01 3.69102627e-01 5.27289467e-01 4.04255258e-01 4.04255258e-01 5.44865782e-01 4.74560520e-01 4.74560520e-01 6.67899991e-01 4.04255258e-01 4.39407889e-01 4.21831573e-01 3.86678942e-01 4.92136835e-01 4.74560520e-01 4.39407889e-01 6.67899991e-01 4.04255258e-01 5.27289467e-01 5.44865782e-01 3.16373680e-01 3.86678942e-01 4.04255258e-01 4.74560520e-01 4.39407889e-01 4.04255258e-01 4.04255258e-01 3.86678942e-01 5.09713151e-01 3.33949995e-01 6.67899991e-01 3.51526311e-01 4.92136835e-01 5.80018413e-01 3.69102627e-01 3.69102627e-01 4.21831573e-01 5.27289467e-01 5.09713151e-01 4.04255258e-01 4.74560520e-01 3.51526311e-01 3.86678942e-01 4.92136835e-01 2.81221049e-01 4.21831573e-01 3.51526311e-01 4.39407889e-01 5.80018413e-01 5.27289467e-01 4.92136835e-01 4.56984204e-01 3.16373680e-01 4.21831573e-01 3.69102627e-01 4.56984204e-01 2.98797364e-01 4.39407889e-01 3.69102627e-01 5.80018413e-01 3.69102627e-01 3.86678942e-01 3.86678942e-01 4.04255258e-01 4.21831573e-01 4.21831573e-01 4.39407889e-01 3.69102627e-01 4.21831573e-01 2.28492102e-01 5.80018413e-01 4.39407889e-01 4.04255258e-01 4.04255258e-01 4.92136835e-01 5.27289467e-01 3.69102627e-01 3.33949995e-01 4.56984204e-01 4.21831573e-01 3.33949995e-01 3.33949995e-01 4.21831573e-01 4.21831573e-01 3.51526311e-01 3.69102627e-01 3.86678942e-01 3.16373680e-01 3.86678942e-01 2.81221049e-01 3.33949995e-01 2.28492102e-01 4.74560520e-01 4.92136835e-01 3.16373680e-01 4.39407889e-01 4.39407889e-01 4.92136835e-01 3.51526311e-01 2.46068418e-01 3.33949995e-01 4.21831573e-01 3.51526311e-01 3.86678942e-01 6.67899991e-01 3.86678942e-01 3.33949995e-01 2.63644733e-01 3.33949995e-01 3.86678942e-01 5.09713151e-01 5.44865782e-01 4.04255258e-01 5.44865782e-01 4.74560520e-01 4.92136835e-01 3.51526311e-01 4.39407889e-01 3.86678942e-01 3.33949995e-01 3.69102627e-01 6.85476307e-01 3.16373680e-01 3.69102627e-01 2.81221049e-01 1.93339471e-01 2.98797364e-01 5.27289467e-01 2.98797364e-01 3.16373680e-01 5.80018413e-01 3.33949995e-01 5.09713151e-01 4.56984204e-01 3.33949995e-01 3.51526311e-01 2.98797364e-01 3.86678942e-01 3.69102627e-01 4.39407889e-01 3.69102627e-01 4.21831573e-01 3.86678942e-01 4.56984204e-01 4.04255258e-01 2.81221049e-01 3.69102627e-01 3.33949995e-01 3.51526311e-01 4.21831573e-01 4.21831573e-01 3.51526311e-01 4.92136835e-01 4.39407889e-01 4.74560520e-01 3.69102627e-01 3.86678942e-01 3.69102627e-01 3.33949995e-01 2.81221049e-01 3.51526311e-01 2.63644733e-01 3.69102627e-01 4.04255258e-01 2.81221049e-01 4.74560520e-01 5.09713151e-01 3.33949995e-01 5.09713151e-01 3.69102627e-01 4.21831573e-01 3.69102627e-01 3.86678942e-01 3.33949995e-01 2.28492102e-01 4.04255258e-01 4.21831573e-01 3.16373680e-01 4.04255258e-01 3.33949995e-01 3.86678942e-01 3.33949995e-01 3.33949995e-01 3.33949995e-01 2.28492102e-01 2.28492102e-01 2.98797364e-01 5.09713151e-01 4.56984204e-01 2.98797364e-01 3.16373680e-01 3.51526311e-01 2.10915787e-01 3.33949995e-01 4.04255258e-01 4.04255258e-01 4.21831573e-01 3.51526311e-01 3.86678942e-01 3.33949995e-01 3.86678942e-01 4.21831573e-01 2.81221049e-01 4.56984204e-01 3.33949995e-01 3.51526311e-01 3.51526311e-01 1.75763156e-01 3.16373680e-01 4.39407889e-01 3.16373680e-01 3.69102627e-01 4.39407889e-01 2.63644733e-01 3.51526311e-01 2.81221049e-01 3.86678942e-01 2.81221049e-01 4.56984204e-01 2.46068418e-01 2.46068418e-01 2.81221049e-01 3.51526311e-01 4.56984204e-01 4.39407889e-01 2.81221049e-01 3.69102627e-01 4.39407889e-01 2.63644733e-01 3.16373680e-01 2.63644733e-01 2.98797364e-01 3.16373680e-01 4.21831573e-01 2.81221049e-01 1.93339471e-01 3.86678942e-01 3.33949995e-01 3.16373680e-01 3.33949995e-01 2.98797364e-01 1.93339471e-01 3.86678942e-01 2.81221049e-01 2.98797364e-01 2.46068418e-01 4.21831573e-01 3.86678942e-01 4.04255258e-01 2.81221049e-01 2.81221049e-01 2.63644733e-01 3.16373680e-01 4.04255258e-01 2.81221049e-01 2.46068418e-01 2.81221049e-01 2.63644733e-01 3.16373680e-01 1.93339471e-01 2.63644733e-01 4.39407889e-01 3.51526311e-01 2.63644733e-01 3.86678942e-01 2.81221049e-01 2.81221049e-01 2.81221049e-01 4.21831573e-01 3.16373680e-01 4.39407889e-01 3.51526311e-01 4.04255258e-01 2.81221049e-01 2.63644733e-01 2.28492102e-01 3.86678942e-01 1.93339471e-01 3.33949995e-01 1.93339471e-01 3.16373680e-01 4.04255258e-01 3.16373680e-01 3.51526311e-01 3.33949995e-01 3.86678942e-01 2.81221049e-01 3.33949995e-01 4.04255258e-01 3.16373680e-01 3.16373680e-01 3.69102627e-01 1.40610524e-01 4.56984204e-01 2.46068418e-01 3.33949995e-01 1.75763156e-01 3.69102627e-01 4.04255258e-01 4.56984204e-01 3.33949995e-01 1.58186840e-01 2.28492102e-01 3.51526311e-01 3.69102627e-01 3.51526311e-01 2.81221049e-01 2.98797364e-01 3.16373680e-01 4.21831573e-01 3.51526311e-01 3.16373680e-01 4.04255258e-01 4.04255258e-01 3.86678942e-01 3.33949995e-01 4.04255258e-01 2.98797364e-01 3.33949995e-01 2.98797364e-01 2.98797364e-01 3.33949995e-01 3.16373680e-01 3.86678942e-01 3.16373680e-01 3.86678942e-01 2.81221049e-01 2.63644733e-01 2.81221049e-01 2.46068418e-01 2.81221049e-01 3.69102627e-01 3.86678942e-01 3.33949995e-01 3.16373680e-01 3.51526311e-01 2.98797364e-01 2.98797364e-01 1.93339471e-01 3.51526311e-01 2.98797364e-01 2.81221049e-01 4.39407889e-01 2.98797364e-01 3.69102627e-01 3.69102627e-01 2.63644733e-01 3.33949995e-01 2.46068418e-01 2.10915787e-01 2.28492102e-01 3.86678942e-01 1.75763156e-01 3.51526311e-01 3.86678942e-01 2.46068418e-01 1.58186840e-01 2.81221049e-01 3.51526311e-01 2.10915787e-01 2.63644733e-01 4.39407889e-01 3.86678942e-01 3.33949995e-01 2.98797364e-01 2.28492102e-01 3.33949995e-01 2.81221049e-01 2.81221049e-01 3.16373680e-01 2.81221049e-01 2.63644733e-01 1.75763156e-01 3.86678942e-01 3.51526311e-01 4.21831573e-01 2.46068418e-01 3.16373680e-01 2.63644733e-01 4.04255258e-01 3.16373680e-01 3.16373680e-01 2.98797364e-01 3.33949995e-01 3.33949995e-01 2.46068418e-01 3.16373680e-01 3.51526311e-01 2.10915787e-01 4.56984204e-01 3.16373680e-01 3.16373680e-01 4.56984204e-01 2.63644733e-01 2.63644733e-01 2.98797364e-01 2.28492102e-01 4.04255258e-01 2.81221049e-01 2.98797364e-01 1.93339471e-01 3.86678942e-01 4.39407889e-01 2.46068418e-01 2.63644733e-01 2.63644733e-01 2.28492102e-01 3.51526311e-01 3.86678942e-01 2.63644733e-01 2.63644733e-01 2.63644733e-01 3.69102627e-01 2.28492102e-01 3.16373680e-01 2.98797364e-01 2.63644733e-01 2.81221049e-01 2.28492102e-01 3.69102627e-01 1.75763156e-01 2.98797364e-01 2.63644733e-01 1.93339471e-01 2.28492102e-01 3.69102627e-01 2.98797364e-01 2.10915787e-01 3.16373680e-01 3.86678942e-01 3.33949995e-01 2.63644733e-01 2.63644733e-01 2.28492102e-01 1.75763156e-01 2.81221049e-01 3.69102627e-01 3.16373680e-01 3.16373680e-01 1.75763156e-01 3.33949995e-01 2.46068418e-01 2.81221049e-01 3.16373680e-01 2.98797364e-01 2.63644733e-01 3.16373680e-01 2.10915787e-01 3.16373680e-01 2.63644733e-01 3.33949995e-01 2.28492102e-01 2.81221049e-01 3.69102627e-01 3.16373680e-01 3.33949995e-01 2.63644733e-01 3.16373680e-01 2.28492102e-01 2.28492102e-01 2.10915787e-01 3.16373680e-01 2.10915787e-01 2.63644733e-01 1.93339471e-01 2.98797364e-01 2.63644733e-01 2.46068418e-01 2.10915787e-01 3.16373680e-01 3.33949995e-01 3.51526311e-01 3.16373680e-01 2.81221049e-01 1.58186840e-01 4.21831573e-01 3.33949995e-01 2.81221049e-01 4.21831573e-01 3.51526311e-01 2.98797364e-01 2.98797364e-01 2.28492102e-01 2.28492102e-01 2.46068418e-01 2.63644733e-01 3.69102627e-01 2.63644733e-01 2.63644733e-01 4.39407889e-01 2.46068418e-01 3.16373680e-01 2.28492102e-01 3.33949995e-01 3.69102627e-01 3.69102627e-01 2.63644733e-01 2.28492102e-01 3.33949995e-01 1.93339471e-01 2.81221049e-01 4.04255258e-01 2.81221049e-01 3.69102627e-01 2.98797364e-01 3.86678942e-01 2.28492102e-01 3.51526311e-01 2.81221049e-01 4.39407889e-01 4.74560520e-01 2.46068418e-01 1.75763156e-01 3.69102627e-01 2.81221049e-01 2.63644733e-01 2.28492102e-01 2.46068418e-01 1.93339471e-01 2.98797364e-01 3.16373680e-01 1.75763156e-01 2.98797364e-01 2.46068418e-01 2.98797364e-01 3.33949995e-01 1.93339471e-01 3.33949995e-01 3.33949995e-01 1.23034209e-01 2.28492102e-01 2.98797364e-01 4.56984204e-01 2.46068418e-01 2.10915787e-01 2.81221049e-01 3.69102627e-01 3.33949995e-01 2.81221049e-01 2.28492102e-01 2.81221049e-01 2.81221049e-01 1.05457893e-01 2.81221049e-01 3.69102627e-01 3.16373680e-01 3.69102627e-01 1.75763156e-01 3.33949995e-01 1.75763156e-01 3.16373680e-01 1.75763156e-01 2.46068418e-01 3.33949995e-01 1.93339471e-01 3.33949995e-01 2.63644733e-01 2.81221049e-01 2.63644733e-01 1.93339471e-01 2.28492102e-01 3.51526311e-01 2.81221049e-01 2.46068418e-01 2.28492102e-01 1.93339471e-01 2.28492102e-01 1.93339471e-01 2.46068418e-01 1.93339471e-01 4.04255258e-01 4.39407889e-01 2.63644733e-01 4.74560520e-01 2.28492102e-01 3.16373680e-01 2.98797364e-01 2.81221049e-01 2.10915787e-01 2.28492102e-01 1.75763156e-01 2.98797364e-01 3.16373680e-01 1.93339471e-01 2.81221049e-01 2.46068418e-01 2.46068418e-01 2.63644733e-01 2.10915787e-01 3.16373680e-01 1.93339471e-01 2.98797364e-01 2.98797364e-01 1.93339471e-01 2.46068418e-01 2.81221049e-01 2.10915787e-01 3.33949995e-01 3.86678942e-01 4.04255258e-01 3.33949995e-01 3.33949995e-01 2.46068418e-01 3.16373680e-01 1.93339471e-01 2.63644733e-01 3.51526311e-01 3.16373680e-01 1.75763156e-01 3.51526311e-01 2.63644733e-01 1.23034209e-01 2.46068418e-01 2.46068418e-01 2.81221049e-01 3.33949995e-01 2.28492102e-01 3.16373680e-01 1.93339471e-01 2.28492102e-01 2.63644733e-01 2.81221049e-01 2.28492102e-01 3.33949995e-01 3.33949995e-01 2.81221049e-01 1.58186840e-01 3.69102627e-01 3.33949995e-01 2.98797364e-01 2.46068418e-01 2.10915787e-01 2.46068418e-01 1.58186840e-01 2.81221049e-01 2.98797364e-01 1.75763156e-01 2.10915787e-01 3.16373680e-01 1.75763156e-01 3.51526311e-01 1.75763156e-01 4.04255258e-01 2.81221049e-01 1.58186840e-01 1.40610524e-01 2.63644733e-01 1.75763156e-01 2.10915787e-01 1.93339471e-01 3.33949995e-01 1.58186840e-01 2.63644733e-01 2.63644733e-01 2.46068418e-01 1.93339471e-01 2.98797364e-01 1.75763156e-01 1.75763156e-01 1.75763156e-01 2.28492102e-01 2.81221049e-01 2.98797364e-01 2.81221049e-01 3.33949995e-01 2.63644733e-01 1.23034209e-01 2.63644733e-01 4.56984204e-01 2.28492102e-01 3.69102627e-01 1.75763156e-01 3.33949995e-01 1.93339471e-01 3.33949995e-01 3.33949995e-01 1.93339471e-01 3.33949995e-01 3.33949995e-01 4.56984204e-01 2.28492102e-01 2.46068418e-01 2.63644733e-01 2.81221049e-01 2.46068418e-01 3.33949995e-01 3.51526311e-01 3.16373680e-01 2.10915787e-01 2.81221049e-01 2.28492102e-01 2.81221049e-01 1.75763156e-01 8.78815778e-02 1.93339471e-01 2.46068418e-01 2.63644733e-01 2.28492102e-01 1.58186840e-01 3.16373680e-01 2.98797364e-01 2.10915787e-01 2.46068418e-01 1.23034209e-01 2.81221049e-01 1.58186840e-01 2.46068418e-01 1.40610524e-01 2.98797364e-01 1.58186840e-01 2.46068418e-01 2.81221049e-01 2.10915787e-01 1.75763156e-01 2.10915787e-01 2.63644733e-01 1.75763156e-01 2.28492102e-01 3.86678942e-01 2.46068418e-01 1.58186840e-01 2.28492102e-01 1.40610524e-01 1.05457893e-01 2.10915787e-01 1.75763156e-01 1.40610524e-01 1.23034209e-01 1.40610524e-01 2.10915787e-01 1.23034209e-01 2.28492102e-01 1.93339471e-01 1.75763156e-01 1.58186840e-01 8.78815778e-02 2.63644733e-01 3.51526311e-02 1.40610524e-01 5.27289467e-02 7.03052622e-02 7.03052622e-02 8.78815778e-02 1.58186840e-01 1.23034209e-01 5.27289467e-02 1.75763156e-02 8.78815778e-02 5.27289467e-02 1.23034209e-01 1.23034209e-01 3.51526311e-02 1.05457893e-01 3.51526311e-02 1.23034209e-01 1.05457893e-01 5.27289467e-02 8.78815778e-02 1.23034209e-01 8.78815778e-02 3.51526311e-02 5.27289467e-02 7.03052622e-02 1.75763156e-02 8.78815778e-02 1.75763156e-02 7.03052622e-02 3.51526311e-02 3.51526311e-02 3.51526311e-02 7.03052622e-02 5.27289467e-02 7.03052622e-02 7.03052622e-02 1.75763156e-02 1.05457893e-01 7.03052622e-02 7.03052622e-02 3.51526311e-02 5.27289467e-02 3.51526311e-02 0.00000000e+00 1.05457893e-01 1.75763156e-02 1.75763156e-02 1.75763156e-02 5.27289467e-02 1.75763156e-02 5.27289467e-02 3.51526311e-02 1.75763156e-02 7.03052622e-02 8.78815778e-02 1.75763156e-02 5.27289467e-02 5.27289467e-02 8.78815778e-02 1.75763156e-02 3.51526311e-02 8.78815778e-02 7.03052622e-02 5.27289467e-02 5.27289467e-02 7.03052622e-02 5.27289467e-02 5.27289467e-02 3.51526311e-02 0.00000000e+00 5.27289467e-02 1.75763156e-02 3.51526311e-02 3.51526311e-02 5.27289467e-02 5.27289467e-02 1.75763156e-02 1.75763156e-02 3.51526311e-02 3.51526311e-02 1.75763156e-02 3.51526311e-02 1.75763156e-02 1.75763156e-02 1.75763156e-02 0.00000000e+00 3.51526311e-02 0.00000000e+00 0.00000000e+00 0.00000000e+00 0.00000000e+00 0.00000000e+00 1.75763156e-02 1.75763156e-02 1.75763156e-02 0.00000000e+00 0.00000000e+00 0.00000000e+00 0.00000000e+00 0.00000000e+00 0.00000000e+00 1.75763156e-02 0.00000000e+00 
      </Histogram>
    </PDF>
  </MVAPdfs>
  <Weights NTrees="500" AnalysisType="1">
    <BinaryTree type="DecisionTree" boostWeight="1.0000000000000000e+00" itree="0">
      <Node pos="s" depth="0" NCoef="0" IVar="3" Cut="5.9295552968978882e-01" cType="1" res="-6.1541802199010370e-14" rms="5.0000000000000000e-01" purity="5.0000000000000000e-01" nType="0">
        <Node pos="l" depth="1" NCoef="0" IVar="5" Cut="2.5240559577941895e+00" cType="1" res="-2.5819712877273560e-01" rms="4.2817547917366028e-01" purity="2.4180287122726440e-01" nType="0">
          <Node pos="l" depth="2" NCoef="0" IVar="-1" Cut="0.0000000000000000e+00" cType="1" res="-1.2780960649251938e-02" rms="4.9586677551269531e-01" purity="4.3584287166595459e-01" nType="-99"/>
          <Node pos="r" depth="2" NCoef="0" IVar="-1" Cut="0.0000000000000000e+00" cType="1" res="-8.9352898299694061e-02" rms="2.9838800430297852e-01" purity="9.8796062171459198e-02" nType="-99"/>
        </Node>
        <Node pos="r" depth="1" NCoef="0" IVar="5" Cut="2.3837947845458984e+00" cType="1" res="1.6700151562690735e-01" rms="4.7128599882125854e-01" purity="6.6700148582458496e-01" nType="0">
          <Node pos="l" depth="2" NCoef="0" IVar="-1" Cut="0.0000000000000000e+00" cType="1" res="5.3546193987131119e-02" rms="4.0046668052673340e-01" purity="7.9937672615051270e-01" nType="-99"/>
          <Node pos="r" depth="2" NCoef="0" IVar="-1" Cut="0.0000000000000000e+00" cType="1" res="-1.8317267531529069e-03" rms="4.9991253018379211e-01" purity="4.9064743518829346e-01" nType="-99"/>
        </Node>
      </Node>
    </BinaryTree>
    <BinaryTree type="DecisionTree" boostWeight="1.0000000000000000e+00" itree="1">
      <Node pos="s" depth="0" NCoef="0" IVar="3" Cut="5.5818307399749756e-01" cType="1" res="2.1006532479077578e-03" rms="4.8674324154853821e-01" purity="5.0000000000000000e-01" nType="0">
        <Node pos="l" depth="1" NCoef="0" IVar="4" Cut="3.4332832694053650e-01" cType="1" res="-2.5644683837890625e-01" rms="4.0384846925735474e-01" purity="2.1453061699867249e-01" nType="0">
          <Node pos="l" depth="2" NCoef="0" IVar="-1" Cut="0.0000000000000000e+00" cType="1" res="-1.7752900719642639e-02" rms="4.8560151457786560e-01" purity="3.9670079946517944e-01" nType="-99"/>
          <Node pos="r" depth="2" NCoef="0" IVar="-1" Cut="0.0000000000000000e+00" cType="1" res="-8.4392167627811432e-02" rms="2.7943792939186096e-01" purity="8.6643807590007782e-02" nType="-99"/>
        </Node>
        <Node pos="r" depth="1" NCoef="0" IVar="5" Cut="3.0119161605834961e+00" cType="1" res="1.3861384987831116e-01" rms="4.7113463282585144e-01" purity="6.5072792768478394e-01" nType="0">
          <Node pos="l" depth="2" NCoef="0" IVar="-1" Cut="0.0000000000000000e+00" cType="1" res="4.5278750360012054e-02" rms="4.1753247380256653e-01" purity="7.7259176969528198e-01" nType="-99"/>
          <Node pos="r" depth="2" NCoef="0" IVar="-1" Cut="0.0000000000000000e+00" cType="1" res="-9.6022067591547966e-03" rms="4.9556255340576172e-01" purity="4.4731810688972473e-01" nType="-99"/>
        </Node>
      </Node>
    </BinaryTree>
    <BinaryTree type="DecisionTree" boostWeight="1.0000000000000000e+00" itree="2">
      <Node pos="s" depth="0" NCoef="0" IVar="3" Cut="6.0627269744873047e-01" cType="1" res="3.7553228903561831e-03" rms="4.7561714053153992e-01" purity="5.0000000000000000e-01" nType="0">
        <Node pos="l" depth="1" NCoef="0" IVar="4" Cut="3.0784606933593750e-01" cType="1" res="-2.0057713985443115e-01" rms="4.1819506883621216e-01" purity="2.5091832876205444e-01" nType="0">
          <Node pos="l" depth="2" NCoef="0" IVar="-1" Cut="0.0000000000000000e+00" cType="1" res="-6.8916622549295425e-03" rms="4.9069672822952271e-01" purity="4.4990417361259460e-01" nType="-99"/>
          <Node pos="r" depth="2" NCoef="0" IVar="-1" Cut="0.0000000000000000e+00" cType="1" res="-7.3408350348472595e-02" rms="3.0218043923377991e-01" purity="1.0462962090969086e-01" nType="-99"/>
        </Node>
        <Node pos="r" depth="1" NCoef="0" IVar="5" Cut="5.1654748916625977e+00" cType="1" res="1.4537955820560455e-01" rms="4.6129080653190613e-01" purity="6.7264020442962646e-01" nType="0">
          <Node pos="l" depth="2" NCoef="0" IVar="-1" Cut="0.0000000000000000e+00" cType="1" res="3.9154183119535446e-02" rms="4.2853754758834839e-01" purity="7.5115036964416504e-01" nType="-99"/>
          <Node pos="r" depth="2" NCoef="0" IVar="-1" Cut="0.0000000000000000e+00" cType="1" res="-1.8696540966629982e-02" rms="4.9019250273704529e-01" purity="4.0145394206047058e-01" nType="-99"/>
        </Node>
      </Node>
    </BinaryTree>
    <BinaryTree type="DecisionTree" boostWeight="1.0000000000000000e+00" itree="3">
      <Node pos="s" depth="0" NCoef="0" IVar="4" Cut="6.8315839767456055e-01" cType="1" res="5.0701298750936985e-03" rms="4.6608492732048035e-01" purity="5.0000000000000000e-01" nType="0">
        <Node pos="l" depth="1" NCoef="0" IVar="1" Cut="1.1093636602163315e-01" cType="1" res="8.0037735402584076e-02" rms="4.6973651647567749e-01" purity="5.9597665071487427e-01" nType="0">
          <Node pos="l" depth="2" NCoef="0" IVar="-1" Cut="0.0000000000000000e+00" cType="1" res="3.1310856342315674e-02" rms="4.4393157958984375e-01" purity="6.9244027137756348e-01" nType="-99"/>
          <Node pos="r" depth="2" NCoef="0" IVar="-1" Cut="0.0000000000000000e+00" cType="1" res="-2.7891764417290688e-02" rms="4.6207806468009949e-01" purity="3.5945335030555725e-01" nType="-99"/>
        </Node>
        <Node pos="r" depth="1" NCoef="0" IVar="3" Cut="8.6233294010162354e-01" cType="1" res="-3.1211441755294800e-01" rms="2.7998623251914978e-01" purity="9.3927092850208282e-02" nType="0">
          <Node pos="l" depth="2" NCoef="0" IVar="-1" Cut="0.0000000000000000e+00" cType="1" res="-7.7312536537647247e-02" rms="2.5544312596321106e-01" purity="7.4465788900852203e-02" nType="-99"/>
          <Node pos="r" depth="2" NCoef="0" IVar="-1" Cut="0.0000000000000000e+00" cType="1" res="4.0509518235921860e-02" rms="4.5303031802177429e-01" purity="7.1553665399551392e-01" nType="-99"/>
        </Node>
      </Node>
    </BinaryTree>
    <BinaryTree type="DecisionTree" boostWeight="1.0000000000000000e+00" itree="4">
      <Node pos="s" depth="0" NCoef="0" IVar="3" Cut="5.4930496215820312e-01" cType="1" res="6.0375132597982883e-03" rms="4.5755746960639954e-01" purity="5.0000000000000000e-01" nType="0">
        <Node pos="l" depth="1" NCoef="0" IVar="5" Cut="1.6844500303268433e+00" cType="1" res="-1.9726243615150452e-01" rms="3.8272315263748169e-01" purity="2.0779345929622650e-01" nType="0">
          <Node pos="l" depth="2" NCoef="0" IVar="-1" Cut="0.0000000000000000e+00" cType="1" res="-6.7934691905975342e-03" rms="4.8656618595123291e-01" purity="4.3444886803627014e-01" nType="-99"/>
          <Node pos="r" depth="2" NCoef="0" IVar="-1" Cut="0.0000000000000000e+00" cType="1" res="-6.2654703855514526e-02" rms="3.0686557292938232e-01" purity="1.1510798335075378e-01" nType="-99"/>
        </Node>
        <Node pos="r" depth="1" NCoef="0" IVar="5" Cut="2.1145999431610107e+00" cType="1" res="1.0773567110300064e-01" rms="4.5803594589233398e-01" purity="6.4617252349853516e-01" nType="0">
          <Node pos="l" depth="2" NCoef="0" IVar="-1" Cut="0.0000000000000000e+00" cType="1" res="4.0814004838466644e-02" rms="3.9896008372306824e-01" purity="7.9427713155746460e-01" nType="-99"/>
          <Node pos="r" depth="2" NCoef="0" IVar="-1" Cut="0.0000000000000000e+00" cType="1" res="-4.7941007651388645e-03" rms="4.8517259955406189e-01" purity="4.7608062624931335e-01" nType="-99"/>
        </Node>
      </Node>
    </BinaryTree>
    <BinaryTree type="DecisionTree" boostWeight="1.0000000000000000e+00" itree="5">
      <Node pos="s" depth="0" NCoef="0" IVar="3" Cut="6.4918345212936401e-01" cType="1" res="6.8419612944126129e-03" rms="4.5049026608467102e-01" purity="5.0000000000000000e-01" nType="0">
        <Node pos="l" depth="1" NCoef="0" IVar="5" Cut="2.1042530536651611e+00" cType="1" res="-1.3556471467018127e-01" rms="4.1163107752799988e-01" purity="2.8268113732337952e-01" nType="0">
          <Node pos="l" depth="2" NCoef="0" IVar="-1" Cut="0.0000000000000000e+00" cType="1" res="2.7916897088289261e-03" rms="4.7931241989135742e-01" purity="5.0855630636215210e-01" nType="-99"/>
          <Node pos="r" depth="2" NCoef="0" IVar="-1" Cut="0.0000000000000000e+00" cType="1" res="-5.6746918708086014e-02" rms="3.2244271039962769e-01" purity="1.3133020699024200e-01" nType="-99"/>
        </Node>
        <Node pos="r" depth="1" NCoef="0" IVar="1" Cut="1.3991974294185638e-01" cType="1" res="1.2976154685020447e-01" rms="4.4636830687522888e-01" purity="6.8758070468902588e-01" nType="0">
          <Node pos="l" depth="2" NCoef="0" IVar="-1" Cut="0.0000000000000000e+00" cType="1" res="3.3061191439628601e-02" rms="4.2402771115303040e-01" purity="7.4147969484329224e-01" nType="-99"/>
          <Node pos="r" depth="2" NCoef="0" IVar="-1" Cut="0.0000000000000000e+00" cType="1" res="-2.2677823901176453e-02" rms="4.7836712002754211e-01" purity="4.1242390871047974e-01" nType="-99"/>
        </Node>
      </Node>
    </BinaryTree>
    <BinaryTree type="DecisionTree" boostWeight="1.0000000000000000e+00" itree="6">
      <Node pos="s" depth="0" NCoef="0" IVar="1" Cut="1.0968708246946335e-01" cType="1" res="7.4540097266435623e-03" rms="4.4406744837760925e-01" purity="5.0000000000000000e-01" nType="0">
        <Node pos="l" depth="1" NCoef="0" IVar="5" Cut="4.3438596725463867e+00" cType="1" res="9.4446055591106415e-02" rms="4.3871641159057617e-01" purity="6.2113189697265625e-01" nType="0">
          <Node pos="l" depth="2" NCoef="0" IVar="-1" Cut="0.0000000000000000e+00" cType="1" res="3.2519459724426270e-02" rms="4.1475263237953186e-01" purity="7.3595184087753296e-01" nType="-99"/>
          <Node pos="r" depth="2" NCoef="0" IVar="-1" Cut="0.0000000000000000e+00" cType="1" res="-1.9509969279170036e-02" rms="4.3985712528228760e-01" purity="3.4445977210998535e-01" nType="-99"/>
        </Node>
        <Node pos="r" depth="1" NCoef="0" IVar="5" Cut="2.7001426219940186e+00" cType="1" res="-1.6223524510860443e-01" rms="4.0355202555656433e-01" purity="2.6371648907661438e-01" nType="0">
          <Node pos="l" depth="2" NCoef="0" IVar="-1" Cut="0.0000000000000000e+00" cType="1" res="-1.4137731865048409e-02" rms="4.7317978739738464e-01" purity="4.2876711487770081e-01" nType="-99"/>
          <Node pos="r" depth="2" NCoef="0" IVar="-1" Cut="0.0000000000000000e+00" cType="1" res="-5.7605389505624771e-02" rms="3.1770223379135132e-01" purity="1.3042528927326202e-01" nType="-99"/>
        </Node>
      </Node>
    </BinaryTree>
    <BinaryTree type="DecisionTree" boostWeight="1.0000000000000000e+00" itree="7">
      <Node pos="s" depth="0" NCoef="0" IVar="3" Cut="6.4918345212936401e-01" cType="1" res="7.8473519533872604e-03" rms="4.3850466609001160e-01" purity="5.0000000000000000e-01" nType="0">
        <Node pos="l" depth="1" NCoef="0" IVar="4" Cut="2.6936531066894531e-01" cType="1" res="-1.1584978550672531e-01" rms="4.0309160947799683e-01" purity="2.8268113732337952e-01" nType="0">
          <Node pos="l" depth="2" NCoef="0" IVar="-1" Cut="0.0000000000000000e+00" cType="1" res="5.3421210031956434e-04" rms="4.7403720021247864e-01" purity="4.9566578865051270e-01" nType="-99"/>
          <Node pos="r" depth="2" NCoef="0" IVar="-1" Cut="0.0000000000000000e+00" cType="1" res="-5.1339831203222275e-02" rms="3.1595301628112793e-01" purity="1.2832762300968170e-01" nType="-99"/>
        </Node>
        <Node pos="r" depth="1" NCoef="0" IVar="5" Cut="5.1879076957702637e+00" cType="1" res="1.1461763083934784e-01" rms="4.3977770209312439e-01" purity="6.8758070468902588e-01" nType="0">
          <Node pos="l" depth="2" NCoef="0" IVar="-1" Cut="0.0000000000000000e+00" cType="1" res="3.0928263440728188e-02" rms="4.1324597597122192e-01" purity="7.6168316602706909e-01" nType="-99"/>
          <Node pos="r" depth="2" NCoef="0" IVar="-1" Cut="0.0000000000000000e+00" cType="1" res="-1.0905138216912746e-02" rms="4.8627763986587524e-01" purity="4.2668330669403076e-01" nType="-99"/>
        </Node>
      </Node>
    </BinaryTree>
    <BinaryTree type="DecisionTree" boostWeight="1.0000000000000000e+00" itree="8">
      <Node pos="s" depth="0" NCoef="0" IVar="1" Cut="9.0448118746280670e-02" cType="1" res="8.1787100061774254e-03" rms="4.3378180265426636e-01" purity="5.0000000000000000e-01" nType="0">
        <Node pos="l" depth="1" NCoef="0" IVar="4" Cut="7.9010492563247681e-01" cType="1" res="9.0513058006763458e-02" rms="4.2997914552688599e-01" purity="6.2999856472015381e-01" nType="0">
          <Node pos="l" depth="2" NCoef="0" IVar="-1" Cut="0.0000000000000000e+00" cType="1" res="2.4200489744544029e-02" rms="4.3119025230407715e-01" purity="6.8771457672119141e-01" nType="-99"/>
          <Node pos="r" depth="2" NCoef="0" IVar="-1" Cut="0.0000000000000000e+00" cType="1" res="-6.3432559370994568e-02" rms="2.4359916150569916e-01" purity="7.0248931646347046e-02" nType="-99"/>
        </Node>
        <Node pos="r" depth="1" NCoef="0" IVar="5" Cut="1.9158048629760742e+00" cType="1" res="-1.2823963165283203e-01" rms="4.0468126535415649e-01" purity="2.8460761904716492e-01" nType="0">
          <Node pos="l" depth="2" NCoef="0" IVar="-1" Cut="0.0000000000000000e+00" cType="1" res="-5.4678241722285748e-03" rms="4.7476875782012939e-01" purity="4.8849919438362122e-01" nType="-99"/>
          <Node pos="r" depth="2" NCoef="0" IVar="-1" Cut="0.0000000000000000e+00" cType="1" res="-4.5804210007190704e-02" rms="3.4677702188491821e-01" purity="1.7028000950813293e-01" nType="-99"/>
        </Node>
      </Node>
    </BinaryTree>
    <BinaryTree type="DecisionTree" boostWeight="1.0000000000000000e+00" itree="9">
      <Node pos="s" depth="0" NCoef="0" IVar="3" Cut="5.2193087339401245e-01" cType="1" res="8.3342436701059341e-03" rms="4.2938652634620667e-01" purity="5.0000000000000000e-01" nType="0">
        <Node pos="l" depth="1" NCoef="0" IVar="5" Cut="4.9029388427734375e+00" cType="1" res="-1.4612859487533569e-01" rms="3.5772928595542908e-01" purity="1.9047364592552185e-01" nType="0">
          <Node pos="l" depth="2" NCoef="0" IVar="-1" Cut="0.0000000000000000e+00" cType="1" res="-2.2214058786630630e-02" rms="4.3143162131309509e-01" purity="2.9797837138175964e-01" nType="-99"/>
          <Node pos="r" depth="2" NCoef="0" IVar="-1" Cut="0.0000000000000000e+00" cType="1" res="-6.2828332185745239e-02" rms="2.0838436484336853e-01" purity="4.7297749668359756e-02" nType="-99"/>
        </Node>
        <Node pos="r" depth="1" NCoef="0" IVar="5" Cut="1.8005392551422119e+00" cType="1" res="7.4078463017940521e-02" rms="4.4034320116043091e-01" purity="6.3174408674240112e-01" nType="0">
          <Node pos="l" depth="2" NCoef="0" IVar="-1" Cut="0.0000000000000000e+00" cType="1" res="3.3140037208795547e-02" rms="3.8980406522750854e-01" purity="7.9651618003845215e-01" nType="-99"/>
          <Node pos="r" depth="2" NCoef="0" IVar="-1" Cut="0.0000000000000000e+00" cType="1" res="-2.7814893983304501e-03" rms="4.6435073018074036e-01" purity="4.8289918899536133e-01" nType="-99"/>
        </Node>
      </Node>
    </BinaryTree>
    <BinaryTree type="DecisionTree" boostWeight="1.0000000000000000e+00" itree="10">
      <Node pos="s" depth="0" NCoef="0" IVar="1" Cut="1.3067504763603210e-01" cType="1" res="8.4413373842835426e-03" rms="4.2574810981750488e-01" purity="5.0000000000000000e-01" nType="0">
        <Node pos="l" depth="1" NCoef="0" IVar="5" Cut="5.4633316993713379e+00" cType="1" res="7.0237062871456146e-02" rms="4.2688214778900146e-01" purity="6.1077558994293213e-01" nType="0">
          <Node pos="l" depth="2" NCoef="0" IVar="-1" Cut="0.0000000000000000e+00" cType="1" res="2.4162193760275841e-02" rms="4.1737067699432373e-01" purity="7.0780795812606812e-01" nType="-99"/>
          <Node pos="r" depth="2" NCoef="0" IVar="-1" Cut="0.0000000000000000e+00" cType="1" res="-2.1895099431276321e-02" rms="4.1567528247833252e-01" purity="2.9591336846351624e-01" nType="-99"/>
        </Node>
        <Node pos="r" depth="1" NCoef="0" IVar="4" Cut="5.4122936725616455e-01" cType="1" res="-1.3420273363590240e-01" rms="3.8712713122367859e-01" purity="2.4429486691951752e-01" nType="0">
          <Node pos="l" depth="2" NCoef="0" IVar="-1" Cut="0.0000000000000000e+00" cType="1" res="-1.9445037469267845e-02" rms="4.5299056172370911e-01" purity="3.5830131173133850e-01" nType="-99"/>
          <Node pos="r" depth="2" NCoef="0" IVar="-1" Cut="0.0000000000000000e+00" cType="1" res="-6.1319328844547272e-02" rms="2.2781375050544739e-01" purity="5.9369441121816635e-02" nType="-99"/>
        </Node>
      </Node>
    </BinaryTree>
    <BinaryTree type="DecisionTree" boostWeight="1.0000000000000000e+00" itree="11">
      <Node pos="s" depth="0" NCoef="0" IVar="3" Cut="6.7211848497390747e-01" cType="1" res="8.4444936364889145e-03" rms="4.2232331633567810e-01" purity="5.0000000000000000e-01" nType="0">
        <Node pos="l" depth="1" NCoef="0" IVar="5" Cut="1.6844500303268433e+00" cType="1" res="-8.1578940153121948e-02" rms="3.9417555928230286e-01" purity="2.9800531268119812e-01" nType="0">
          <Node pos="l" depth="2" NCoef="0" IVar="-1" Cut="0.0000000000000000e+00" cType="1" res="5.9545496478676796e-03" rms="4.6555137634277344e-01" purity="5.5365335941314697e-01" nType="-99"/>
          <Node pos="r" depth="2" NCoef="0" IVar="-1" Cut="0.0000000000000000e+00" cType="1" res="-3.7567861378192902e-02" rms="3.3805999159812927e-01" purity="1.6690482199192047e-01" nType="-99"/>
        </Node>
        <Node pos="r" depth="1" NCoef="0" IVar="1" Cut="1.6040799021720886e-01" cType="1" res="9.4636417925357819e-02" rms="4.3031740188598633e-01" purity="6.9339758157730103e-01" nType="0">
          <Node pos="l" depth="2" NCoef="0" IVar="-1" Cut="0.0000000000000000e+00" cType="1" res="2.4329530075192451e-02" rms="4.1696032881736755e-01" purity="7.3907816410064697e-01" nType="-99"/>
          <Node pos="r" depth="2" NCoef="0" IVar="-1" Cut="0.0000000000000000e+00" cType="1" res="-1.8235828727483749e-02" rms="4.7007319331169128e-01" purity="3.9413440227508545e-01" nType="-99"/>
        </Node>
      </Node>
    </BinaryTree>
    <BinaryTree type="DecisionTree" boostWeight="1.0000000000000000e+00" itree="12">
      <Node pos="s" depth="0" NCoef="0" IVar="3" Cut="5.0861376523971558e-01" cType="1" res="8.4170112386345863e-03" rms="4.1945317387580872e-01" purity="5.0000000000000000e-01" nType="0">
        <Node pos="l" depth="1" NCoef="0" IVar="5" Cut="1.1247129440307617e+00" cType="1" res="-1.2188736349344254e-01" rms="3.4871730208396912e-01" purity="1.8232174217700958e-01" nType="0">
          <Node pos="l" depth="2" NCoef="0" IVar="-1" Cut="0.0000000000000000e+00" cType="1" res="-6.2679164111614227e-03" rms="4.7952538728713989e-01" purity="4.3328145146369934e-01" nType="-99"/>
          <Node pos="r" depth="2" NCoef="0" IVar="-1" Cut="0.0000000000000000e+00" cType="1" res="-4.0764685720205307e-02" rms="3.1320711970329285e-01" purity="1.3245634734630585e-01" nType="-99"/>
        </Node>
        <Node pos="r" depth="1" NCoef="0" IVar="6" Cut="-5.2814898490905762e+00" cType="1" res="5.9424936771392822e-02" rms="4.3354701995849609e-01" purity="6.2435585260391235e-01" nType="0">
          <Node pos="l" depth="2" NCoef="0" IVar="-1" Cut="0.0000000000000000e+00" cType="1" res="2.4776486679911613e-02" rms="4.0576806664466858e-01" purity="7.4438637495040894e-01" nType="-99"/>
          <Node pos="r" depth="2" NCoef="0" IVar="-1" Cut="0.0000000000000000e+00" cType="1" res="-7.7158114872872829e-03" rms="4.5613184571266174e-01" purity="4.4260814785957336e-01" nType="-99"/>
        </Node>
      </Node>
    </BinaryTree>
    <BinaryTree type="DecisionTree" boostWeight="1.0000000000000000e+00" itree="13">
      <Node pos="s" depth="0" NCoef="0" IVar="1" Cut="7.7955283224582672e-02" cType="1" res="8.3090662956237793e-03" rms="4.1700106859207153e-01" purity="5.0000000000000000e-01" nType="0">
        <Node pos="l" depth="1" NCoef="0" IVar="4" Cut="7.9160422086715698e-01" cType="1" res="7.2376348078250885e-02" rms="4.1697388887405396e-01" purity="6.3496035337448120e-01" nType="0">
          <Node pos="l" depth="2" NCoef="0" IVar="-1" Cut="0.0000000000000000e+00" cType="1" res="1.9835026934742928e-02" rms="4.2288810014724731e-01" purity="6.9181209802627563e-01" nType="-99"/>
          <Node pos="r" depth="2" NCoef="0" IVar="-1" Cut="0.0000000000000000e+00" cType="1" res="-5.4622039198875427e-02" rms="2.4384862184524536e-01" purity="7.0077173411846161e-02" nType="-99"/>
        </Node>
        <Node pos="r" depth="1" NCoef="0" IVar="1" Cut="2.0998044312000275e-01" cType="1" res="-8.6614169180393219e-02" rms="3.9853683114051819e-01" purity="3.0004030466079712e-01" nType="0">
          <Node pos="l" depth="2" NCoef="0" IVar="-1" Cut="0.0000000000000000e+00" cType="1" res="-7.5580542907118797e-03" rms="4.2520660161972046e-01" purity="4.0155079960823059e-01" nType="-99"/>
          <Node pos="r" depth="2" NCoef="0" IVar="-1" Cut="0.0000000000000000e+00" cType="1" res="-3.8144733756780624e-02" rms="3.5845908522605896e-01" purity="1.8994960188865662e-01" nType="-99"/>
        </Node>
      </Node>
    </BinaryTree>
    <BinaryTree type="DecisionTree" boostWeight="1.0000000000000000e+00" itree="14">
      <Node pos="s" depth="0" NCoef="0" IVar="5" Cut="3.9233987331390381e+00" cType="1" res="8.1369336694478989e-03" rms="4.1457310318946838e-01" purity="5.0000000000000000e-01" nType="0">
        <Node pos="l" depth="1" NCoef="0" IVar="1" Cut="1.9263949990272522e-01" cType="1" res="6.2880925834178925e-02" rms="4.2339926958084106e-01" purity="6.4107030630111694e-01" nType="0">
          <Node pos="l" depth="2" NCoef="0" IVar="-1" Cut="0.0000000000000000e+00" cType="1" res="2.0479425787925720e-02" rms="4.1259282827377319e-01" purity="7.1358001232147217e-01" nType="-99"/>
          <Node pos="r" depth="2" NCoef="0" IVar="-1" Cut="0.0000000000000000e+00" cType="1" res="-2.3556826636195183e-02" rms="4.3332451581954956e-01" purity="3.0447080731391907e-01" nType="-99"/>
        </Node>
        <Node pos="r" depth="1" NCoef="0" IVar="3" Cut="1.0003232955932617e+00" cType="1" res="-8.6456529796123505e-02" rms="3.8074225187301636e-01" purity="2.5624111294746399e-01" nType="0">
          <Node pos="l" depth="2" NCoef="0" IVar="-1" Cut="0.0000000000000000e+00" cType="1" res="-2.6942107826471329e-02" rms="3.7321263551712036e-01" purity="2.3432575166225433e-01" nType="-99"/>
          <Node pos="r" depth="2" NCoef="0" IVar="-1" Cut="0.0000000000000000e+00" cType="1" res="7.3898382484912872e-02" rms="2.3478066921234131e-01" purity="9.3818879127502441e-01" nType="-99"/>
        </Node>
      </Node>
    </BinaryTree>
    <BinaryTree type="DecisionTree" boostWeight="1.0000000000000000e+00" itree="15">
      <Node pos="s" depth="0" NCoef="0" IVar="4" Cut="7.8560721874237061e-01" cType="1" res="8.0182990059256554e-03" rms="4.1205534338951111e-01" purity="5.0000000000000000e-01" nType="0">
        <Node pos="l" depth="1" NCoef="0" IVar="1" Cut="1.5840913355350494e-01" cType="1" res="3.6770358681678772e-02" rms="4.3187391757965088e-01" purity="5.7900506258010864e-01" nType="0">
          <Node pos="l" depth="2" NCoef="0" IVar="-1" Cut="0.0000000000000000e+00" cType="1" res="1.4706219546496868e-02" rms="4.2796394228935242e-01" purity="6.6002106666564941e-01" nType="-99"/>
          <Node pos="r" depth="2" NCoef="0" IVar="-1" Cut="0.0000000000000000e+00" cType="1" res="-1.9073724746704102e-02" rms="4.2498588562011719e-01" purity="2.9533293843269348e-01" nType="-99"/>
        </Node>
        <Node pos="r" depth="1" NCoef="0" IVar="3" Cut="9.1972194612026215e-02" cType="1" res="-1.5649734437465668e-01" rms="2.0565268397331238e-01" purity="4.7943234443664551e-02" nType="0">
          <Node pos="l" depth="2" NCoef="0" IVar="-1" Cut="0.0000000000000000e+00" cType="1" res="3.2364867627620697e-02" rms="4.3646723031997681e-01" purity="3.0554360151290894e-01" nType="-99"/>
          <Node pos="r" depth="2" NCoef="0" IVar="-1" Cut="0.0000000000000000e+00" cType="1" res="-5.7836122810840607e-02" rms="1.9858494400978088e-01" purity="4.4520914554595947e-02" nType="-99"/>
        </Node>
      </Node>
    </BinaryTree>
    <BinaryTree type="DecisionTree" boostWeight="1.0000000000000000e+00" itree="16">
      <Node pos="s" depth="0" NCoef="0" IVar="3" Cut="4.7310140728950500e-01" cType="1" res="7.8061972744762897e-03" rms="4.1013363003730774e-01" purity="5.0000000000000000e-01" nType="0">
        <Node pos="l" depth="1" NCoef="0" IVar="3" Cut="1.7120459675788879e-01" cType="1" res="-1.0927020758390427e-01" rms="3.3072677254676819e-01" purity="1.6188269853591919e-01" nType="0">
          <Node pos="l" depth="2" NCoef="0" IVar="-1" Cut="0.0000000000000000e+00" cType="1" res="-3.6218955647200346e-03" rms="4.0861773490905762e-01" purity="2.9476246237754822e-01" nType="-99"/>
          <Node pos="r" depth="2" NCoef="0" IVar="-1" Cut="0.0000000000000000e+00" cType="1" res="-3.8027483969926834e-02" rms="3.1462207436561584e-01" purity="1.4161401987075806e-01" nType="-99"/>
        </Node>
        <Node pos="r" depth="1" NCoef="0" IVar="5" Cut="1.6883747577667236e+00" cType="1" res="4.4180214405059814e-02" rms="4.2532983422279358e-01" purity="6.0504829883575439e-01" nType="0">
          <Node pos="l" depth="2" NCoef="0" IVar="-1" Cut="0.0000000000000000e+00" cType="1" res="2.4824805557727814e-02" rms="3.8792878389358521e-01" purity="7.8359586000442505e-01" nType="-99"/>
          <Node pos="r" depth="2" NCoef="0" IVar="-1" Cut="0.0000000000000000e+00" cType="1" res="-3.1568629201501608e-03" rms="4.4422680139541626e-01" purity="4.6317973732948303e-01" nType="-99"/>
        </Node>
      </Node>
    </BinaryTree>
    <BinaryTree type="DecisionTree" boostWeight="1.0000000000000000e+00" itree="17">
      <Node pos="s" depth="0" NCoef="0" IVar="3" Cut="6.7507785558700562e-01" cType="1" res="7.6051922515034676e-03" rms="4.0842562913894653e-01" purity="5.0000000000000000e-01" nType="0">
        <Node pos="l" depth="1" NCoef="0" IVar="5" Cut="1.1247129440307617e+00" cType="1" res="-5.4783765226602554e-02" rms="3.8333946466445923e-01" purity="2.9981929063796997e-01" nType="0">
          <Node pos="l" depth="2" NCoef="0" IVar="-1" Cut="0.0000000000000000e+00" cType="1" res="1.0928636416792870e-02" rms="4.5014476776123047e-01" purity="5.9942096471786499e-01" nType="-99"/>
          <Node pos="r" depth="2" NCoef="0" IVar="-1" Cut="0.0000000000000000e+00" cType="1" res="-2.4101132526993752e-02" rms="3.5734587907791138e-01" purity="2.1816235780715942e-01" nType="-99"/>
        </Node>
        <Node pos="r" depth="1" NCoef="0" IVar="2" Cut="7.9211156116798520e-04" cType="1" res="6.8045623600482941e-02" rms="4.2264604568481445e-01" purity="6.9392865896224976e-01" nType="0">
          <Node pos="l" depth="2" NCoef="0" IVar="-1" Cut="0.0000000000000000e+00" cType="1" res="1.9983425736427307e-03" rms="4.4457203149795532e-01" purity="6.3455051183700562e-01" nType="-99"/>
          <Node pos="r" depth="2" NCoef="0" IVar="-1" Cut="0.0000000000000000e+00" cType="1" res="3.1690612435340881e-02" rms="3.7267896533012390e-01" purity="7.7989411354064941e-01" nType="-99"/>
        </Node>
      </Node>
    </BinaryTree>
    <BinaryTree type="DecisionTree" boostWeight="1.0000000000000000e+00" itree="18">
      <Node pos="s" depth="0" NCoef="0" IVar="5" Cut="6.5821504592895508e+00" cType="1" res="7.3675746098160744e-03" rms="4.0677142143249512e-01" purity="5.0000000000000000e-01" nType="0">
        <Node pos="l" depth="1" NCoef="0" IVar="1" Cut="1.8864180147647858e-01" cType="1" res="3.8786228746175766e-02" rms="4.1772830486297607e-01" purity="5.8796185255050659e-01" nType="0">
          <Node pos="l" depth="2" NCoef="0" IVar="-1" Cut="0.0000000000000000e+00" cType="1" res="1.4902665279805660e-02" rms="4.1509199142456055e-01" purity="6.6662245988845825e-01" nType="-99"/>
          <Node pos="r" depth="2" NCoef="0" IVar="-1" Cut="0.0000000000000000e+00" cType="1" res="-2.1144136786460876e-02" rms="4.0623942017555237e-01" purity="2.6349180936813354e-01" nType="-99"/>
        </Node>
        <Node pos="r" depth="1" NCoef="0" IVar="3" Cut="1.0018260478973389e+00" cType="1" res="-1.0330628603696823e-01" rms="3.4338688850402832e-01" purity="1.9014962017536163e-01" nType="0">
          <Node pos="l" depth="2" NCoef="0" IVar="-1" Cut="0.0000000000000000e+00" cType="1" res="-3.4579429775476456e-02" rms="3.3544462919235229e-01" purity="1.6917453706264496e-01" nType="-99"/>
          <Node pos="r" depth="2" NCoef="0" IVar="-1" Cut="0.0000000000000000e+00" cType="1" res="6.7596279084682465e-02" rms="2.5393775105476379e-01" purity="9.2839628458023071e-01" nType="-99"/>
        </Node>
      </Node>
    </BinaryTree>
    <BinaryTree type="DecisionTree" boostWeight="1.0000000000000000e+00" itree="19">
      <Node pos="s" depth="0" NCoef="0" IVar="1" Cut="5.4968468844890594e-02" cType="1" res="7.1659507229924202e-03" rms="4.0502029657363892e-01" purity="5.0000000000000000e-01" nType="0">
        <Node pos="l" depth="1" NCoef="0" IVar="5" Cut="9.1016149520874023e+00" cType="1" res="5.8167409151792526e-02" rms="4.0663740038871765e-01" purity="6.4289218187332153e-01" nType="0">
          <Node pos="l" depth="2" NCoef="0" IVar="-1" Cut="0.0000000000000000e+00" cType="1" res="1.7234876751899719e-02" rms="4.0556451678276062e-01" purity="6.9345003366470337e-01" nType="-99"/>
          <Node pos="r" depth="2" NCoef="0" IVar="-1" Cut="0.0000000000000000e+00" cType="1" res="-2.7722727507352829e-02" rms="3.7768727540969849e-01" purity="2.3601016402244568e-01" nType="-99"/>
        </Node>
        <Node pos="r" depth="1" NCoef="0" IVar="3" Cut="1.0003775358200073e+00" cType="1" res="-5.3657874464988708e-02" rms="3.9455607533454895e-01" purity="3.2958820462226868e-01" nType="0">
          <Node pos="l" depth="2" NCoef="0" IVar="-1" Cut="0.0000000000000000e+00" cType="1" res="-1.5594251453876495e-02" rms="3.9307951927185059e-01" purity="3.1934469938278198e-01" nType="-99"/>
          <Node pos="r" depth="2" NCoef="0" IVar="-1" Cut="0.0000000000000000e+00" cType="1" res="5.7984646409749985e-02" rms="2.9701414704322815e-01" purity="8.9854180812835693e-01" nType="-99"/>
        </Node>
      </Node>
    </BinaryTree>
    <BinaryTree type="DecisionTree" boostWeight="1.0000000000000000e+00" itree="20">
      <Node pos="s" depth="0" NCoef="0" IVar="4" Cut="7.9010492563247681e-01" cType="1" res="6.8611940369009972e-03" rms="4.0374270081520081e-01" purity="5.0000000000000000e-01" nType="0">
        <Node pos="l" depth="1" NCoef="0" IVar="3" Cut="1.0006076097488403e+00" cType="1" res="2.9021516442298889e-02" rms="4.2516791820526123e-01" purity="5.7810288667678833e-01" nType="0">
          <Node pos="l" depth="2" NCoef="0" IVar="-1" Cut="0.0000000000000000e+00" cType="1" res="4.5752204023301601e-03" rms="4.2790937423706055e-01" purity="5.6550198793411255e-01" nType="-99"/>
          <Node pos="r" depth="2" NCoef="0" IVar="-1" Cut="0.0000000000000000e+00" cType="1" res="5.8082379400730133e-02" rms="1.9794093072414398e-01" purity="9.6060150861740112e-01" nType="-99"/>
        </Node>
        <Node pos="r" depth="1" NCoef="0" IVar="3" Cut="5.6598365306854248e-01" cType="1" res="-1.2216607481241226e-01" rms="2.0024143159389496e-01" purity="4.5250378549098969e-02" nType="0">
          <Node pos="l" depth="2" NCoef="0" IVar="-1" Cut="0.0000000000000000e+00" cType="1" res="-5.1676314324140549e-02" rms="1.7085114121437073e-01" purity="3.1791485846042633e-02" nType="-99"/>
          <Node pos="r" depth="2" NCoef="0" IVar="-1" Cut="0.0000000000000000e+00" cType="1" res="-5.2617579698562622e-02" rms="2.9314771294593811e-01" purity="1.0875651240348816e-01" nType="-99"/>
        </Node>
      </Node>
    </BinaryTree>
    <BinaryTree type="DecisionTree" boostWeight="1.0000000000000000e+00" itree="21">
      <Node pos="s" depth="0" NCoef="0" IVar="5" Cut="1.6844500303268433e+00" cType="1" res="6.5398872829973698e-03" rms="4.0261438488960266e-01" purity="5.0000000000000000e-01" nType="0">
        <Node pos="l" depth="1" NCoef="0" IVar="3" Cut="4.7266986966133118e-01" cType="1" res="6.9837495684623718e-02" rms="4.0198442339897156e-01" purity="7.1898019313812256e-01" nType="0">
          <Node pos="l" depth="2" NCoef="0" IVar="-1" Cut="0.0000000000000000e+00" cType="1" res="-1.5094024129211903e-02" rms="4.5830249786376953e-01" purity="3.6403706669807434e-01" nType="-99"/>
          <Node pos="r" depth="2" NCoef="0" IVar="-1" Cut="0.0000000000000000e+00" cType="1" res="2.1064398810267448e-02" rms="3.8543811440467834e-01" purity="7.8371393680572510e-01" nType="-99"/>
        </Node>
        <Node pos="r" depth="1" NCoef="0" IVar="3" Cut="1.0006076097488403e+00" cType="1" res="-3.5459600389003754e-02" rms="3.9750754833221436e-01" purity="3.5470137000083923e-01" nType="0">
          <Node pos="l" depth="2" NCoef="0" IVar="-1" Cut="0.0000000000000000e+00" cType="1" res="-1.2098743580281734e-02" rms="3.9738368988037109e-01" purity="3.3525758981704712e-01" nType="-99"/>
          <Node pos="r" depth="2" NCoef="0" IVar="-1" Cut="0.0000000000000000e+00" cType="1" res="5.7225227355957031e-02" rms="2.2084754705429077e-01" purity="9.4548714160919189e-01" nType="-99"/>
        </Node>
      </Node>
    </BinaryTree>
    <BinaryTree type="DecisionTree" boostWeight="1.0000000000000000e+00" itree="22">
      <Node pos="s" depth="0" NCoef="0" IVar="1" Cut="7.7955283224582672e-02" cType="1" res="6.3390918076038361e-03" rms="4.0136551856994629e-01" purity="5.0000000000000000e-01" nType="0">
        <Node pos="l" depth="1" NCoef="0" IVar="3" Cut="4.7088187932968140e-01" cType="1" res="4.6504784375429153e-02" rms="4.0486600995063782e-01" purity="6.3496035337448120e-01" nType="0">
          <Node pos="l" depth="2" NCoef="0" IVar="-1" Cut="0.0000000000000000e+00" cType="1" res="-1.9467463716864586e-02" rms="3.7653726339340210e-01" purity="2.3596735298633575e-01" nType="-99"/>
          <Node pos="r" depth="2" NCoef="0" IVar="-1" Cut="0.0000000000000000e+00" cType="1" res="1.5269905328750610e-02" rms="4.0636843442916870e-01" purity="7.1215867996215820e-01" nType="-99"/>
        </Node>
        <Node pos="r" depth="1" NCoef="0" IVar="5" Cut="1.2521344423294067e+00" cType="1" res="-5.3171124309301376e-02" rms="3.8856291770935059e-01" purity="3.0004030466079712e-01" nType="0">
          <Node pos="l" depth="2" NCoef="0" IVar="-1" Cut="0.0000000000000000e+00" cType="1" res="3.1105247326195240e-03" rms="4.5478758215904236e-01" purity="5.5041474103927612e-01" nType="-99"/>
          <Node pos="r" depth="2" NCoef="0" IVar="-1" Cut="0.0000000000000000e+00" cType="1" res="-2.1467786282300949e-02" rms="3.6396563053131104e-01" purity="2.2512514889240265e-01" nType="-99"/>
        </Node>
      </Node>
    </BinaryTree>
    <BinaryTree type="DecisionTree" boostWeight="1.0000000000000000e+00" itree="23">
      <Node pos="s" depth="0" NCoef="0" IVar="5" Cut="8.2613620758056641e+00" cType="1" res="6.1144055798649788e-03" rms="4.0041688084602356e-01" purity="5.0000000000000000e-01" nType="0">
        <Node pos="l" depth="1" NCoef="0" IVar="3" Cut="4.7236156463623047e-01" cType="1" res="2.6716399937868118e-02" rms="4.1155439615249634e-01" purity="5.6638646125793457e-01" nType="0">
          <Node pos="l" depth="2" NCoef="0" IVar="-1" Cut="0.0000000000000000e+00" cType="1" res="-1.9227586686611176e-02" rms="3.7519946694374084e-01" purity="2.1421642601490021e-01" nType="-99"/>
          <Node pos="r" depth="2" NCoef="0" IVar="-1" Cut="0.0000000000000000e+00" cType="1" res="1.1324453167617321e-02" rms="4.1710335016250610e-01" purity="6.5712058544158936e-01" nType="-99"/>
        </Node>
        <Node pos="r" depth="1" NCoef="0" IVar="3" Cut="1.0121128559112549e+00" cType="1" res="-9.9126145243644714e-02" rms="3.1763830780982971e-01" purity="1.6087992489337921e-01" nType="0">
          <Node pos="l" depth="2" NCoef="0" IVar="-1" Cut="0.0000000000000000e+00" cType="1" res="-3.5963837057352066e-02" rms="3.1233963370323181e-01" purity="1.4013075828552246e-01" nType="-99"/>
          <Node pos="r" depth="2" NCoef="0" IVar="-1" Cut="0.0000000000000000e+00" cType="1" res="5.6521702557802200e-02" rms="2.4668656289577484e-01" purity="9.3101197481155396e-01" nType="-99"/>
        </Node>
      </Node>
    </BinaryTree>
    <BinaryTree type="DecisionTree" boostWeight="1.0000000000000000e+00" itree="24">
      <Node pos="s" depth="0" NCoef="0" IVar="6" Cut="-5.3373208045959473e+00" cType="1" res="5.9122312813997269e-03" rms="3.9932903647422791e-01" purity="5.0000000000000000e-01" nType="0">
        <Node pos="l" depth="1" NCoef="0" IVar="1" Cut="2.6104155182838440e-01" cType="1" res="4.6629711985588074e-02" rms="4.0446838736534119e-01" purity="6.5131193399429321e-01" nType="0">
          <Node pos="l" depth="2" NCoef="0" IVar="-1" Cut="0.0000000000000000e+00" cType="1" res="1.4872692525386810e-02" rms="4.0013313293457031e-01" purity="7.0056903362274170e-01" nType="-99"/>
          <Node pos="r" depth="2" NCoef="0" IVar="-1" Cut="0.0000000000000000e+00" cType="1" res="-2.5004617869853973e-02" rms="4.0899929404258728e-01" purity="2.5906515121459961e-01" nType="-99"/>
        </Node>
        <Node pos="r" depth="1" NCoef="0" IVar="3" Cut="1.0006076097488403e+00" cType="1" res="-4.2163074016571045e-02" rms="3.8770797848701477e-01" purity="3.2134532928466797e-01" nType="0">
          <Node pos="l" depth="2" NCoef="0" IVar="-1" Cut="0.0000000000000000e+00" cType="1" res="-1.4304834417998791e-02" rms="3.8770514726638794e-01" purity="3.0153071880340576e-01" nType="-99"/>
          <Node pos="r" depth="2" NCoef="0" IVar="-1" Cut="0.0000000000000000e+00" cType="1" res="5.3113397210836411e-02" rms="2.3301003873348236e-01" purity="9.3956226110458374e-01" nType="-99"/>
        </Node>
      </Node>
    </BinaryTree>
    <BinaryTree type="DecisionTree" boostWeight="1.0000000000000000e+00" itree="25">
      <Node pos="s" depth="0" NCoef="0" IVar="3" Cut="7.0171213150024414e-01" cType="1" res="5.6930654682219028e-03" rms="3.9832153916358948e-01" purity="5.0000000000000000e-01" nType="0">
        <Node pos="l" depth="1" NCoef="0" IVar="4" Cut="4.4027987122535706e-01" cType="1" res="-3.5944119095802307e-02" rms="3.7940931320190430e-01" purity="3.1670308113098145e-01" nType="0">
          <Node pos="l" depth="2" NCoef="0" IVar="-1" Cut="0.0000000000000000e+00" cType="1" res="3.9957958506420255e-04" rms="4.4149011373519897e-01" purity="4.9222391843795776e-01" nType="-99"/>
          <Node pos="r" depth="2" NCoef="0" IVar="-1" Cut="0.0000000000000000e+00" cType="1" res="-3.2800041139125824e-02" rms="2.7934718132019043e-01" purity="1.0291594266891479e-01" nType="-99"/>
        </Node>
        <Node pos="r" depth="1" NCoef="0" IVar="2" Cut="7.8906986163929105e-04" cType="1" res="5.0796873867511749e-02" rms="4.1313546895980835e-01" purity="6.9855785369873047e-01" nType="0">
          <Node pos="l" depth="2" NCoef="0" IVar="-1" Cut="0.0000000000000000e+00" cType="1" res="-2.9786955565214157e-04" rms="4.3888041377067566e-01" purity="6.3455051183700562e-01" nType="-99"/>
          <Node pos="r" depth="2" NCoef="0" IVar="-1" Cut="0.0000000000000000e+00" cType="1" res="3.0944237485527992e-02" rms="3.4905537962913513e-01" purity="8.0562847852706909e-01" nType="-99"/>
        </Node>
      </Node>
    </BinaryTree>
    <BinaryTree type="DecisionTree" boostWeight="1.0000000000000000e+00" itree="26">
      <Node pos="s" depth="0" NCoef="0" IVar="7" Cut="-4.1198186874389648e+00" cType="1" res="5.5436086840927601e-03" rms="3.9721047878265381e-01" purity="5.0000000000000000e-01" nType="0">
        <Node pos="l" depth="1" NCoef="0" IVar="1" Cut="1.8839193880558014e-01" cType="1" res="3.4678768366575241e-02" rms="4.0492877364158630e-01" purity="6.0170131921768188e-01" nType="0">
          <Node pos="l" depth="2" NCoef="0" IVar="-1" Cut="0.0000000000000000e+00" cType="1" res="1.3169578276574612e-02" rms="4.0171131491661072e-01" purity="6.8287056684494019e-01" nType="-99"/>
          <Node pos="r" depth="2" NCoef="0" IVar="-1" Cut="0.0000000000000000e+00" cType="1" res="-1.4289271086454391e-02" rms="4.0588083863258362e-01" purity="2.7359282970428467e-01" nType="-99"/>
        </Node>
        <Node pos="r" depth="1" NCoef="0" IVar="3" Cut="1.0010614395141602e+00" cType="1" res="-5.3800422698259354e-02" rms="3.7405216693878174e-01" purity="2.9284939169883728e-01" nType="0">
          <Node pos="l" depth="2" NCoef="0" IVar="-1" Cut="0.0000000000000000e+00" cType="1" res="-1.8219966441392899e-02" rms="3.7429776787757874e-01" purity="2.7143594622612000e-01" nType="-99"/>
          <Node pos="r" depth="2" NCoef="0" IVar="-1" Cut="0.0000000000000000e+00" cType="1" res="4.9029480665922165e-02" rms="2.2799201309680939e-01" purity="9.3858903646469116e-01" nType="-99"/>
        </Node>
      </Node>
    </BinaryTree>
    <BinaryTree type="DecisionTree" boostWeight="1.0000000000000000e+00" itree="27">
      <Node pos="s" depth="0" NCoef="0" IVar="1" Cut="5.0720907747745514e-02" cType="1" res="5.3295851685106754e-03" rms="3.9636752009391785e-01" purity="5.0000000000000000e-01" nType="0">
        <Node pos="l" depth="1" NCoef="0" IVar="7" Cut="-3.3446729183197021e+00" cType="1" res="4.2296022176742554e-02" rms="3.9940544962882996e-01" purity="6.4424997568130493e-01" nType="0">
          <Node pos="l" depth="2" NCoef="0" IVar="-1" Cut="0.0000000000000000e+00" cType="1" res="1.4008399099111557e-02" rms="3.9629119634628296e-01" purity="6.9577497243881226e-01" nType="-99"/>
          <Node pos="r" depth="2" NCoef="0" IVar="-1" Cut="0.0000000000000000e+00" cType="1" res="-1.6548698768019676e-02" rms="4.0241363644599915e-01" purity="3.2573550939559937e-01" nType="-99"/>
        </Node>
        <Node pos="r" depth="1" NCoef="0" IVar="3" Cut="1.0003775358200073e+00" cType="1" res="-3.6899048835039139e-02" rms="3.8858881592750549e-01" purity="3.3521592617034912e-01" nType="0">
          <Node pos="l" depth="2" NCoef="0" IVar="-1" Cut="0.0000000000000000e+00" cType="1" res="-1.1349389329552650e-02" rms="3.8892185688018799e-01" purity="3.2469752430915833e-01" nType="-99"/>
          <Node pos="r" depth="2" NCoef="0" IVar="-1" Cut="0.0000000000000000e+00" cType="1" res="4.3006528168916702e-02" rms="2.8566002845764160e-01" purity="9.0209728479385376e-01" nType="-99"/>
        </Node>
      </Node>
    </BinaryTree>
    <BinaryTree type="DecisionTree" boostWeight="1.0000000000000000e+00" itree="28">
      <Node pos="s" depth="0" NCoef="0" IVar="4" Cut="8.1359320878982544e-01" cType="1" res="5.0684111192822456e-03" rms="3.9572742581367493e-01" purity="5.0000000000000000e-01" nType="0">
        <Node pos="l" depth="1" NCoef="0" IVar="7" Cut="-3.3827948570251465e+00" cType="1" res="2.0213661715388298e-02" rms="4.1722837090492249e-01" purity="5.7214111089706421e-01" nType="0">
          <Node pos="l" depth="2" NCoef="0" IVar="-1" Cut="0.0000000000000000e+00" cType="1" res="7.8361723572015762e-03" rms="4.1706347465515137e-01" purity="6.1064648628234863e-01" nType="-99"/>
          <Node pos="r" depth="2" NCoef="0" IVar="-1" Cut="0.0000000000000000e+00" cType="1" res="-1.7570817843079567e-02" rms="4.0726101398468018e-01" purity="3.1259742379188538e-01" nType="-99"/>
        </Node>
        <Node pos="r" depth="1" NCoef="0" IVar="3" Cut="5.6598365306854248e-01" cType="1" res="-9.2342406511306763e-02" rms="1.8224439024925232e-01" purity="3.6004438996315002e-02" nType="0">
          <Node pos="l" depth="2" NCoef="0" IVar="-1" Cut="0.0000000000000000e+00" cType="1" res="-4.6774044632911682e-02" rms="1.6186062991619110e-01" purity="2.8623668476939201e-02" nType="-99"/>
          <Node pos="r" depth="2" NCoef="0" IVar="-1" Cut="0.0000000000000000e+00" cType="1" res="-5.6570678949356079e-02" rms="2.4664066731929779e-01" purity="7.4344925582408905e-02" nType="-99"/>
        </Node>
      </Node>
    </BinaryTree>
    <BinaryTree type="DecisionTree" boostWeight="1.0000000000000000e+00" itree="29">
      <Node pos="s" depth="0" NCoef="0" IVar="3" Cut="7.0171213150024414e-01" cType="1" res="4.8339297063648701e-03" rms="3.9507183432579041e-01" purity="5.0000000000000000e-01" nType="0">
        <Node pos="l" depth="1" NCoef="0" IVar="5" Cut="1.1247129440307617e+00" cType="1" res="-3.0011728405952454e-02" rms="3.7730473279953003e-01" purity="3.1670308113098145e-01" nType="0">
          <Node pos="l" depth="2" NCoef="0" IVar="-1" Cut="0.0000000000000000e+00" cType="1" res="7.5373933650553226e-03" rms="4.3853855133056641e-01" purity="6.1660462617874146e-01" nType="-99"/>
          <Node pos="r" depth="2" NCoef="0" IVar="-1" Cut="0.0000000000000000e+00" cType="1" res="-1.5450354665517807e-02" rms="3.5610264539718628e-01" purity="2.3244221508502960e-01" nType="-99"/>
        </Node>
        <Node pos="r" depth="1" NCoef="0" IVar="2" Cut="7.8906986163929105e-04" cType="1" res="4.2580761015415192e-02" rms="4.1013056039810181e-01" purity="6.9855785369873047e-01" nType="0">
          <Node pos="l" depth="2" NCoef="0" IVar="-1" Cut="0.0000000000000000e+00" cType="1" res="-9.1787520796060562e-04" rms="4.3709725141525269e-01" purity="6.3455051183700562e-01" nType="-99"/>
          <Node pos="r" depth="2" NCoef="0" IVar="-1" Cut="0.0000000000000000e+00" cType="1" res="2.8258558362722397e-02" rms="3.4680610895156860e-01" purity="8.0562847852706909e-01" nType="-99"/>
        </Node>
      </Node>
    </BinaryTree>
    <BinaryTree type="DecisionTree" boostWeight="1.0000000000000000e+00" itree="30">
      <Node pos="s" depth="0" NCoef="0" IVar="1" Cut="5.4968468844890594e-02" cType="1" res="4.6695284545421600e-03" rms="3.9429607987403870e-01" purity="5.0000000000000000e-01" nType="0">
        <Node pos="l" depth="1" NCoef="0" IVar="6" Cut="-5.2372136116027832e+00" cType="1" res="3.6332532763481140e-02" rms="3.9769905805587769e-01" purity="6.4289218187332153e-01" nType="0">
          <Node pos="l" depth="2" NCoef="0" IVar="-1" Cut="0.0000000000000000e+00" cType="1" res="1.5982739627361298e-02" rms="3.7810480594635010e-01" purity="7.6799684762954712e-01" nType="-99"/>
          <Node pos="r" depth="2" NCoef="0" IVar="-1" Cut="0.0000000000000000e+00" cType="1" res="-2.4084469769150019e-03" rms="4.2287635803222656e-01" purity="4.4428944587707520e-01" nType="-99"/>
        </Node>
        <Node pos="r" depth="1" NCoef="0" IVar="1" Cut="2.7513283491134644e-01" cType="1" res="-3.3091451972723007e-02" rms="3.8682514429092407e-01" purity="3.2958820462226868e-01" nType="0">
          <Node pos="l" depth="2" NCoef="0" IVar="-1" Cut="0.0000000000000000e+00" cType="1" res="-3.9886389859020710e-03" rms="4.0413185954093933e-01" purity="3.9559236168861389e-01" nType="-99"/>
          <Node pos="r" depth="2" NCoef="0" IVar="-1" Cut="0.0000000000000000e+00" cType="1" res="-2.6910709217190742e-02" rms="3.3357301354408264e-01" purity="1.5888082981109619e-01" nType="-99"/>
        </Node>
      </Node>
    </BinaryTree>
    <BinaryTree type="DecisionTree" boostWeight="1.0000000000000000e+00" itree="31">
      <Node pos="s" depth="0" NCoef="0" IVar="5" Cut="9.1009674072265625e+00" cType="1" res="4.4679348357021809e-03" rms="3.9378616213798523e-01" purity="5.0000000000000000e-01" nType="0">
        <Node pos="l" depth="1" NCoef="0" IVar="3" Cut="4.5016634464263916e-01" cType="1" res="1.7982173711061478e-02" rms="4.0512102842330933e-01" purity="5.5753922462463379e-01" nType="0">
          <Node pos="l" depth="2" NCoef="0" IVar="-1" Cut="0.0000000000000000e+00" cType="1" res="-1.7945326864719391e-02" rms="3.6255156993865967e-01" purity="1.9758935272693634e-01" nType="-99"/>
          <Node pos="r" depth="2" NCoef="0" IVar="-1" Cut="0.0000000000000000e+00" cType="1" res="8.2559948787093163e-03" rms="4.1241368651390076e-01" purity="6.3990342617034912e-01" nType="-99"/>
        </Node>
        <Node pos="r" depth="1" NCoef="0" IVar="3" Cut="1.0143171548843384e+00" cType="1" res="-7.8220516443252563e-02" rms="3.0282905697822571e-01" purity="1.4793957769870758e-01" nType="0">
          <Node pos="l" depth="2" NCoef="0" IVar="-1" Cut="0.0000000000000000e+00" cType="1" res="-3.1526185572147369e-02" rms="3.0062094330787659e-01" purity="1.2849240005016327e-01" nType="-99"/>
          <Node pos="r" depth="2" NCoef="0" IVar="-1" Cut="0.0000000000000000e+00" cType="1" res="4.4724524021148682e-02" rms="2.5039190053939819e-01" purity="9.2586892843246460e-01" nType="-99"/>
        </Node>
      </Node>
    </BinaryTree>
    <BinaryTree type="DecisionTree" boostWeight="1.0000000000000000e+00" itree="32">
      <Node pos="s" depth="0" NCoef="0" IVar="5" Cut="1.2646472454071045e+00" cType="1" res="4.2989053763449192e-03" rms="3.9319524168968201e-01" purity="5.0000000000000000e-01" nType="0">
        <Node pos="l" depth="1" NCoef="0" IVar="3" Cut="4.4729650020599365e-01" cType="1" res="5.3540565073490143e-02" rms="3.8884386420249939e-01" purity="7.4041920900344849e-01" nType="0">
          <Node pos="l" depth="2" NCoef="0" IVar="-1" Cut="0.0000000000000000e+00" cType="1" res="-1.1804019100964069e-02" rms="4.5862296223640442e-01" purity="3.7102940678596497e-01" nType="-99"/>
          <Node pos="r" depth="2" NCoef="0" IVar="-1" Cut="0.0000000000000000e+00" cType="1" res="1.6830239444971085e-02" rms="3.7514635920524597e-01" purity="7.9393166303634644e-01" nType="-99"/>
        </Node>
        <Node pos="r" depth="1" NCoef="0" IVar="3" Cut="1.0006076097488403e+00" cType="1" res="-1.6288978978991508e-02" rms="3.9317634701728821e-01" purity="3.9948099851608276e-01" nType="0">
          <Node pos="l" depth="2" NCoef="0" IVar="-1" Cut="0.0000000000000000e+00" cType="1" res="-6.2387888319790363e-03" rms="3.9582815766334534e-01" purity="3.8206353783607483e-01" nType="-99"/>
          <Node pos="r" depth="2" NCoef="0" IVar="-1" Cut="0.0000000000000000e+00" cType="1" res="4.4901490211486816e-02" rms="2.1769392490386963e-01" purity="9.4561713933944702e-01" nType="-99"/>
        </Node>
      </Node>
    </BinaryTree>
    <BinaryTree type="DecisionTree" boostWeight="1.0000000000000000e+00" itree="33">
      <Node pos="s" depth="0" NCoef="0" IVar="4" Cut="8.1859070062637329e-01" cType="1" res="4.1100843809545040e-03" rms="3.9271387457847595e-01" purity="5.0000000000000000e-01" nType="0">
        <Node pos="l" depth="1" NCoef="0" IVar="1" Cut="2.2911858558654785e-01" cType="1" res="1.6276517882943153e-02" rms="4.1436073184013367e-01" purity="5.7071214914321899e-01" nType="0">
          <Node pos="l" depth="2" NCoef="0" IVar="-1" Cut="0.0000000000000000e+00" cType="1" res="6.7864819429814816e-03" rms="4.1620436310768127e-01" purity="6.2643224000930786e-01" nType="-99"/>
          <Node pos="r" depth="2" NCoef="0" IVar="-1" Cut="0.0000000000000000e+00" cType="1" res="-1.5812827274203300e-02" rms="3.9558875560760498e-01" purity="2.4049401283264160e-01" nType="-99"/>
        </Node>
        <Node pos="r" depth="1" NCoef="0" IVar="3" Cut="5.6524646282196045e-01" cType="1" res="-7.6020851731300354e-02" rms="1.7822098731994629e-01" purity="3.4273382276296616e-02" nType="0">
          <Node pos="l" depth="2" NCoef="0" IVar="-1" Cut="0.0000000000000000e+00" cType="1" res="-4.3179206550121307e-02" rms="1.6026572883129120e-01" purity="2.7975127100944519e-02" nType="-99"/>
          <Node pos="r" depth="2" NCoef="0" IVar="-1" Cut="0.0000000000000000e+00" cType="1" res="-5.5270753800868988e-02" rms="2.3498171567916870e-01" purity="6.7179895937442780e-02" nType="-99"/>
        </Node>
      </Node>
    </BinaryTree>
    <BinaryTree type="DecisionTree" boostWeight="1.0000000000000000e+00" itree="34">
      <Node pos="s" depth="0" NCoef="0" IVar="7" Cut="-3.6750626564025879e+00" cType="1" res="3.9436649531126022e-03" rms="3.9224985241889954e-01" purity="5.0000000000000000e-01" nType="0">
        <Node pos="l" depth="1" NCoef="0" IVar="3" Cut="4.9825596809387207e-01" cType="1" res="1.9698835909366608e-02" rms="4.0102913975715637e-01" purity="5.7313829660415649e-01" nType="0">
          <Node pos="l" depth="2" NCoef="0" IVar="-1" Cut="0.0000000000000000e+00" cType="1" res="-1.0935132391750813e-02" rms="3.7998053431510925e-01" purity="2.3437635600566864e-01" nType="-99"/>
          <Node pos="r" depth="2" NCoef="0" IVar="-1" Cut="0.0000000000000000e+00" cType="1" res="8.7848585098981857e-03" rms="4.0578433871269226e-01" purity="6.7699271440505981e-01" nType="-99"/>
        </Node>
        <Node pos="r" depth="1" NCoef="0" IVar="3" Cut="1.0002541542053223e+00" cType="1" res="-5.0224281847476959e-02" rms="3.5514494776725769e-01" purity="2.4854280054569244e-01" nType="0">
          <Node pos="l" depth="2" NCoef="0" IVar="-1" Cut="0.0000000000000000e+00" cType="1" res="-1.8425788730382919e-02" rms="3.5588675737380981e-01" purity="2.2704148292541504e-01" nType="-99"/>
          <Node pos="r" depth="2" NCoef="0" IVar="-1" Cut="0.0000000000000000e+00" cType="1" res="4.0265664458274841e-02" rms="2.4735674262046814e-01" purity="9.2480838298797607e-01" nType="-99"/>
        </Node>
      </Node>
    </BinaryTree>
    <BinaryTree type="DecisionTree" boostWeight="1.0000000000000000e+00" itree="35">
      <Node pos="s" depth="0" NCoef="0" IVar="1" Cut="5.0720907747745514e-02" cType="1" res="3.7826173938810825e-03" rms="3.9183595776557922e-01" purity="5.0000000000000000e-01" nType="0">
        <Node pos="l" depth="1" NCoef="0" IVar="0" Cut="8.7453745305538177e-02" cType="1" res="3.0641969293355942e-02" rms="3.9563560485839844e-01" purity="6.4424997568130493e-01" nType="0">
          <Node pos="l" depth="2" NCoef="0" IVar="-1" Cut="0.0000000000000000e+00" cType="1" res="1.2639257125556469e-02" rms="3.8784715533256531e-01" purity="6.9977611303329468e-01" nType="-99"/>
          <Node pos="r" depth="2" NCoef="0" IVar="-1" Cut="0.0000000000000000e+00" cType="1" res="-6.5813525579869747e-03" rms="4.1146549582481384e-01" purity="4.8961731791496277e-01" nType="-99"/>
        </Node>
        <Node pos="r" depth="1" NCoef="0" IVar="3" Cut="1.0003775358200073e+00" cType="1" res="-2.6900179684162140e-02" rms="3.8516467809677124e-01" purity="3.3521592617034912e-01" nType="0">
          <Node pos="l" depth="2" NCoef="0" IVar="-1" Cut="0.0000000000000000e+00" cType="1" res="-8.6984364315867424e-03" rms="3.8608238101005554e-01" purity="3.2469752430915833e-01" nType="-99"/>
          <Node pos="r" depth="2" NCoef="0" IVar="-1" Cut="0.0000000000000000e+00" cType="1" res="3.6080215126276016e-02" rms="2.8238666057586670e-01" purity="9.0209728479385376e-01" nType="-99"/>
        </Node>
      </Node>
    </BinaryTree>
    <BinaryTree type="DecisionTree" boostWeight="1.0000000000000000e+00" itree="36">
      <Node pos="s" depth="0" NCoef="0" IVar="6" Cut="-4.4313950538635254e+00" cType="1" res="3.5837192554026842e-03" rms="3.9148485660552979e-01" purity="5.0000000000000000e-01" nType="0">
        <Node pos="l" depth="1" NCoef="0" IVar="3" Cut="4.4942650198936462e-01" cType="1" res="1.9124101847410202e-02" rms="4.0280419588088989e-01" purity="5.8554917573928833e-01" nType="0">
          <Node pos="l" depth="2" NCoef="0" IVar="-1" Cut="0.0000000000000000e+00" cType="1" res="-1.3198596425354481e-02" rms="3.7463518977165222e-01" purity="2.1640141308307648e-01" nType="-99"/>
          <Node pos="r" depth="2" NCoef="0" IVar="-1" Cut="0.0000000000000000e+00" cType="1" res="7.8676966950297356e-03" rms="4.0745016932487488e-01" purity="6.6533416509628296e-01" nType="-99"/>
        </Node>
        <Node pos="r" depth="1" NCoef="0" IVar="3" Cut="1.0044404268264771e+00" cType="1" res="-4.5983549207448959e-02" rms="3.4836217761039734e-01" purity="2.2713418304920197e-01" nType="0">
          <Node pos="l" depth="2" NCoef="0" IVar="-1" Cut="0.0000000000000000e+00" cType="1" res="-1.7535345628857613e-02" rms="3.4894877672195435e-01" purity="2.0583623647689819e-01" nType="-99"/>
          <Node pos="r" depth="2" NCoef="0" IVar="-1" Cut="0.0000000000000000e+00" cType="1" res="4.0089864283800125e-02" rms="2.4992878735065460e-01" purity="9.2603719234466553e-01" nType="-99"/>
        </Node>
      </Node>
    </BinaryTree>
    <BinaryTree type="DecisionTree" boostWeight="1.0000000000000000e+00" itree="37">
      <Node pos="s" depth="0" NCoef="0" IVar="7" Cut="-4.7742447853088379e+00" cType="1" res="3.4482225310057402e-03" rms="3.9111673831939697e-01" purity="5.0000000000000000e-01" nType="0">
        <Node pos="l" depth="1" NCoef="0" IVar="1" Cut="2.9058331251144409e-01" cType="1" res="2.9550455510616302e-02" rms="3.9670625329017639e-01" purity="6.4030820131301880e-01" nType="0">
          <Node pos="l" depth="2" NCoef="0" IVar="-1" Cut="0.0000000000000000e+00" cType="1" res="1.0042532347142696e-02" rms="3.9586907625198364e-01" purity="6.8385595083236694e-01" nType="-99"/>
          <Node pos="r" depth="2" NCoef="0" IVar="-1" Cut="0.0000000000000000e+00" cType="1" res="-1.9376814365386963e-02" rms="3.9103037118911743e-01" purity="2.3461835086345673e-01" nType="-99"/>
        </Node>
