<?xml version="1.0"?>
<MethodSetup Method="BDT::BDT">
  <GeneralInfo>
    <Info name="TMVA Release" value="4.1.4 [262404]"/>
    <Info name="ROOT Release" value="5.34/10 [336394]"/>
    <Info name="Creator" value="ochando"/>
    <Info name="Date" value="Wed Sep  3 12:05:39 2014"/>
    <Info name="Host" value="Linux lxbuild166.cern.ch 2.6.18-348.1.1.el5 #1 SMP Thu Jan 24 13:25:42 CET 2013 x86_64 x86_64 x86_64 GNU/Linux"/>
    <Info name="Dir" value="/grid_mnt/vol__vol_U__u/llr/cms/ochando/TMVA/EID"/>
    <Info name="Training events" value="99278"/>
    <Info name="TrainingTime" value="3.68789779e+02"/>
    <Info name="AnalysisType" value="Classification"/>
  </GeneralInfo>
  <Options>
    <Option name="V" modified="Yes">False</Option>
    <Option name="VerbosityLevel" modified="No">Default</Option>
    <Option name="VarTransform" modified="No">None</Option>
    <Option name="H" modified="Yes">False</Option>
    <Option name="CreateMVAPdfs" modified="No">False</Option>
    <Option name="IgnoreNegWeightsInTraining" modified="No">False</Option>
    <Option name="NTrees" modified="Yes">2000</Option>
    <Option name="RenormByClass" modified="No">False</Option>
    <Option name="BoostType" modified="Yes">Grad</Option>
    <Option name="AdaBoostR2Loss" modified="No">quadratic</Option>
    <Option name="UseBaggedGrad" modified="Yes">False</Option>
    <Option name="GradBaggingFraction" modified="No">6.000000e-01</Option>
    <Option name="Shrinkage" modified="Yes">1.000000e-01</Option>
    <Option name="AdaBoostBeta" modified="No">1.000000e+00</Option>
    <Option name="UseRandomisedTrees" modified="No">False</Option>
    <Option name="UseNvars" modified="Yes">4</Option>
    <Option name="UsePoissonNvars" modified="No">True</Option>
    <Option name="UseNTrainEvents" modified="No">99278</Option>
    <Option name="UseWeightedTrees" modified="No">True</Option>
    <Option name="UseYesNoLeaf" modified="No">True</Option>
    <Option name="NodePurityLimit" modified="No">5.000000e-01</Option>
    <Option name="SeparationType" modified="No">giniindex</Option>
    <Option name="nEventsMin" modified="Yes">100</Option>
    <Option name="nCuts" modified="Yes">2000</Option>
    <Option name="UseFisherCuts" modified="No">False</Option>
    <Option name="MinLinCorrForFisher" modified="No">8.000000e-01</Option>
    <Option name="UseExclusiveVars" modified="No">False</Option>
    <Option name="PruneStrength" modified="Yes">5.000000e+00</Option>
    <Option name="PruneMethod" modified="Yes">costcomplexity</Option>
    <Option name="PruneBeforeBoost" modified="No">False</Option>
    <Option name="PruningValFraction" modified="No">5.000000e-01</Option>
    <Option name="NNodesMax" modified="Yes">5</Option>
    <Option name="MaxDepth" modified="Yes">6</Option>
    <Option name="DoBoostMonitor" modified="No">False</Option>
    <Option name="NegWeightTreatment" modified="No">ignorenegweights</Option>
  </Options>
  <Variables NVar="18">
    <Variable VarIndex="0" Expression="ele_kfhits" Label="ele_kfhits" Title="ele_kfhits" Unit="" Internal="ele_kfhits" Type="I" Min="2.00000000e+00" Max="1.70000000e+01"/>
    <Variable VarIndex="1" Expression="ele_oldsigmaietaieta" Label="ele_oldsigmaietaieta" Title="ele_oldsigmaietaieta" Unit="" Internal="ele_oldsigmaietaieta" Type="F" Min="0.00000000e+00" Max="7.95803070e-02"/>
    <Variable VarIndex="2" Expression="ele_oldsigmaiphiiphi" Label="ele_oldsigmaiphiiphi" Title="ele_oldsigmaiphiiphi" Unit="" Internal="ele_oldsigmaiphiiphi" Type="F" Min="0.00000000e+00" Max="9.49666351e-02"/>
    <Variable VarIndex="3" Expression="ele_oldcircularity" Label="ele_oldcircularity" Title="ele_oldcircularity" Unit="" Internal="ele_oldcircularity" Type="F" Min="-5.73126373e+01" Max="1.79554882e+01"/>
    <Variable VarIndex="4" Expression="ele_oldr9" Label="ele_oldr9" Title="ele_oldr9" Unit="" Internal="ele_oldr9" Type="F" Min="-1.20035090e-01" Max="3.36095161e+01"/>
    <Variable VarIndex="5" Expression="ele_scletawidth" Label="ele_scletawidth" Title="ele_scletawidth" Unit="" Internal="ele_scletawidth" Type="F" Min="0.00000000e+00" Max="2.12050772e+00"/>
    <Variable VarIndex="6" Expression="ele_sclphiwidth" Label="ele_sclphiwidth" Title="ele_sclphiwidth" Unit="" Internal="ele_sclphiwidth" Type="F" Min="0.00000000e+00" Max="1.70237863e+00"/>
    <Variable VarIndex="7" Expression="ele_he" Label="ele_he" Title="ele_he" Unit="" Internal="ele_he" Type="F" Min="0.00000000e+00" Max="2.31170406e+01"/>
    <Variable VarIndex="8" Expression="ele_psEoverEraw" Label="ele_psEoverEraw" Title="ele_psEoverEraw" Unit="" Internal="ele_psEoverEraw" Type="F" Min="0.00000000e+00" Max="3.67088966e+01"/>
    <Variable VarIndex="9" Expression="ele_kfchi2" Label="ele_kfchi2" Title="ele_kfchi2" Unit="" Internal="ele_kfchi2" Type="F" Min="6.97889320e-08" Max="2.36435680e+01"/>
    <Variable VarIndex="10" Expression="ele_chi2_hits" Label="ele_chi2_hits" Title="ele_chi2_hits" Unit="" Internal="ele_chi2_hits" Type="F" Min="1.76888421e-01" Max="7.24482117e+02"/>
    <Variable VarIndex="11" Expression="ele_fbrem" Label="ele_fbrem" Title="ele_fbrem" Unit="" Internal="ele_fbrem" Type="F" Min="-9.99195933e-01" Max="9.98799145e-01"/>
    <Variable VarIndex="12" Expression="ele_ep" Label="ele_ep" Title="ele_ep" Unit="" Internal="ele_ep" Type="F" Min="5.62606911e-05" Max="3.78485680e+01"/>
    <Variable VarIndex="13" Expression="ele_eelepout" Label="ele_eelepout" Title="ele_eelepout" Unit="" Internal="ele_eelepout" Type="F" Min="4.63279212e-05" Max="1.66863983e+02"/>
    <Variable VarIndex="14" Expression="ele_IoEmIop" Label="ele_IoEmIop" Title="ele_IoEmIop" Unit="" Internal="ele_IoEmIop" Type="F" Min="-1.51530361e+00" Max="6.05717003e-01"/>
    <Variable VarIndex="15" Expression="ele_deltaetain" Label="ele_deltaetain" Title="ele_deltaetain" Unit="" Internal="ele_deltaetain" Type="F" Min="-4.77833366e+00" Max="6.86953449e+00"/>
    <Variable VarIndex="16" Expression="ele_deltaphiin" Label="ele_deltaphiin" Title="ele_deltaphiin" Unit="" Internal="ele_deltaphiin" Type="F" Min="-1.99044883e+00" Max="1.90444386e+00"/>
    <Variable VarIndex="17" Expression="ele_deltaetaseed" Label="ele_deltaetaseed" Title="ele_deltaetaseed" Unit="" Internal="ele_deltaetaseed" Type="F" Min="-3.98586273e+00" Max="3.24787092e+00"/>
  </Variables>
  <Spectators NSpec="3">
    <Spectator SpecIndex="0" Expression="ele_pT" Label="ele_pT" Title="ele_pT" Unit="" Internal="ele_pT" Type="F" Min="5.00000381e+00" Max="9.99987602e+00"/>
    <Spectator SpecIndex="1" Expression="ele_isbarrel" Label="ele_isbarrel" Title="ele_isbarrel" Unit="" Internal="ele_isbarrel" Type="F" Min="0.00000000e+00" Max="0.00000000e+00"/>
    <Spectator SpecIndex="2" Expression="ele_isendcap" Label="ele_isendcap" Title="ele_isendcap" Unit="" Internal="ele_isendcap" Type="F" Min="1.00000000e+00" Max="1.00000000e+00"/>
  </Spectators>
  <Classes NClass="2">
    <Class Name="Signal" Index="0"/>
    <Class Name="Background" Index="1"/>
  </Classes>
  <Transformations NTransformations="0"/>
  <MVAPdfs/>
  <Weights NTrees="2000" AnalysisType="1">
    <BinaryTree type="DecisionTree" boostWeight="1.0000000000000000e+00" itree="0">
      <Node pos="s" depth="0" NCoef="0" IVar="11" Cut="1.4508311450481415e-01" cType="0" res="-2.7061381936073303e-01" rms="4.2043805122375488e-01" purity="2.2938616573810577e-01" nType="0">
        <Node pos="l" depth="1" NCoef="0" IVar="-1" Cut="0.0000000000000000e+00" cType="1" res="-3.8673352450132370e-02" rms="4.6109575033187866e-01" purity="3.0663323402404785e-01" nType="-99"/>
        <Node pos="r" depth="1" NCoef="0" IVar="13" Cut="8.2707393169403076e-01" cType="0" res="-3.6678576469421387e-01" rms="3.3980613946914673e-01" purity="1.3321423530578613e-01" nType="0">
          <Node pos="l" depth="2" NCoef="0" IVar="-1" Cut="0.0000000000000000e+00" cType="1" res="-6.3739374279975891e-02" rms="3.8526913523674011e-01" purity="1.8130311369895935e-01" nType="-99"/>
          <Node pos="r" depth="2" NCoef="0" IVar="-1" Cut="0.0000000000000000e+00" cType="1" res="-7.7868580818176270e-02" rms="3.1370702385902405e-01" purity="1.1065709590911865e-01" nType="-99"/>
        </Node>
      </Node>
    </BinaryTree>
    <BinaryTree type="DecisionTree" boostWeight="1.0000000000000000e+00" itree="1">
      <Node pos="s" depth="0" NCoef="0" IVar="11" Cut="1.3609662652015686e-01" cType="0" res="-2.4358771741390228e-01" rms="4.1865226626396179e-01" purity="2.2938616573810577e-01" nType="0">
        <Node pos="l" depth="1" NCoef="0" IVar="-1" Cut="0.0000000000000000e+00" cType="1" res="-3.5133019089698792e-02" rms="4.6034762263298035e-01" purity="3.0499348044395447e-01" nType="-99"/>
        <Node pos="r" depth="1" NCoef="0" IVar="13" Cut="8.1681418418884277e-01" cType="0" res="-3.3216780424118042e-01" rms="3.3730915188789368e-01" purity="1.3117980957031250e-01" nType="0">
          <Node pos="l" depth="2" NCoef="0" IVar="-1" Cut="0.0000000000000000e+00" cType="1" res="-5.8545645326375961e-02" rms="3.8113942742347717e-01" purity="1.7639937996864319e-01" nType="-99"/>
          <Node pos="r" depth="2" NCoef="0" IVar="-1" Cut="0.0000000000000000e+00" cType="1" res="-7.0777952671051025e-02" rms="3.1212994456291199e-01" purity="1.0939162224531174e-01" nType="-99"/>
        </Node>
      </Node>
    </BinaryTree>
    <BinaryTree type="DecisionTree" boostWeight="1.0000000000000000e+00" itree="2">
      <Node pos="s" depth="0" NCoef="0" IVar="11" Cut="1.6105908155441284e-01" cType="0" res="-2.1934024989604950e-01" rms="4.1721722483634949e-01" purity="2.2938616573810577e-01" nType="0">
        <Node pos="l" depth="1" NCoef="0" IVar="-1" Cut="0.0000000000000000e+00" cType="1" res="-3.0997598543763161e-02" rms="4.6208813786506653e-01" purity="3.0901691317558289e-01" nType="-99"/>
        <Node pos="r" depth="1" NCoef="0" IVar="13" Cut="8.2707393169403076e-01" cType="0" res="-2.9494947195053101e-01" rms="3.4302380681037903e-01" purity="1.3703308999538422e-01" nType="0">
          <Node pos="l" depth="2" NCoef="0" IVar="-1" Cut="0.0000000000000000e+00" cType="1" res="-5.1027230918407440e-02" rms="3.9154127240180969e-01" purity="1.8968814611434937e-01" nType="-99"/>
          <Node pos="r" depth="2" NCoef="0" IVar="-1" Cut="0.0000000000000000e+00" cType="1" res="-6.4632959663867950e-02" rms="3.1421744823455811e-01" purity="1.1110389977693558e-01" nType="-99"/>
        </Node>
      </Node>
    </BinaryTree>
    <BinaryTree type="DecisionTree" boostWeight="1.0000000000000000e+00" itree="3">
      <Node pos="s" depth="0" NCoef="0" IVar="11" Cut="1.3010562956333160e-01" cType="0" res="-1.9755849242210388e-01" rms="4.1601696610450745e-01" purity="2.2938616573810577e-01" nType="0">
        <Node pos="l" depth="1" NCoef="0" IVar="-1" Cut="0.0000000000000000e+00" cType="1" res="-2.8893999755382538e-02" rms="4.5947280526161194e-01" purity="3.0350804328918457e-01" nType="-99"/>
        <Node pos="r" depth="1" NCoef="0" IVar="12" Cut="1.0238440036773682e+00" cType="0" res="-2.7110725641250610e-01" rms="3.3548972010612488e-01" purity="1.2987257540225983e-01" nType="0">
          <Node pos="l" depth="2" NCoef="0" IVar="-1" Cut="0.0000000000000000e+00" cType="1" res="-5.2277192473411560e-02" rms="3.5887682437896729e-01" purity="1.5238769352436066e-01" nType="-99"/>
          <Node pos="r" depth="2" NCoef="0" IVar="-1" Cut="0.0000000000000000e+00" cType="1" res="-6.1936199665069580e-02" rms="3.0035820603370667e-01" purity="1.0047873109579086e-01" nType="-99"/>
        </Node>
      </Node>
    </BinaryTree>
    <BinaryTree type="DecisionTree" boostWeight="1.0000000000000000e+00" itree="4">
      <Node pos="s" depth="0" NCoef="0" IVar="11" Cut="1.7004556953907013e-01" cType="0" res="-1.7797201871871948e-01" rms="4.1507250070571899e-01" purity="2.2938616573810577e-01" nType="0">
        <Node pos="l" depth="1" NCoef="0" IVar="-1" Cut="0.0000000000000000e+00" cType="1" res="-2.5141509249806404e-02" rms="4.6251767873764038e-01" purity="3.1005948781967163e-01" nType="-99"/>
        <Node pos="r" depth="1" NCoef="0" IVar="13" Cut="8.9889222383499146e-01" cType="0" res="-2.3899334669113159e-01" rms="3.4438976645469666e-01" purity="1.3903480768203735e-01" nType="0">
          <Node pos="l" depth="2" NCoef="0" IVar="-1" Cut="0.0000000000000000e+00" cType="1" res="-4.0036056190729141e-02" rms="4.0096643567085266e-01" purity="2.0294530689716339e-01" nType="-99"/>
          <Node pos="r" depth="2" NCoef="0" IVar="-1" Cut="0.0000000000000000e+00" cType="1" res="-5.4729562252759933e-02" rms="3.2071191072463989e-01" purity="1.1680050939321518e-01" nType="-99"/>
        </Node>
      </Node>
    </BinaryTree>
    <BinaryTree type="DecisionTree" boostWeight="1.0000000000000000e+00" itree="5">
      <Node pos="s" depth="0" NCoef="0" IVar="1" Cut="3.6827269941568375e-02" cType="1" res="-1.6035038232803345e-01" rms="4.1424831748008728e-01" purity="2.2938616573810577e-01" nType="0">
        <Node pos="l" depth="1" NCoef="0" IVar="-1" Cut="0.0000000000000000e+00" cType="1" res="-1.6149459406733513e-02" rms="4.5758083462715149e-01" purity="3.1793293356895447e-01" nType="-99"/>
        <Node pos="r" depth="1" NCoef="0" IVar="10" Cut="1.9867465496063232e+00" cType="1" res="-1.9804729521274567e-01" rms="3.8728123903274536e-01" purity="1.8943768739700317e-01" nType="0">
          <Node pos="l" depth="2" NCoef="0" IVar="-1" Cut="0.0000000000000000e+00" cType="1" res="-3.7967436015605927e-02" rms="3.9228910207748413e-01" purity="1.9993866980075836e-01" nType="-99"/>
          <Node pos="r" depth="2" NCoef="0" IVar="-1" Cut="0.0000000000000000e+00" cType="1" res="-5.1600743085145950e-02" rms="3.6942493915557861e-01" purity="1.6309365630149841e-01" nType="-99"/>
        </Node>
      </Node>
    </BinaryTree>
    <BinaryTree type="DecisionTree" boostWeight="1.0000000000000000e+00" itree="6">
      <Node pos="s" depth="0" NCoef="0" IVar="11" Cut="1.1912215501070023e-01" cType="0" res="-1.4445520937442780e-01" rms="4.1343846917152405e-01" purity="2.2938616573810577e-01" nType="0">
        <Node pos="l" depth="1" NCoef="0" IVar="-1" Cut="0.0000000000000000e+00" cType="1" res="-2.0856438204646111e-02" rms="4.5638740062713623e-01" purity="3.0051645636558533e-01" nType="-99"/>
        <Node pos="r" depth="1" NCoef="0" IVar="8" Cut="8.1760197877883911e-02" cType="0" res="-2.0807376503944397e-01" rms="3.3244505524635315e-01" purity="1.2744472920894623e-01" nType="0">
          <Node pos="l" depth="2" NCoef="0" IVar="-1" Cut="0.0000000000000000e+00" cType="1" res="-4.2157303541898727e-02" rms="3.5448056459426880e-01" purity="1.4867824316024780e-01" nType="-99"/>
          <Node pos="r" depth="2" NCoef="0" IVar="-1" Cut="0.0000000000000000e+00" cType="1" res="-5.0925441086292267e-02" rms="3.0947637557983398e-01" purity="1.0775189846754074e-01" nType="-99"/>
        </Node>
      </Node>
    </BinaryTree>
    <BinaryTree type="DecisionTree" boostWeight="1.0000000000000000e+00" itree="7">
      <Node pos="s" depth="0" NCoef="0" IVar="1" Cut="3.5833012312650681e-02" cType="1" res="-1.3017149269580841e-01" rms="4.1279003024101257e-01" purity="2.2938616573810577e-01" nType="0">
        <Node pos="l" depth="1" NCoef="0" IVar="-1" Cut="0.0000000000000000e+00" cType="1" res="-1.0222787037491798e-02" rms="4.5980644226074219e-01" purity="3.2638272643089294e-01" nType="-99"/>
        <Node pos="r" depth="1" NCoef="0" IVar="10" Cut="1.9867465496063232e+00" cType="1" res="-1.6110566258430481e-01" rms="3.8925585150718689e-01" purity="1.9306382536888123e-01" nType="0">
          <Node pos="l" depth="2" NCoef="0" IVar="-1" Cut="0.0000000000000000e+00" cType="1" res="-3.1357537955045700e-02" rms="3.9433094859123230e-01" purity="2.0413057506084442e-01" nType="-99"/>
          <Node pos="r" depth="2" NCoef="0" IVar="-1" Cut="0.0000000000000000e+00" cType="1" res="-4.5327559113502502e-02" rms="3.7122836709022522e-01" purity="1.6517204046249390e-01" nType="-99"/>
        </Node>
      </Node>
    </BinaryTree>
    <BinaryTree type="DecisionTree" boostWeight="1.0000000000000000e+00" itree="8">
      <Node pos="s" depth="0" NCoef="0" IVar="11" Cut="1.8202754855155945e-01" cType="0" res="-1.1728045344352722e-01" rms="4.1211158037185669e-01" purity="2.2938616573810577e-01" nType="0">
        <Node pos="l" depth="1" NCoef="0" IVar="-1" Cut="0.0000000000000000e+00" cType="1" res="-1.4733703806996346e-02" rms="4.6017438173294067e-01" purity="3.1100189685821533e-01" nType="-99"/>
        <Node pos="r" depth="1" NCoef="0" IVar="13" Cut="8.2707393169403076e-01" cType="0" res="-1.6885292530059814e-01" rms="3.4575891494750977e-01" purity="1.4147627353668213e-01" nType="0">
          <Node pos="l" depth="2" NCoef="0" IVar="-1" Cut="0.0000000000000000e+00" cType="1" res="-2.9868500307202339e-02" rms="3.9565971493721008e-01" purity="1.9827480614185333e-01" nType="-99"/>
          <Node pos="r" depth="2" NCoef="0" IVar="-1" Cut="0.0000000000000000e+00" cType="1" res="-4.4843543320894241e-02" rms="3.1501856446266174e-01" purity="1.1195548623800278e-01" nType="-99"/>
        </Node>
      </Node>
    </BinaryTree>
    <BinaryTree type="DecisionTree" boostWeight="1.0000000000000000e+00" itree="9">
      <Node pos="s" depth="0" NCoef="0" IVar="1" Cut="3.9213486015796661e-02" cType="1" res="-1.0569619387388229e-01" rms="4.1149601340293884e-01" purity="2.2938616573810577e-01" nType="0">
        <Node pos="l" depth="1" NCoef="0" IVar="-1" Cut="0.0000000000000000e+00" cType="1" res="-1.1144309304654598e-02" rms="4.4729301333427429e-01" purity="2.9900187253952026e-01" nType="-99"/>
        <Node pos="r" depth="1" NCoef="0" IVar="10" Cut="1.9867465496063232e+00" cType="1" res="-1.4453151822090149e-01" rms="3.7967008352279663e-01" purity="1.8066161870956421e-01" nType="0">
          <Node pos="l" depth="2" NCoef="0" IVar="-1" Cut="0.0000000000000000e+00" cType="1" res="-2.9413286596536636e-02" rms="3.8396331667900085e-01" purity="1.8985143303871155e-01" nType="-99"/>
          <Node pos="r" depth="2" NCoef="0" IVar="-1" Cut="0.0000000000000000e+00" cType="1" res="-4.1961554437875748e-02" rms="3.6502209305763245e-01" purity="1.5816506743431091e-01" nType="-99"/>
        </Node>
      </Node>
    </BinaryTree>
    <BinaryTree type="DecisionTree" boostWeight="1.0000000000000000e+00" itree="10">
      <Node pos="s" depth="0" NCoef="0" IVar="11" Cut="1.7004556953907013e-01" cType="0" res="-9.5232702791690826e-02" rms="4.1096508502960205e-01" purity="2.2938616573810577e-01" nType="0">
        <Node pos="l" depth="1" NCoef="0" IVar="-1" Cut="0.0000000000000000e+00" cType="1" res="-1.1254787445068359e-02" rms="4.5879808068275452e-01" purity="3.1005948781967163e-01" nType="-99"/>
        <Node pos="r" depth="1" NCoef="0" IVar="8" Cut="8.1760197877883911e-02" cType="0" res="-1.4375412464141846e-01" rms="3.4328043460845947e-01" purity="1.3903480768203735e-01" nType="0">
          <Node pos="l" depth="2" NCoef="0" IVar="-1" Cut="0.0000000000000000e+00" cType="1" res="-2.9222620651125908e-02" rms="3.6946982145309448e-01" purity="1.6731634736061096e-01" nType="-99"/>
          <Node pos="r" depth="2" NCoef="0" IVar="-1" Cut="0.0000000000000000e+00" cType="1" res="-4.1910734027624130e-02" rms="3.1317722797393799e-01" purity="1.1092186719179153e-01" nType="-99"/>
        </Node>
      </Node>
    </BinaryTree>
    <BinaryTree type="DecisionTree" boostWeight="1.0000000000000000e+00" itree="11">
      <Node pos="s" depth="0" NCoef="0" IVar="1" Cut="3.5276226699352264e-02" cType="1" res="-8.5827358067035675e-02" rms="4.1045349836349487e-01" purity="2.2938616573810577e-01" nType="0">
        <Node pos="l" depth="1" NCoef="0" IVar="-1" Cut="0.0000000000000000e+00" cType="1" res="-2.9425821267068386e-03" rms="4.5970964431762695e-01" purity="3.3112663030624390e-01" nType="-99"/>
        <Node pos="r" depth="1" NCoef="0" IVar="10" Cut="1.9867465496063232e+00" cType="1" res="-1.1018767952919006e-01" rms="3.8953951001167297e-01" purity="1.9528202712535858e-01" nType="0">
          <Node pos="l" depth="2" NCoef="0" IVar="-1" Cut="0.0000000000000000e+00" cType="1" res="-2.1898036822676659e-02" rms="3.9424005150794983e-01" purity="2.0641203224658966e-01" nType="-99"/>
          <Node pos="r" depth="2" NCoef="0" IVar="-1" Cut="0.0000000000000000e+00" cType="1" res="-3.6538101732730865e-02" rms="3.7272441387176514e-01" purity="1.6709426045417786e-01" nType="-99"/>
        </Node>
      </Node>
    </BinaryTree>
    <BinaryTree type="DecisionTree" boostWeight="1.0000000000000000e+00" itree="12">
      <Node pos="s" depth="0" NCoef="0" IVar="11" Cut="1.1313116550445557e-01" cType="0" res="-7.7330969274044037e-02" rms="4.0994825959205627e-01" purity="2.2938616573810577e-01" nType="0">
        <Node pos="l" depth="1" NCoef="0" IVar="-1" Cut="0.0000000000000000e+00" cType="1" res="-9.4386972486972809e-03" rms="4.5198598504066467e-01" purity="2.9847207665443420e-01" nType="-99"/>
        <Node pos="r" depth="1" NCoef="0" IVar="12" Cut="1.0615549087524414e+00" cType="0" res="-1.2981761991977692e-01" rms="3.3057203888893127e-01" purity="1.2607766687870026e-01" nType="0">
          <Node pos="l" depth="2" NCoef="0" IVar="-1" Cut="0.0000000000000000e+00" cType="1" res="-2.9357876628637314e-02" rms="3.5534533858299255e-01" purity="1.4933523535728455e-01" nType="-99"/>
          <Node pos="r" depth="2" NCoef="0" IVar="-1" Cut="0.0000000000000000e+00" cType="1" res="-3.9756633341312408e-02" rms="2.9922056198120117e-01" purity="9.9919892847537994e-02" nType="-99"/>
        </Node>
      </Node>
    </BinaryTree>
    <BinaryTree type="DecisionTree" boostWeight="1.0000000000000000e+00" itree="13">
      <Node pos="s" depth="0" NCoef="0" IVar="10" Cut="1.6247749328613281e+00" cType="1" res="-6.9695234298706055e-02" rms="4.0952694416046143e-01" purity="2.2938616573810577e-01" nType="0">
        <Node pos="l" depth="1" NCoef="0" IVar="-1" Cut="0.0000000000000000e+00" cType="1" res="-1.0592087171971798e-02" rms="4.1461035609245300e-01" purity="2.4640294909477234e-01" nType="-99"/>
        <Node pos="r" depth="1" NCoef="0" IVar="5" Cut="2.5433376431465149e-02" cType="1" res="-1.2993404269218445e-01" rms="3.9120635390281677e-01" purity="1.9108739495277405e-01" nType="0">
          <Node pos="l" depth="2" NCoef="0" IVar="-1" Cut="0.0000000000000000e+00" cType="1" res="-2.4198578670620918e-02" rms="4.1089498996734619e-01" purity="2.1971444785594940e-01" nType="-99"/>
          <Node pos="r" depth="2" NCoef="0" IVar="-1" Cut="0.0000000000000000e+00" cType="1" res="-3.6574505269527435e-02" rms="3.6628040671348572e-01" purity="1.5942628681659698e-01" nType="-99"/>
        </Node>
      </Node>
    </BinaryTree>
    <BinaryTree type="DecisionTree" boostWeight="1.0000000000000000e+00" itree="14">
      <Node pos="s" depth="0" NCoef="0" IVar="11" Cut="1.8202754855155945e-01" cType="0" res="-6.2783919274806976e-02" rms="4.0918159484863281e-01" purity="2.2938616573810577e-01" nType="0">
        <Node pos="l" depth="1" NCoef="0" IVar="-1" Cut="0.0000000000000000e+00" cType="1" res="-5.1623857580125332e-03" rms="4.5716992020606995e-01" purity="3.1100189685821533e-01" nType="-99"/>
        <Node pos="r" depth="1" NCoef="0" IVar="13" Cut="8.9889222383499146e-01" cType="0" res="-1.0574893653392792e-01" rms="3.4509241580963135e-01" purity="1.4147627353668213e-01" nType="0">
          <Node pos="l" depth="2" NCoef="0" IVar="-1" Cut="0.0000000000000000e+00" cType="1" res="-1.6609594225883484e-02" rms="4.0132796764373779e-01" purity="2.0763684809207916e-01" nType="-99"/>
          <Node pos="r" depth="2" NCoef="0" IVar="-1" Cut="0.0000000000000000e+00" cType="1" res="-3.3232826739549637e-02" rms="3.2131493091583252e-01" purity="1.1773235350847244e-01" nType="-99"/>
        </Node>
      </Node>
    </BinaryTree>
    <BinaryTree type="DecisionTree" boostWeight="1.0000000000000000e+00" itree="15">
      <Node pos="s" depth="0" NCoef="0" IVar="1" Cut="3.9213486015796661e-02" cType="1" res="-5.6587800383567810e-02" rms="4.0874525904655457e-01" purity="2.2938616573810577e-01" nType="0">
        <Node pos="l" depth="1" NCoef="0" IVar="-1" Cut="0.0000000000000000e+00" cType="1" res="-2.4635198060423136e-03" rms="4.4442179799079895e-01" purity="2.9900187253952026e-01" nType="-99"/>
        <Node pos="r" depth="1" NCoef="0" IVar="10" Cut="3.4346330165863037e+00" cType="1" res="-8.8932365179061890e-02" rms="3.7845471501350403e-01" purity="1.8066161870956421e-01" nType="0">
          <Node pos="l" depth="2" NCoef="0" IVar="-1" Cut="0.0000000000000000e+00" cType="1" res="-1.9595092162489891e-02" rms="3.8249087333679199e-01" purity="1.8875493109226227e-01" nType="-99"/>
          <Node pos="r" depth="2" NCoef="0" IVar="-1" Cut="0.0000000000000000e+00" cType="1" res="-3.3207245171070099e-02" rms="3.6045786738395691e-01" purity="1.5316264331340790e-01" nType="-99"/>
        </Node>
      </Node>
    </BinaryTree>
    <BinaryTree type="DecisionTree" boostWeight="1.0000000000000000e+00" itree="16">
      <Node pos="s" depth="0" NCoef="0" IVar="11" Cut="1.8202754855155945e-01" cType="0" res="-5.0985824316740036e-02" rms="4.0835928916931152e-01" purity="2.2938616573810577e-01" nType="0">
        <Node pos="l" depth="1" NCoef="0" IVar="-1" Cut="0.0000000000000000e+00" cType="1" res="-3.2509167212992907e-03" rms="4.5643246173858643e-01" purity="3.1100189685821533e-01" nType="-99"/>
        <Node pos="r" depth="1" NCoef="0" IVar="8" Cut="6.8133503198623657e-02" cType="0" res="-9.0598307549953461e-02" rms="3.4489417076110840e-01" purity="1.4147627353668213e-01" nType="0">
          <Node pos="l" depth="2" NCoef="0" IVar="-1" Cut="0.0000000000000000e+00" cType="1" res="-1.9290080294013023e-02" rms="3.6895918846130371e-01" purity="1.6803278028964996e-01" nType="-99"/>
          <Node pos="r" depth="2" NCoef="0" IVar="-1" Cut="0.0000000000000000e+00" cType="1" res="-3.3534783869981766e-02" rms="3.1083151698112488e-01" purity="1.0884163528680801e-01" nType="-99"/>
        </Node>
      </Node>
    </BinaryTree>
    <BinaryTree type="DecisionTree" boostWeight="1.0000000000000000e+00" itree="17">
      <Node pos="s" depth="0" NCoef="0" IVar="10" Cut="1.6247749328613281e+00" cType="1" res="-4.5952636748552322e-02" rms="4.0798521041870117e-01" purity="2.2938616573810577e-01" nType="0">
        <Node pos="l" depth="1" NCoef="0" IVar="-1" Cut="0.0000000000000000e+00" cType="1" res="-5.2728084847331047e-03" rms="4.1272434592247009e-01" purity="2.4640294909477234e-01" nType="-99"/>
        <Node pos="r" depth="1" NCoef="0" IVar="10" Cut="5.5988054275512695e+00" cType="1" res="-1.0386651009321213e-01" rms="3.9096531271934509e-01" purity="1.9108739495277405e-01" nType="0">
          <Node pos="l" depth="2" NCoef="0" IVar="-1" Cut="0.0000000000000000e+00" cType="1" res="-1.8987700343132019e-02" rms="4.0592345595359802e-01" purity="2.1375831961631775e-01" nType="-99"/>
          <Node pos="r" depth="2" NCoef="0" IVar="-1" Cut="0.0000000000000000e+00" cType="1" res="-3.0209975317120552e-02" rms="3.7703102827072144e-01" purity="1.7269600927829742e-01" nType="-99"/>
        </Node>
      </Node>
    </BinaryTree>
    <BinaryTree type="DecisionTree" boostWeight="1.0000000000000000e+00" itree="18">
      <Node pos="s" depth="0" NCoef="0" IVar="14" Cut="-2.1791344508528709e-02" cType="0" res="-4.1394811123609543e-02" rms="4.0764212608337402e-01" purity="2.2938616573810577e-01" nType="0">
        <Node pos="l" depth="1" NCoef="0" IVar="-1" Cut="0.0000000000000000e+00" cType="1" res="-3.4760092385113239e-03" rms="4.1641184687614441e-01" purity="2.5402602553367615e-01" nType="-99"/>
        <Node pos="r" depth="1" NCoef="0" IVar="14" Cut="-8.5234284400939941e-02" cType="0" res="-9.2289566993713379e-02" rms="3.8604763150215149e-01" purity="1.8464417755603790e-01" nType="0">
          <Node pos="l" depth="2" NCoef="0" IVar="-1" Cut="0.0000000000000000e+00" cType="1" res="-2.1089652553200722e-02" rms="3.9114519953727722e-01" purity="1.9214257597923279e-01" nType="-99"/>
          <Node pos="r" depth="2" NCoef="0" IVar="-1" Cut="0.0000000000000000e+00" cType="1" res="-3.1538993120193481e-02" rms="3.6464625597000122e-01" purity="1.5707084536552429e-01" nType="-99"/>
        </Node>
      </Node>
    </BinaryTree>
    <BinaryTree type="DecisionTree" boostWeight="1.0000000000000000e+00" itree="19">
      <Node pos="s" depth="0" NCoef="0" IVar="11" Cut="1.2311614304780960e-01" cType="0" res="-3.7291076034307480e-02" rms="4.0730449557304382e-01" purity="2.2938616573810577e-01" nType="0">
        <Node pos="l" depth="1" NCoef="0" IVar="-1" Cut="0.0000000000000000e+00" cType="1" res="-1.3148412108421326e-03" rms="4.5045307278633118e-01" purity="3.0165147781372070e-01" nType="-99"/>
        <Node pos="r" depth="1" NCoef="0" IVar="12" Cut="1.0615549087524414e+00" cType="0" res="-8.1665240228176117e-02" rms="3.3280095458030701e-01" purity="1.2831601500511169e-01" nType="0">
          <Node pos="l" depth="2" NCoef="0" IVar="-1" Cut="0.0000000000000000e+00" cType="1" res="-1.9064685329794884e-02" rms="3.5799515247344971e-01" purity="1.5237185359001160e-01" nType="-99"/>
          <Node pos="r" depth="2" NCoef="0" IVar="-1" Cut="0.0000000000000000e+00" cType="1" res="-3.1372323632240295e-02" rms="3.0061551928520203e-01" purity="1.0111202299594879e-01" nType="-99"/>
        </Node>
      </Node>
    </BinaryTree>
    <BinaryTree type="DecisionTree" boostWeight="1.0000000000000000e+00" itree="20">
      <Node pos="s" depth="0" NCoef="0" IVar="10" Cut="1.9867465496063232e+00" cType="1" res="-3.3614210784435272e-02" rms="4.0695855021476746e-01" purity="2.2938616573810577e-01" nType="0">
        <Node pos="l" depth="1" NCoef="0" IVar="-1" Cut="0.0000000000000000e+00" cType="1" res="-3.0248155817389488e-03" rms="4.1206383705139160e-01" purity="2.4597062170505524e-01" nType="-99"/>
        <Node pos="r" depth="1" NCoef="0" IVar="5" Cut="2.5632983073592186e-02" cType="1" res="-9.0414851903915405e-02" rms="3.8790747523307800e-01" purity="1.8714495003223419e-01" nType="0">
          <Node pos="l" depth="2" NCoef="0" IVar="-1" Cut="0.0000000000000000e+00" cType="1" res="-1.7336415126919746e-02" rms="4.0742215514183044e-01" purity="2.1502749621868134e-01" nType="-99"/>
          <Node pos="r" depth="2" NCoef="0" IVar="-1" Cut="0.0000000000000000e+00" cType="1" res="-2.9039859771728516e-02" rms="3.6363241076469421e-01" purity="1.5615570545196533e-01" nType="-99"/>
        </Node>
      </Node>
    </BinaryTree>
    <BinaryTree type="DecisionTree" boostWeight="1.0000000000000000e+00" itree="21">
      <Node pos="s" depth="0" NCoef="0" IVar="11" Cut="1.8202754855155945e-01" cType="0" res="-3.0281528830528259e-02" rms="4.0665355324745178e-01" purity="2.2938616573810577e-01" nType="0">
        <Node pos="l" depth="1" NCoef="0" IVar="-1" Cut="0.0000000000000000e+00" cType="1" res="1.0333319660276175e-03" rms="4.5393759012222290e-01" purity="3.1100189685821533e-01" nType="-99"/>
        <Node pos="r" depth="1" NCoef="0" IVar="13" Cut="8.2707393169403076e-01" cType="0" res="-6.7603446543216705e-02" rms="3.4474715590476990e-01" purity="1.4147627353668213e-01" nType="0">
          <Node pos="l" depth="2" NCoef="0" IVar="-1" Cut="0.0000000000000000e+00" cType="1" res="-1.0153309442102909e-02" rms="3.9363804459571838e-01" purity="1.9827480614185333e-01" nType="-99"/>
          <Node pos="r" depth="2" NCoef="0" IVar="-1" Cut="0.0000000000000000e+00" cType="1" res="-2.6728255674242973e-02" rms="3.1513619422912598e-01" purity="1.1195548623800278e-01" nType="-99"/>
        </Node>
      </Node>
    </BinaryTree>
    <BinaryTree type="DecisionTree" boostWeight="1.0000000000000000e+00" itree="22">
      <Node pos="s" depth="0" NCoef="0" IVar="1" Cut="3.4639902412891388e-02" cType="1" res="-2.7299506589770317e-02" rms="4.0629622340202332e-01" purity="2.2938616573810577e-01" nType="0">
        <Node pos="l" depth="1" NCoef="0" IVar="-1" Cut="0.0000000000000000e+00" cType="1" res="9.0246088802814484e-03" rms="4.5604023337364197e-01" purity="3.3604815602302551e-01" nType="-99"/>
        <Node pos="r" depth="1" NCoef="0" IVar="10" Cut="1.6247749328613281e+00" cType="1" res="-4.6283032745122910e-02" rms="3.8840141892433167e-01" purity="1.9796311855316162e-01" nType="0">
          <Node pos="l" depth="2" NCoef="0" IVar="-1" Cut="0.0000000000000000e+00" cType="1" res="-8.3820680156350136e-03" rms="3.9234569668769836e-01" purity="2.0927339792251587e-01" nType="-99"/>
          <Node pos="r" depth="2" NCoef="0" IVar="-1" Cut="0.0000000000000000e+00" cType="1" res="-2.2044887766242027e-02" rms="3.7679490447044373e-01" purity="1.7256993055343628e-01" nType="-99"/>
        </Node>
      </Node>
    </BinaryTree>
    <BinaryTree type="DecisionTree" boostWeight="1.0000000000000000e+00" itree="23">
      <Node pos="s" depth="0" NCoef="0" IVar="14" Cut="-2.0731363445520401e-02" cType="0" res="-2.4600172415375710e-02" rms="4.0591290593147278e-01" purity="2.2938616573810577e-01" nType="0">
        <Node pos="l" depth="1" NCoef="0" IVar="-1" Cut="0.0000000000000000e+00" cType="1" res="4.1877469629980624e-04" rms="4.1432949900627136e-01" purity="2.5449642539024353e-01" nType="-99"/>
        <Node pos="r" depth="1" NCoef="0" IVar="11" Cut="1.6144220530986786e-01" cType="0" res="-7.0102326571941376e-02" rms="3.8663971424102783e-01" purity="1.8568509817123413e-01" nType="0">
          <Node pos="l" depth="2" NCoef="0" IVar="-1" Cut="0.0000000000000000e+00" cType="1" res="-2.0397562533617020e-02" rms="4.0378329157829285e-01" purity="2.0862606167793274e-01" nType="-99"/>
          <Node pos="r" depth="2" NCoef="0" IVar="-1" Cut="0.0000000000000000e+00" cType="1" res="-1.5601555816829205e-02" rms="3.5923218727111816e-01" purity="1.5222260355949402e-01" nType="-99"/>
        </Node>
      </Node>
    </BinaryTree>
    <BinaryTree type="DecisionTree" boostWeight="1.0000000000000000e+00" itree="24">
      <Node pos="s" depth="0" NCoef="0" IVar="11" Cut="1.8202754855155945e-01" cType="0" res="-2.2162271663546562e-02" rms="4.0560871362686157e-01" purity="2.2938616573810577e-01" nType="0">
        <Node pos="l" depth="1" NCoef="0" IVar="-1" Cut="0.0000000000000000e+00" cType="1" res="2.5747152976691723e-03" rms="4.5252174139022827e-01" purity="3.1100189685821533e-01" nType="-99"/>
        <Node pos="r" depth="1" NCoef="0" IVar="8" Cut="8.1760197877883911e-02" cType="0" res="-5.7596750557422638e-02" rms="3.4457942843437195e-01" purity="1.4147627353668213e-01" nType="0">
          <Node pos="l" depth="2" NCoef="0" IVar="-1" Cut="0.0000000000000000e+00" cType="1" res="-1.0807862505316734e-02" rms="3.7089720368385315e-01" purity="1.7097324132919312e-01" nType="-99"/>
          <Node pos="r" depth="2" NCoef="0" IVar="-1" Cut="0.0000000000000000e+00" cType="1" res="-2.6052478700876236e-02" rms="3.1410196423530579e-01" purity="1.1164415627717972e-01" nType="-99"/>
        </Node>
      </Node>
    </BinaryTree>
    <BinaryTree type="DecisionTree" boostWeight="1.0000000000000000e+00" itree="25">
      <Node pos="s" depth="0" NCoef="0" IVar="10" Cut="1.6247749328613281e+00" cType="1" res="-1.9982390105724335e-02" rms="4.0527769923210144e-01" purity="2.2938616573810577e-01" nType="0">
        <Node pos="l" depth="1" NCoef="0" IVar="-1" Cut="0.0000000000000000e+00" cType="1" res="5.5593467550352216e-04" rms="4.0980136394500732e-01" purity="2.4640294909477234e-01" nType="-99"/>
        <Node pos="r" depth="1" NCoef="0" IVar="10" Cut="6.6825489997863770e+00" cType="1" res="-6.9453053176403046e-02" rms="3.9040595293045044e-01" purity="1.9108739495277405e-01" nType="0">
          <Node pos="l" depth="2" NCoef="0" IVar="-1" Cut="0.0000000000000000e+00" cType="1" res="-1.2725206092000008e-02" rms="4.0331184864044189e-01" purity="2.1086467802524567e-01" nType="-99"/>
          <Node pos="r" depth="2" NCoef="0" IVar="-1" Cut="0.0000000000000000e+00" cType="1" res="-2.3963261395692825e-02" rms="3.7524792551994324e-01" purity="1.7055918276309967e-01" nType="-99"/>
        </Node>
      </Node>
    </BinaryTree>
    <BinaryTree type="DecisionTree" boostWeight="1.0000000000000000e+00" itree="26">
      <Node pos="s" depth="0" NCoef="0" IVar="11" Cut="1.1313116550445557e-01" cType="0" res="-1.8004147335886955e-02" rms="4.0497839450836182e-01" purity="2.2938616573810577e-01" nType="0">
        <Node pos="l" depth="1" NCoef="0" IVar="-1" Cut="0.0000000000000000e+00" cType="1" res="2.1219921763986349e-03" rms="4.4595122337341309e-01" purity="2.9847207665443420e-01" nType="-99"/>
        <Node pos="r" depth="1" NCoef="0" IVar="0" Cut="8.0044975280761719e+00" cType="1" res="-5.7849928736686707e-02" rms="3.3048793673515320e-01" purity="1.2607766687870026e-01" nType="0">
          <Node pos="l" depth="2" NCoef="0" IVar="-1" Cut="0.0000000000000000e+00" cType="1" res="-1.2359236134216189e-03" rms="3.7850564718246460e-01" purity="1.7565760016441345e-01" nType="-99"/>
          <Node pos="r" depth="2" NCoef="0" IVar="-1" Cut="0.0000000000000000e+00" cType="1" res="-2.1590977907180786e-02" rms="3.2322496175765991e-01" purity="1.1977676302194595e-01" nType="-99"/>
        </Node>
      </Node>
    </BinaryTree>
    <BinaryTree type="DecisionTree" boostWeight="1.0000000000000000e+00" itree="27">
      <Node pos="s" depth="0" NCoef="0" IVar="1" Cut="4.1480388492345810e-02" cType="1" res="-1.6235264018177986e-02" rms="4.0469127893447876e-01" purity="2.2938616573810577e-01" nType="0">
        <Node pos="l" depth="1" NCoef="0" IVar="-1" Cut="0.0000000000000000e+00" cType="1" res="4.0128543041646481e-03" rms="4.3105870485305786e-01" purity="2.8216606378555298e-01" nType="-99"/>
        <Node pos="r" depth="1" NCoef="0" IVar="10" Cut="1.3213635683059692e+00" cType="1" res="-4.9459964036941528e-02" rms="3.7203347682952881e-01" purity="1.7378534376621246e-01" nType="0">
          <Node pos="l" depth="2" NCoef="0" IVar="-1" Cut="0.0000000000000000e+00" cType="1" res="-1.0833418928086758e-02" rms="3.7474256753921509e-01" purity="1.8185296654701233e-01" nType="-99"/>
          <Node pos="r" depth="2" NCoef="0" IVar="-1" Cut="0.0000000000000000e+00" cType="1" res="-2.0954549312591553e-02" rms="3.6569112539291382e-01" purity="1.5888345241546631e-01" nType="-99"/>
        </Node>
      </Node>
    </BinaryTree>
    <BinaryTree type="DecisionTree" boostWeight="1.0000000000000000e+00" itree="28">
      <Node pos="s" depth="0" NCoef="0" IVar="14" Cut="-2.2851325571537018e-02" cType="0" res="-1.4633709564805031e-02" rms="4.0439248085021973e-01" purity="2.2938616573810577e-01" nType="0">
        <Node pos="l" depth="1" NCoef="0" IVar="-1" Cut="0.0000000000000000e+00" cType="1" res="2.2676901426166296e-03" rms="4.1238185763359070e-01" purity="2.5356125831604004e-01" nType="-99"/>
        <Node pos="r" depth="1" NCoef="0" IVar="11" Cut="1.6144220530986786e-01" cType="0" res="-5.7727973908185959e-02" rms="3.8516962528228760e-01" purity="1.8367643654346466e-01" nType="0">
          <Node pos="l" depth="2" NCoef="0" IVar="-1" Cut="0.0000000000000000e+00" cType="1" res="-1.8501626327633858e-02" rms="4.0132394433021545e-01" purity="2.0528088510036469e-01" nType="-99"/>
          <Node pos="r" depth="2" NCoef="0" IVar="-1" Cut="0.0000000000000000e+00" cType="1" res="-1.1305931024253368e-02" rms="3.5863459110260010e-01" purity="1.5172512829303741e-01" nType="-99"/>
        </Node>
      </Node>
    </BinaryTree>
    <BinaryTree type="DecisionTree" boostWeight="1.0000000000000000e+00" itree="29">
      <Node pos="s" depth="0" NCoef="0" IVar="11" Cut="1.8202754855155945e-01" cType="0" res="-1.3186541385948658e-02" rms="4.0410748124122620e-01" purity="2.2938616573810577e-01" nType="0">
        <Node pos="l" depth="1" NCoef="0" IVar="-1" Cut="0.0000000000000000e+00" cType="1" res="4.0399855934083462e-03" rms="4.5055580139160156e-01" purity="3.1100189685821533e-01" nType="-99"/>
        <Node pos="r" depth="1" NCoef="0" IVar="13" Cut="9.3993121385574341e-01" cType="0" res="-4.5276340097188950e-02" rms="3.4432244300842285e-01" purity="1.4147627353668213e-01" nType="0">
          <Node pos="l" depth="2" NCoef="0" IVar="-1" Cut="0.0000000000000000e+00" cType="1" res="-1.6612194012850523e-03" rms="4.0151384472846985e-01" purity="2.1136508882045746e-01" nType="-99"/>
          <Node pos="r" depth="2" NCoef="0" IVar="-1" Cut="0.0000000000000000e+00" cType="1" res="-1.9659083336591721e-02" rms="3.2438427209854126e-01" purity="1.2063017487525940e-01" nType="-99"/>
        </Node>
      </Node>
    </BinaryTree>
    <BinaryTree type="DecisionTree" boostWeight="1.0000000000000000e+00" itree="30">
      <Node pos="s" depth="0" NCoef="0" IVar="10" Cut="1.6247749328613281e+00" cType="1" res="-1.1895801872014999e-02" rms="4.0381333231925964e-01" purity="2.2938616573810577e-01" nType="0">
        <Node pos="l" depth="1" NCoef="0" IVar="-1" Cut="0.0000000000000000e+00" cType="1" res="2.5113062001764774e-03" rms="4.0804129838943481e-01" purity="2.4640294909477234e-01" nType="-99"/>
        <Node pos="r" depth="1" NCoef="0" IVar="11" Cut="1.3332490622997284e-01" cType="0" res="-5.8483507484197617e-02" rms="3.9013478159904480e-01" purity="1.9108739495277405e-01" nType="0">
          <Node pos="l" depth="2" NCoef="0" IVar="-1" Cut="0.0000000000000000e+00" cType="1" res="-1.7418861389160156e-02" rms="3.9435330033302307e-01" purity="1.9719739258289337e-01" nType="-99"/>
          <Node pos="r" depth="2" NCoef="0" IVar="-1" Cut="0.0000000000000000e+00" cType="1" res="1.5759222151245922e-04" rms="3.5464450716972351e-01" purity="1.4963038265705109e-01" nType="-99"/>
        </Node>
      </Node>
    </BinaryTree>
    <BinaryTree type="DecisionTree" boostWeight="1.0000000000000000e+00" itree="31">
      <Node pos="s" depth="0" NCoef="0" IVar="11" Cut="2.3594644665718079e-01" cType="0" res="-1.0721568949520588e-02" rms="4.0352976322174072e-01" purity="2.2938616573810577e-01" nType="0">
        <Node pos="l" depth="1" NCoef="0" IVar="-1" Cut="0.0000000000000000e+00" cType="1" res="4.9879983998835087e-03" rms="4.4970059394836426e-01" purity="3.1175023317337036e-01" nType="-99"/>
        <Node pos="r" depth="1" NCoef="0" IVar="13" Cut="8.2738232612609863e-01" cType="0" res="-3.9341039955615997e-02" rms="3.5333225131034851e-01" purity="1.5352463722229004e-01" nType="0">
          <Node pos="l" depth="2" NCoef="0" IVar="-1" Cut="0.0000000000000000e+00" cType="1" res="-2.7222123462706804e-03" rms="4.0351662039756775e-01" purity="2.1853959560394287e-01" nType="-99"/>
          <Node pos="r" depth="2" NCoef="0" IVar="-1" Cut="0.0000000000000000e+00" cType="1" res="-2.0161624997854233e-02" rms="3.1879293918609619e-01" purity="1.1522140353918076e-01" nType="-99"/>
        </Node>
      </Node>
    </BinaryTree>
    <BinaryTree type="DecisionTree" boostWeight="1.0000000000000000e+00" itree="32">
      <Node pos="s" depth="0" NCoef="0" IVar="10" Cut="3.0726613998413086e+00" cType="1" res="-9.6758613362908363e-03" rms="4.0322881937026978e-01" purity="2.2938616573810577e-01" nType="0">
        <Node pos="l" depth="1" NCoef="0" IVar="-1" Cut="0.0000000000000000e+00" cType="1" res="1.9043595530092716e-03" rms="4.0761199593544006e-01" purity="2.4407495558261871e-01" nType="-99"/>
        <Node pos="r" depth="1" NCoef="0" IVar="11" Cut="1.8523339927196503e-01" cType="0" res="-6.3630282878875732e-02" rms="3.8348990678787231e-01" purity="1.8088056147098541e-01" nType="0">
          <Node pos="l" depth="2" NCoef="0" IVar="-1" Cut="0.0000000000000000e+00" cType="1" res="-1.9345819950103760e-02" rms="3.8461062312126160e-01" purity="1.8328052759170532e-01" nType="-99"/>
          <Node pos="r" depth="2" NCoef="0" IVar="-1" Cut="0.0000000000000000e+00" cType="1" res="5.1208017393946648e-03" rms="3.6549922823905945e-01" purity="1.6165560483932495e-01" nType="-99"/>
        </Node>
      </Node>
    </BinaryTree>
    <BinaryTree type="DecisionTree" boostWeight="1.0000000000000000e+00" itree="33">
      <Node pos="s" depth="0" NCoef="0" IVar="1" Cut="3.3526334911584854e-02" cType="1" res="-8.7229497730731964e-03" rms="4.0296316146850586e-01" purity="2.2938616573810577e-01" nType="0">
        <Node pos="l" depth="1" NCoef="0" IVar="-1" Cut="0.0000000000000000e+00" cType="1" res="1.2882371433079243e-02" rms="4.5374447107315063e-01" purity="3.4431406855583191e-01" nType="-99"/>
        <Node pos="r" depth="1" NCoef="0" IVar="11" Cut="2.6724815368652344e-01" cType="0" res="-2.3084228858351707e-02" rms="3.8859128952026367e-01" purity="2.0218001306056976e-01" nType="0">
          <Node pos="l" depth="2" NCoef="0" IVar="-1" Cut="0.0000000000000000e+00" cType="1" res="4.5002525439485908e-04" rms="4.3567502498626709e-01" purity="2.7637422084808350e-01" nType="-99"/>
          <Node pos="r" depth="2" NCoef="0" IVar="-1" Cut="0.0000000000000000e+00" cType="1" res="-1.4307470060884953e-02" rms="3.4583428502082825e-01" purity="1.4380787312984467e-01" nType="-99"/>
        </Node>
      </Node>
    </BinaryTree>
    <BinaryTree type="DecisionTree" boostWeight="1.0000000000000000e+00" itree="34">
      <Node pos="s" depth="0" NCoef="0" IVar="14" Cut="-1.7551423981785774e-02" cType="0" res="-7.8724073246121407e-03" rms="4.0263473987579346e-01" purity="2.2938616573810577e-01" nType="0">
        <Node pos="l" depth="1" NCoef="0" IVar="-1" Cut="0.0000000000000000e+00" cType="1" res="4.4268337078392506e-03" rms="4.0984359383583069e-01" purity="2.5549107789993286e-01" nType="-99"/>
        <Node pos="r" depth="1" NCoef="0" IVar="11" Cut="1.3359485566616058e-01" cType="0" res="-4.3897166848182678e-02" rms="3.8855031132698059e-01" purity="1.8926791846752167e-01" nType="0">
          <Node pos="l" depth="2" NCoef="0" IVar="-1" Cut="0.0000000000000000e+00" cType="1" res="-1.4699794352054596e-02" rms="4.0589076280593872e-01" purity="2.1331353485584259e-01" nType="-99"/>
          <Node pos="r" depth="2" NCoef="0" IVar="-1" Cut="0.0000000000000000e+00" cType="1" res="-7.7754287049174309e-03" rms="3.5744169354438782e-01" purity="1.5011082589626312e-01" nType="-99"/>
        </Node>
      </Node>
    </BinaryTree>
    <BinaryTree type="DecisionTree" boostWeight="1.0000000000000000e+00" itree="35">
      <Node pos="s" depth="0" NCoef="0" IVar="1" Cut="3.9213486015796661e-02" cType="1" res="-7.0980931632220745e-03" rms="4.0236061811447144e-01" purity="2.2938616573810577e-01" nType="0">
        <Node pos="l" depth="1" NCoef="0" IVar="-1" Cut="0.0000000000000000e+00" cType="1" res="6.6813277080655098e-03" rms="4.3577924370765686e-01" purity="2.9900187253952026e-01" nType="-99"/>
        <Node pos="r" depth="1" NCoef="0" IVar="8" Cut="1.0936105251312256e-01" cType="0" res="-3.0089806765317917e-02" rms="3.7550783157348633e-01" purity="1.8066161870956421e-01" nType="0">
          <Node pos="l" depth="2" NCoef="0" IVar="-1" Cut="0.0000000000000000e+00" cType="1" res="-4.3522557243704796e-03" rms="3.9791804552078247e-01" purity="2.1045985817909241e-01" nType="-99"/>
          <Node pos="r" depth="2" NCoef="0" IVar="-1" Cut="0.0000000000000000e+00" cType="1" res="-1.6151271760463715e-02" rms="3.4446531534194946e-01" purity="1.4335839450359344e-01" nType="-99"/>
        </Node>
      </Node>
    </BinaryTree>
    <BinaryTree type="DecisionTree" boostWeight="1.0000000000000000e+00" itree="36">
      <Node pos="s" depth="0" NCoef="0" IVar="10" Cut="1.6247749328613281e+00" cType="1" res="-6.4046252518892288e-03" rms="4.0211370587348938e-01" purity="2.2938616573810577e-01" nType="0">
        <Node pos="l" depth="1" NCoef="0" IVar="-1" Cut="0.0000000000000000e+00" cType="1" res="3.4270503092557192e-03" rms="4.0615883469581604e-01" purity="2.4640294909477234e-01" nType="-99"/>
        <Node pos="r" depth="1" NCoef="0" IVar="14" Cut="8.9480848982930183e-03" cType="1" res="-4.7459654510021210e-02" rms="3.8974654674530029e-01" purity="1.9108739495277405e-01" nType="0">
          <Node pos="l" depth="2" NCoef="0" IVar="-1" Cut="0.0000000000000000e+00" cType="1" res="-1.0454718954861164e-02" rms="3.9314773678779602e-01" purity="1.9707249104976654e-01" nType="-99"/>
          <Node pos="r" depth="2" NCoef="0" IVar="-1" Cut="0.0000000000000000e+00" cType="1" res="-2.3733118548989296e-02" rms="3.7322667241096497e-01" purity="1.6768488287925720e-01" nType="-99"/>
        </Node>
      </Node>
    </BinaryTree>
    <BinaryTree type="DecisionTree" boostWeight="1.0000000000000000e+00" itree="37">
      <Node pos="s" depth="0" NCoef="0" IVar="11" Cut="1.4508311450481415e-01" cType="0" res="-5.7766502723097801e-03" rms="4.0186282992362976e-01" purity="2.2938616573810577e-01" nType="0">
        <Node pos="l" depth="1" NCoef="0" IVar="-1" Cut="0.0000000000000000e+00" cType="1" res="4.8300712369382381e-03" rms="4.4562903046607971e-01" purity="3.0663323402404785e-01" nType="-99"/>
        <Node pos="r" depth="1" NCoef="0" IVar="12" Cut="1.0238440036773682e+00" cType="0" res="-3.7179451435804367e-02" rms="3.3695241808891296e-01" purity="1.3321423530578613e-01" nType="0">
          <Node pos="l" depth="2" NCoef="0" IVar="-1" Cut="0.0000000000000000e+00" cType="1" res="-7.1754436939954758e-03" rms="3.6075037717819214e-01" purity="1.5704056620597839e-01" nType="-99"/>
          <Node pos="r" depth="2" NCoef="0" IVar="-1" Cut="0.0000000000000000e+00" cType="1" res="-2.1907363086938858e-02" rms="3.0140000581741333e-01" purity="1.0182370990514755e-01" nType="-99"/>
        </Node>
      </Node>
    </BinaryTree>
    <BinaryTree type="DecisionTree" boostWeight="1.0000000000000000e+00" itree="38">
      <Node pos="s" depth="0" NCoef="0" IVar="14" Cut="-1.6491442918777466e-02" cType="0" res="-5.2200830541551113e-03" rms="4.0161380171775818e-01" purity="2.2938616573810577e-01" nType="0">
        <Node pos="l" depth="1" NCoef="0" IVar="-1" Cut="0.0000000000000000e+00" cType="1" res="4.8614344559609890e-03" rms="4.0828296542167664e-01" purity="2.5561279058456421e-01" nType="-99"/>
        <Node pos="r" depth="1" NCoef="0" IVar="7" Cut="1.2435888499021530e-01" cType="1" res="-3.7975385785102844e-02" rms="3.8925245404243469e-01" purity="1.9065439701080322e-01" nType="0">
          <Node pos="l" depth="2" NCoef="0" IVar="-1" Cut="0.0000000000000000e+00" cType="1" res="-8.0904681235551834e-03" rms="3.9034795761108398e-01" purity="1.9389155507087708e-01" nType="-99"/>
          <Node pos="r" depth="2" NCoef="0" IVar="-1" Cut="0.0000000000000000e+00" cType="1" res="-1.8239174038171768e-02" rms="3.8484421372413635e-01" purity="1.8203417956829071e-01" nType="-99"/>
        </Node>
      </Node>
    </BinaryTree>
    <BinaryTree type="DecisionTree" boostWeight="1.0000000000000000e+00" itree="39">
      <Node pos="s" depth="0" NCoef="0" IVar="11" Cut="2.3594644665718079e-01" cType="0" res="-4.7103394754230976e-03" rms="4.0134856104850769e-01" purity="2.2938616573810577e-01" nType="0">
        <Node pos="l" depth="1" NCoef="0" IVar="-1" Cut="0.0000000000000000e+00" cType="1" res="5.5201868526637554e-03" rms="4.4664102792739868e-01" purity="3.1175023317337036e-01" nType="-99"/>
        <Node pos="r" depth="1" NCoef="0" IVar="8" Cut="8.1760197877883911e-02" cType="0" res="-2.9594238847494125e-02" rms="3.5272347927093506e-01" purity="1.5352463722229004e-01" nType="0">
          <Node pos="l" depth="2" NCoef="0" IVar="-1" Cut="0.0000000000000000e+00" cType="1" res="-2.4850363843142986e-03" rms="3.7979072332382202e-01" purity="1.8751627206802368e-01" nType="-99"/>
          <Node pos="r" depth="2" NCoef="0" IVar="-1" Cut="0.0000000000000000e+00" cType="1" res="-1.9213642925024033e-02" rms="3.1910529732704163e-01" purity="1.1667204648256302e-01" nType="-99"/>
        </Node>
      </Node>
    </BinaryTree>
    <BinaryTree type="DecisionTree" boostWeight="1.0000000000000000e+00" itree="40">
      <Node pos="s" depth="0" NCoef="0" IVar="10" Cut="3.0726613998413086e+00" cType="1" res="-4.2584040202200413e-03" rms="4.0109372138977051e-01" purity="2.2938616573810577e-01" nType="0">
        <Node pos="l" depth="1" NCoef="0" IVar="-1" Cut="0.0000000000000000e+00" cType="1" res="3.0567916110157967e-03" rms="4.0515971183776855e-01" purity="2.4407495558261871e-01" nType="-99"/>
        <Node pos="r" depth="1" NCoef="0" IVar="11" Cut="1.8523339927196503e-01" cType="0" res="-5.2958182990550995e-02" rms="3.8335481286048889e-01" purity="1.8088056147098541e-01" nType="0">
          <Node pos="l" depth="2" NCoef="0" IVar="-1" Cut="0.0000000000000000e+00" cType="1" res="-1.7032418400049210e-02" rms="3.8448983430862427e-01" purity="1.8328052759170532e-01" nType="-99"/>
          <Node pos="r" depth="2" NCoef="0" IVar="-1" Cut="0.0000000000000000e+00" cType="1" res="9.8593290895223618e-03" rms="3.6530265212059021e-01" purity="1.6165560483932495e-01" nType="-99"/>
        </Node>
      </Node>
    </BinaryTree>
    <BinaryTree type="DecisionTree" boostWeight="1.0000000000000000e+00" itree="41">
      <Node pos="s" depth="0" NCoef="0" IVar="1" Cut="4.2753037065267563e-02" cType="1" res="-3.8451701402664185e-03" rms="4.0084993839263916e-01" purity="2.2938616573810577e-01" nType="0">
        <Node pos="l" depth="1" NCoef="0" IVar="-1" Cut="0.0000000000000000e+00" cType="1" res="4.9146059900522232e-03" rms="4.2275676131248474e-01" purity="2.7460011839866638e-01" nType="-99"/>
        <Node pos="r" depth="1" NCoef="0" IVar="5" Cut="2.5433376431465149e-02" cType="1" res="-3.2726027071475983e-02" rms="3.6800760030746460e-01" purity="1.6978400945663452e-01" nType="0">
          <Node pos="l" depth="2" NCoef="0" IVar="-1" Cut="0.0000000000000000e+00" cType="1" res="-5.1473500207066536e-03" rms="3.7837880849838257e-01" purity="1.8711656332015991e-01" nType="-99"/>
          <Node pos="r" depth="2" NCoef="0" IVar="-1" Cut="0.0000000000000000e+00" cType="1" res="-1.4934988692402840e-02" rms="3.5815778374671936e-01" purity="1.5475827455520630e-01" nType="-99"/>
        </Node>
      </Node>
    </BinaryTree>
    <BinaryTree type="DecisionTree" boostWeight="1.0000000000000000e+00" itree="42">
      <Node pos="s" depth="0" NCoef="0" IVar="11" Cut="1.1313116550445557e-01" cType="0" res="-3.4731337800621986e-03" rms="4.0063580870628357e-01" purity="2.2938616573810577e-01" nType="0">
        <Node pos="l" depth="1" NCoef="0" IVar="-1" Cut="0.0000000000000000e+00" cType="1" res="4.2344760149717331e-03" rms="4.4032368063926697e-01" purity="2.9847207665443420e-01" nType="-99"/>
        <Node pos="r" depth="1" NCoef="0" IVar="0" Cut="6.0029983520507812e+00" cType="1" res="-3.3739842474460602e-02" rms="3.3025950193405151e-01" purity="1.2607766687870026e-01" nType="0">
          <Node pos="l" depth="2" NCoef="0" IVar="-1" Cut="0.0000000000000000e+00" cType="1" res="1.0833431966602802e-02" rms="3.8395807147026062e-01" purity="1.8269540369510651e-01" nType="-99"/>
          <Node pos="r" depth="2" NCoef="0" IVar="-1" Cut="0.0000000000000000e+00" cType="1" res="-1.4577542431652546e-02" rms="3.2476049661636353e-01" purity="1.2127821892499924e-01" nType="-99"/>
        </Node>
      </Node>
    </BinaryTree>
    <BinaryTree type="DecisionTree" boostWeight="1.0000000000000000e+00" itree="43">
      <Node pos="s" depth="0" NCoef="0" IVar="10" Cut="1.6247749328613281e+00" cType="1" res="-3.1422805041074753e-03" rms="4.0043437480926514e-01" purity="2.2938616573810577e-01" nType="0">
        <Node pos="l" depth="1" NCoef="0" IVar="-1" Cut="0.0000000000000000e+00" cType="1" res="4.0835882537066936e-03" rms="4.0407237410545349e-01" purity="2.4640294909477234e-01" nType="-99"/>
        <Node pos="r" depth="1" NCoef="0" IVar="11" Cut="1.3332490622997284e-01" cType="0" res="-4.1486267000436783e-02" rms="3.8940593600273132e-01" purity="1.9108739495277405e-01" nType="0">
          <Node pos="l" depth="2" NCoef="0" IVar="-1" Cut="0.0000000000000000e+00" cType="1" res="-1.3511117547750473e-02" rms="3.9368504285812378e-01" purity="1.9719739258289337e-01" nType="-99"/>
          <Node pos="r" depth="2" NCoef="0" IVar="-1" Cut="0.0000000000000000e+00" cType="1" res="5.7945689186453819e-03" rms="3.5416290163993835e-01" purity="1.4963038265705109e-01" nType="-99"/>
        </Node>
      </Node>
    </BinaryTree>
    <BinaryTree type="DecisionTree" boostWeight="1.0000000000000000e+00" itree="44">
      <Node pos="s" depth="0" NCoef="0" IVar="14" Cut="-1.6491442918777466e-02" cType="0" res="-2.8390784282237291e-03" rms="4.0020602941513062e-01" purity="2.2938616573810577e-01" nType="0">
        <Node pos="l" depth="1" NCoef="0" IVar="-1" Cut="0.0000000000000000e+00" cType="1" res="4.9726217985153198e-03" rms="4.0637624263763428e-01" purity="2.5561279058456421e-01" nType="-99"/>
        <Node pos="r" depth="1" NCoef="0" IVar="7" Cut="1.2435888499021530e-01" cType="1" res="-3.2489757984876633e-02" rms="3.8902524113655090e-01" purity="1.9065439701080322e-01" nType="0">
          <Node pos="l" depth="2" NCoef="0" IVar="-1" Cut="0.0000000000000000e+00" cType="1" res="-6.7687886767089367e-03" rms="3.9008811116218567e-01" purity="1.9389155507087708e-01" nType="-99"/>
          <Node pos="r" depth="2" NCoef="0" IVar="-1" Cut="0.0000000000000000e+00" cType="1" res="-1.6655474901199341e-02" rms="3.8487005233764648e-01" purity="1.8203417956829071e-01" nType="-99"/>
        </Node>
      </Node>
    </BinaryTree>
    <BinaryTree type="DecisionTree" boostWeight="1.0000000000000000e+00" itree="45">
      <Node pos="s" depth="0" NCoef="0" IVar="11" Cut="2.5591641664505005e-01" cType="0" res="-2.5653853081166744e-03" rms="3.9997133612632751e-01" purity="2.2938616573810577e-01" nType="0">
        <Node pos="l" depth="1" NCoef="0" IVar="-1" Cut="0.0000000000000000e+00" cType="1" res="5.8774109929800034e-03" rms="4.4442796707153320e-01" purity="3.1185626983642578e-01" nType="-99"/>
        <Node pos="r" depth="1" NCoef="0" IVar="8" Cut="6.8133503198623657e-02" cType="0" res="-2.5422543287277222e-02" rms="3.5501068830490112e-01" purity="1.5727366507053375e-01" nType="0">
          <Node pos="l" depth="2" NCoef="0" IVar="-1" Cut="0.0000000000000000e+00" cType="1" res="-2.0163978915661573e-03" rms="3.7976410984992981e-01" purity="1.8933975696563721e-01" nType="-99"/>
          <Node pos="r" depth="2" NCoef="0" IVar="-1" Cut="0.0000000000000000e+00" cType="1" res="-1.8884137272834778e-02" rms="3.1699419021606445e-01" purity="1.1428318917751312e-01" nType="-99"/>
        </Node>
      </Node>
    </BinaryTree>
    <BinaryTree type="DecisionTree" boostWeight="1.0000000000000000e+00" itree="46">
      <Node pos="s" depth="0" NCoef="0" IVar="17" Cut="3.0468147248029709e-02" cType="1" res="-2.3259199224412441e-03" rms="3.9972767233848572e-01" purity="2.2938616573810577e-01" nType="0">
        <Node pos="l" depth="1" NCoef="0" IVar="-1" Cut="0.0000000000000000e+00" cType="1" res="1.6245343722403049e-03" rms="4.0232530236244202e-01" purity="2.3697051405906677e-01" nType="-99"/>
        <Node pos="r" depth="1" NCoef="0" IVar="11" Cut="8.9006654918193817e-02" cType="0" res="-7.6443009078502655e-02" rms="3.6614584922790527e-01" purity="1.5787814557552338e-01" nType="0">
          <Node pos="l" depth="2" NCoef="0" IVar="-1" Cut="0.0000000000000000e+00" cType="1" res="-2.4286907166242599e-02" rms="3.6563372611999512e-01" purity="1.5899428725242615e-01" nType="-99"/>
          <Node pos="r" depth="2" NCoef="0" IVar="-1" Cut="0.0000000000000000e+00" cType="1" res="1.7326460219919682e-03" rms="3.5905689001083374e-01" purity="1.5073814988136292e-01" nType="-99"/>
        </Node>
      </Node>
    </BinaryTree>
    <BinaryTree type="DecisionTree" boostWeight="1.0000000000000000e+00" itree="47">
      <Node pos="s" depth="0" NCoef="0" IVar="1" Cut="3.2571848481893539e-02" cType="1" res="-2.1025119349360466e-03" rms="3.9954161643981934e-01" purity="2.2938616573810577e-01" nType="0">
        <Node pos="l" depth="1" NCoef="0" IVar="-1" Cut="0.0000000000000000e+00" cType="1" res="1.2531523592770100e-02" rms="4.5066726207733154e-01" purity="3.5125425457954407e-01" nType="-99"/>
        <Node pos="r" depth="1" NCoef="0" IVar="8" Cut="1.0901360213756561e-01" cType="0" res="-1.2390151619911194e-02" rms="3.8799616694450378e-01" purity="2.0571854710578918e-01" nType="0">
          <Node pos="l" depth="2" NCoef="0" IVar="-1" Cut="0.0000000000000000e+00" cType="1" res="1.4822760131210089e-03" rms="4.1179758310317993e-01" purity="2.4331793189048767e-01" nType="-99"/>
          <Node pos="r" depth="2" NCoef="0" IVar="-1" Cut="0.0000000000000000e+00" cType="1" res="-1.1043828912079334e-02" rms="3.5638612508773804e-01" purity="1.6084432601928711e-01" nType="-99"/>
        </Node>
      </Node>
    </BinaryTree>
    <BinaryTree type="DecisionTree" boostWeight="1.0000000000000000e+00" itree="48">
      <Node pos="s" depth="0" NCoef="0" IVar="10" Cut="1.6247749328613281e+00" cType="1" res="-1.9043132197111845e-03" rms="3.9931055903434753e-01" purity="2.2938616573810577e-01" nType="0">
        <Node pos="l" depth="1" NCoef="0" IVar="-1" Cut="0.0000000000000000e+00" cType="1" res="4.0069269016385078e-03" rms="4.0279078483581543e-01" purity="2.4640294909477234e-01" nType="-99"/>
        <Node pos="r" depth="1" NCoef="0" IVar="14" Cut="8.9480848982930183e-03" cType="1" res="-3.6780841648578644e-02" rms="3.8911366462707520e-01" purity="1.9108739495277405e-01" nType="0">
          <Node pos="l" depth="2" NCoef="0" IVar="-1" Cut="0.0000000000000000e+00" cType="1" res="-7.6498016715049744e-03" rms="3.9236083626747131e-01" purity="1.9707249104976654e-01" nType="-99"/>
          <Node pos="r" depth="2" NCoef="0" IVar="-1" Cut="0.0000000000000000e+00" cType="1" res="-2.1668290719389915e-02" rms="3.7313979864120483e-01" purity="1.6768488287925720e-01" nType="-99"/>
        </Node>
      </Node>
    </BinaryTree>
    <BinaryTree type="DecisionTree" boostWeight="1.0000000000000000e+00" itree="49">
      <Node pos="s" depth="0" NCoef="0" IVar="11" Cut="2.6689988374710083e-01" cType="0" res="-1.7235431587323546e-03" rms="3.9910009503364563e-01" purity="2.2938616573810577e-01" nType="0">
        <Node pos="l" depth="1" NCoef="0" IVar="-1" Cut="0.0000000000000000e+00" cType="1" res="5.8605638332664967e-03" rms="4.4313046336174011e-01" purity="3.1184726953506470e-01" nType="-99"/>
        <Node pos="r" depth="1" NCoef="0" IVar="13" Cut="8.8975381851196289e-01" cType="0" res="-2.3163331672549248e-02" rms="3.5592883825302124e-01" purity="1.5912695229053497e-01" nType="0">
          <Node pos="l" depth="2" NCoef="0" IVar="-1" Cut="0.0000000000000000e+00" cType="1" res="2.3151577915996313e-03" rms="4.0962469577789307e-01" purity="2.3516103625297546e-01" nType="-99"/>
          <Node pos="r" depth="2" NCoef="0" IVar="-1" Cut="0.0000000000000000e+00" cType="1" res="-1.4017879962921143e-02" rms="3.2754358649253845e-01" purity="1.2442947179079056e-01" nType="-99"/>
        </Node>
      </Node>
    </BinaryTree>
    <BinaryTree type="DecisionTree" boostWeight="1.0000000000000000e+00" itree="50">
      <Node pos="s" depth="0" NCoef="0" IVar="14" Cut="-2.2851325571537018e-02" cType="0" res="-1.5665754908695817e-03" rms="3.9887320995330811e-01" purity="2.2938616573810577e-01" nType="0">
        <Node pos="l" depth="1" NCoef="0" IVar="-1" Cut="0.0000000000000000e+00" cType="1" res="4.3380451388657093e-03" rms="4.0509793162345886e-01" purity="2.5356125831604004e-01" nType="-99"/>
        <Node pos="r" depth="1" NCoef="0" IVar="11" Cut="1.6144220530986786e-01" cType="0" res="-3.2836761325597763e-02" rms="3.8489282131195068e-01" purity="1.8367643654346466e-01" nType="0">
          <Node pos="l" depth="2" NCoef="0" IVar="-1" Cut="0.0000000000000000e+00" cType="1" res="-1.3391088694334030e-02" rms="4.0068900585174561e-01" purity="2.0528088510036469e-01" nType="-99"/>
          <Node pos="r" depth="2" NCoef="0" IVar="-1" Cut="0.0000000000000000e+00" cType="1" res="-2.8053109999746084e-03" rms="3.5875910520553589e-01" purity="1.5172512829303741e-01" nType="-99"/>
        </Node>
      </Node>
    </BinaryTree>
    <BinaryTree type="DecisionTree" boostWeight="1.0000000000000000e+00" itree="51">
      <Node pos="s" depth="0" NCoef="0" IVar="17" Cut="-2.7372801676392555e-02" cType="0" res="-1.4186585322022438e-03" rms="3.9866065979003906e-01" purity="2.2938616573810577e-01" nType="0">
        <Node pos="l" depth="1" NCoef="0" IVar="-1" Cut="0.0000000000000000e+00" cType="1" res="1.7599046695977449e-03" rms="4.0100589394569397e-01" purity="2.3658205568790436e-01" nType="-99"/>
        <Node pos="r" depth="1" NCoef="0" IVar="15" Cut="-1.7066122964024544e-02" cType="0" res="-6.6392540931701660e-02" rms="3.7110081315040588e-01" purity="1.6602468490600586e-01" nType="0">
          <Node pos="l" depth="2" NCoef="0" IVar="-1" Cut="0.0000000000000000e+00" cType="1" res="-1.3815263286232948e-02" rms="3.8065478205680847e-01" purity="1.7958024144172668e-01" nType="-99"/>
          <Node pos="r" depth="2" NCoef="0" IVar="-1" Cut="0.0000000000000000e+00" cType="1" res="-2.7507357299327850e-02" rms="3.5218432545661926e-01" purity="1.4334741234779358e-01" nType="-99"/>
        </Node>
      </Node>
    </BinaryTree>
    <BinaryTree type="DecisionTree" boostWeight="1.0000000000000000e+00" itree="52">
      <Node pos="s" depth="0" NCoef="0" IVar="11" Cut="3.4078878164291382e-01" cType="0" res="-1.2845349265262485e-03" rms="3.9850199222564697e-01" purity="2.2938616573810577e-01" nType="0">
        <Node pos="l" depth="1" NCoef="0" IVar="-1" Cut="0.0000000000000000e+00" cType="1" res="6.1677373014390469e-03" rms="4.4170409440994263e-01" purity="3.1157070398330688e-01" nType="-99"/>
        <Node pos="r" depth="1" NCoef="0" IVar="8" Cut="9.5386900007724762e-02" cType="0" res="-1.9941244274377823e-02" rms="3.6298748850822449e-01" purity="1.7003487050533295e-01" nType="0">
          <Node pos="l" depth="2" NCoef="0" IVar="-1" Cut="0.0000000000000000e+00" cType="1" res="2.3782676726114005e-04" rms="3.9267015457153320e-01" purity="2.1200528740882874e-01" nType="-99"/>
          <Node pos="r" depth="2" NCoef="0" IVar="-1" Cut="0.0000000000000000e+00" cType="1" res="-1.4850374311208725e-02" rms="3.2952490448951721e-01" purity="1.2826636433601379e-01" nType="-99"/>
        </Node>
      </Node>
    </BinaryTree>
    <BinaryTree type="DecisionTree" boostWeight="1.0000000000000000e+00" itree="53">
      <Node pos="s" depth="0" NCoef="0" IVar="10" Cut="1.2628033161163330e+00" cType="1" res="-1.1696811998263001e-03" rms="3.9828979969024658e-01" purity="2.2938616573810577e-01" nType="0">
        <Node pos="l" depth="1" NCoef="0" IVar="-1" Cut="0.0000000000000000e+00" cType="1" res="4.5048226602375507e-03" rms="4.0000882744789124e-01" purity="2.4515329301357269e-01" nType="-99"/>
        <Node pos="r" depth="1" NCoef="0" IVar="14" Cut="1.0008065029978752e-02" cType="1" res="-3.1422477215528488e-02" rms="3.9328572154045105e-01" purity="2.0004035532474518e-01" nType="0">
          <Node pos="l" depth="2" NCoef="0" IVar="-1" Cut="0.0000000000000000e+00" cType="1" res="-5.9211030602455139e-03" rms="3.9681875705718994e-01" purity="2.0725388824939728e-01" nType="-99"/>
          <Node pos="r" depth="2" NCoef="0" IVar="-1" Cut="0.0000000000000000e+00" cType="1" res="-2.1853921934962273e-02" rms="3.7380430102348328e-01" purity="1.6886502504348755e-01" nType="-99"/>
        </Node>
      </Node>
    </BinaryTree>
    <BinaryTree type="DecisionTree" boostWeight="1.0000000000000000e+00" itree="54">
      <Node pos="s" depth="0" NCoef="0" IVar="7" Cut="4.3900427222251892e-01" cType="1" res="-1.0621122783049941e-03" rms="3.9807453751564026e-01" purity="2.2938616573810577e-01" nType="0">
        <Node pos="l" depth="1" NCoef="0" IVar="-1" Cut="0.0000000000000000e+00" cType="1" res="1.2406652094796300e-03" rms="3.9768674969673157e-01" purity="2.3142291605472565e-01" nType="-99"/>
        <Node pos="r" depth="1" NCoef="0" IVar="8" Cut="6.8590743467211723e-03" cType="1" res="-9.2340067028999329e-02" rms="3.9376288652420044e-01" purity="1.9378258287906647e-01" nType="0">
          <Node pos="l" depth="2" NCoef="0" IVar="-1" Cut="0.0000000000000000e+00" cType="1" res="-6.6981953568756580e-03" rms="4.1807672381401062e-01" purity="2.5566038489341736e-01" nType="-99"/>
          <Node pos="r" depth="2" NCoef="0" IVar="-1" Cut="0.0000000000000000e+00" cType="1" res="-2.7213418856263161e-02" rms="3.8582035899162292e-01" purity="1.7857143282890320e-01" nType="-99"/>
        </Node>
      </Node>
    </BinaryTree>
    <BinaryTree type="DecisionTree" boostWeight="1.0000000000000000e+00" itree="55">
      <Node pos="s" depth="0" NCoef="0" IVar="11" Cut="1.8202754855155945e-01" cType="0" res="-9.6145563293248415e-04" rms="3.9792484045028687e-01" purity="2.2938616573810577e-01" nType="0">
        <Node pos="l" depth="1" NCoef="0" IVar="-1" Cut="0.0000000000000000e+00" cType="1" res="4.8476527445018291e-03" rms="4.4186130166053772e-01" purity="3.1100189685821533e-01" nType="-99"/>
        <Node pos="r" depth="1" NCoef="0" IVar="12" Cut="1.0293899774551392e+00" cType="0" res="-2.2973479703068733e-02" rms="3.4302639961242676e-01" purity="1.4147627353668213e-01" nType="0">
          <Node pos="l" depth="2" NCoef="0" IVar="-1" Cut="0.0000000000000000e+00" cType="1" res="-2.6786432135850191e-03" rms="3.6665821075439453e-01" purity="1.6624510288238525e-01" nType="-99"/>
          <Node pos="r" depth="2" NCoef="0" IVar="-1" Cut="0.0000000000000000e+00" cType="1" res="-1.7049938440322876e-02" rms="3.0762532353401184e-01" purity="1.0854413360357285e-01" nType="-99"/>
        </Node>
      </Node>
    </BinaryTree>
    <BinaryTree type="DecisionTree" boostWeight="1.0000000000000000e+00" itree="56">
      <Node pos="s" depth="0" NCoef="0" IVar="17" Cut="3.0468147248029709e-02" cType="1" res="-8.7798823369666934e-04" rms="3.9775577187538147e-01" purity="2.2938616573810577e-01" nType="0">
        <Node pos="l" depth="1" NCoef="0" IVar="-1" Cut="0.0000000000000000e+00" cType="1" res="1.8266672268509865e-03" rms="4.0032649040222168e-01" purity="2.3697051405906677e-01" nType="-99"/>
        <Node pos="r" depth="1" NCoef="0" IVar="11" Cut="8.9006654918193817e-02" cType="0" res="-6.7306004464626312e-02" rms="3.6604025959968567e-01" purity="1.5787814557552338e-01" nType="0">
          <Node pos="l" depth="2" NCoef="0" IVar="-1" Cut="0.0000000000000000e+00" cType="1" res="-2.2198336198925972e-02" rms="3.6568802595138550e-01" purity="1.5899428725242615e-01" nType="-99"/>
          <Node pos="r" depth="2" NCoef="0" IVar="-1" Cut="0.0000000000000000e+00" cType="1" res="3.1076648738235235e-03" rms="3.5937961935997009e-01" purity="1.5073814988136292e-01" nType="-99"/>
        </Node>
      </Node>
    </BinaryTree>
    <BinaryTree type="DecisionTree" boostWeight="1.0000000000000000e+00" itree="57">
      <Node pos="s" depth="0" NCoef="0" IVar="14" Cut="-1.4371482655405998e-02" cType="0" res="-7.9807359725236893e-04" rms="3.9759680628776550e-01" purity="2.2938616573810577e-01" nType="0">
        <Node pos="l" depth="1" NCoef="0" IVar="-1" Cut="0.0000000000000000e+00" cType="1" res="5.1020900718867779e-03" rms="4.0197506546974182e-01" purity="2.5527632236480713e-01" nType="-99"/>
        <Node pos="r" depth="1" NCoef="0" IVar="7" Cut="1.2435888499021530e-01" cType="1" res="-2.5550631806254387e-02" rms="3.9021956920623779e-01" purity="1.9427567720413208e-01" nType="0">
          <Node pos="l" depth="2" NCoef="0" IVar="-1" Cut="0.0000000000000000e+00" cType="1" res="-4.8846448771655560e-03" rms="3.9137139916419983e-01" purity="1.9779139757156372e-01" nType="-99"/>
          <Node pos="r" depth="2" NCoef="0" IVar="-1" Cut="0.0000000000000000e+00" cType="1" res="-1.4545403420925140e-02" rms="3.8602548837661743e-01" purity="1.8504174053668976e-01" nType="-99"/>
        </Node>
      </Node>
    </BinaryTree>
    <BinaryTree type="DecisionTree" boostWeight="1.0000000000000000e+00" itree="58">
      <Node pos="s" depth="0" NCoef="0" IVar="1" Cut="4.2753037065267563e-02" cType="1" res="-7.2626845212653279e-04" rms="3.9739674329757690e-01" purity="2.2938616573810577e-01" nType="0">
        <Node pos="l" depth="1" NCoef="0" IVar="-1" Cut="0.0000000000000000e+00" cType="1" res="4.7388961538672447e-03" rms="4.1820698976516724e-01" purity="2.7460011839866638e-01" nType="-99"/>
        <Node pos="r" depth="1" NCoef="0" IVar="5" Cut="2.5433376431465149e-02" cType="1" res="-2.4416463449597359e-02" rms="3.6682838201522827e-01" purity="1.6978400945663452e-01" nType="0">
          <Node pos="l" depth="2" NCoef="0" IVar="-1" Cut="0.0000000000000000e+00" cType="1" res="-3.1948874238878489e-03" rms="3.7672594189643860e-01" purity="1.8711656332015991e-01" nType="-99"/>
          <Node pos="r" depth="2" NCoef="0" IVar="-1" Cut="0.0000000000000000e+00" cType="1" res="-1.2312116101384163e-02" rms="3.5753884911537170e-01" purity="1.5475827455520630e-01" nType="-99"/>
        </Node>
      </Node>
    </BinaryTree>
    <BinaryTree type="DecisionTree" boostWeight="1.0000000000000000e+00" itree="59">
      <Node pos="s" depth="0" NCoef="0" IVar="10" Cut="5.2444911003112793e+00" cType="1" res="-6.6220719600096345e-04" rms="3.9723217487335205e-01" purity="2.2938616573810577e-01" nType="0">
        <Node pos="l" depth="1" NCoef="0" IVar="-1" Cut="0.0000000000000000e+00" cType="1" res="2.6153549551963806e-03" rms="4.0078008174896240e-01" purity="2.4136453866958618e-01" nType="-99"/>
        <Node pos="r" depth="1" NCoef="0" IVar="11" Cut="1.8536832928657532e-01" cType="0" res="-4.4793907552957535e-02" rms="3.7718576192855835e-01" purity="1.7372013628482819e-01" nType="0">
          <Node pos="l" depth="2" NCoef="0" IVar="-1" Cut="0.0000000000000000e+00" cType="1" res="-1.5089672990143299e-02" rms="3.7765985727310181e-01" purity="1.7511233687400818e-01" nType="-99"/>
          <Node pos="r" depth="2" NCoef="0" IVar="-1" Cut="0.0000000000000000e+00" cType="1" res="1.4455010183155537e-02" rms="3.6352488398551941e-01" purity="1.5938302874565125e-01" nType="-99"/>
        </Node>
      </Node>
    </BinaryTree>
    <BinaryTree type="DecisionTree" boostWeight="1.0000000000000000e+00" itree="60">
      <Node pos="s" depth="0" NCoef="0" IVar="11" Cut="3.4078878164291382e-01" cType="0" res="-6.0417468193918467e-04" rms="3.9707633852958679e-01" purity="2.2938616573810577e-01" nType="0">
        <Node pos="l" depth="1" NCoef="0" IVar="-1" Cut="0.0000000000000000e+00" cType="1" res="6.0320841148495674e-03" rms="4.3940880894660950e-01" purity="3.1157070398330688e-01" nType="-99"/>
        <Node pos="r" depth="1" NCoef="0" IVar="13" Cut="8.5445135831832886e-01" cType="0" res="-1.8307268619537354e-02" rms="3.6242216825485229e-01" purity="1.7003487050533295e-01" nType="0">
          <Node pos="l" depth="2" NCoef="0" IVar="-1" Cut="0.0000000000000000e+00" cType="1" res="2.0517457742244005e-03" rms="4.1151916980743408e-01" purity="2.4382801353931427e-01" nType="-99"/>
          <Node pos="r" depth="2" NCoef="0" IVar="-1" Cut="0.0000000000000000e+00" cType="1" res="-1.2833209708333015e-02" rms="3.2849183678627014e-01" purity="1.2571841478347778e-01" nType="-99"/>
        </Node>
      </Node>
    </BinaryTree>
    <BinaryTree type="DecisionTree" boostWeight="1.0000000000000000e+00" itree="61">
      <Node pos="s" depth="0" NCoef="0" IVar="7" Cut="4.6210974454879761e-02" cType="1" res="-5.5653508752584457e-04" rms="3.9687323570251465e-01" purity="2.2938616573810577e-01" nType="0">
        <Node pos="l" depth="1" NCoef="0" IVar="-1" Cut="0.0000000000000000e+00" cType="1" res="8.4302071481943130e-03" rms="4.0662840008735657e-01" purity="2.5917011499404907e-01" nType="-99"/>
        <Node pos="r" depth="1" NCoef="0" IVar="7" Cut="4.0363064408302307e-01" cType="1" res="-1.5100224874913692e-02" rms="3.9106568694114685e-01" purity="2.1439927816390991e-01" nType="0">
          <Node pos="l" depth="2" NCoef="0" IVar="-1" Cut="0.0000000000000000e+00" cType="1" res="-2.6249368675053120e-03" rms="3.9002379775047302e-01" purity="2.1600997447967529e-01" nType="-99"/>
          <Node pos="r" depth="2" NCoef="0" IVar="-1" Cut="0.0000000000000000e+00" cType="1" res="-2.0636074244976044e-02" rms="3.9566880464553833e-01" purity="1.9796437025070190e-01" nType="-99"/>
        </Node>
      </Node>
    </BinaryTree>
    <BinaryTree type="DecisionTree" boostWeight="1.0000000000000000e+00" itree="62">
      <Node pos="s" depth="0" NCoef="0" IVar="6" Cut="1.0209167003631592e-01" cType="1" res="-5.0957448547706008e-04" rms="3.9666298031806946e-01" purity="2.2938616573810577e-01" nType="0">
        <Node pos="l" depth="1" NCoef="0" IVar="-1" Cut="0.0000000000000000e+00" cType="1" res="3.3290430437773466e-03" rms="4.0459775924682617e-01" purity="2.4746350944042206e-01" nType="-99"/>
        <Node pos="r" depth="1" NCoef="0" IVar="17" Cut="-3.7016291171312332e-02" cType="0" res="-3.4833896905183792e-02" rms="3.7069192528724670e-01" purity="1.7723253369331360e-01" nType="0">
          <Node pos="l" depth="2" NCoef="0" IVar="-1" Cut="0.0000000000000000e+00" cType="1" res="-8.7055340409278870e-03" rms="3.7323081493377686e-01" purity="1.8315447866916656e-01" nType="-99"/>
          <Node pos="r" depth="2" NCoef="0" IVar="-1" Cut="0.0000000000000000e+00" cType="1" res="-2.4447023868560791e-02" rms="3.4998154640197754e-01" purity="1.3832938671112061e-01" nType="-99"/>
        </Node>
      </Node>
    </BinaryTree>
    <BinaryTree type="DecisionTree" boostWeight="1.0000000000000000e+00" itree="63">
      <Node pos="s" depth="0" NCoef="0" IVar="0" Cut="1.0005996704101562e+01" cType="1" res="-4.6642683446407318e-04" rms="3.9650675654411316e-01" purity="2.2938616573810577e-01" nType="0">
        <Node pos="l" depth="1" NCoef="0" IVar="-1" Cut="0.0000000000000000e+00" cType="1" res="5.1973680965602398e-03" rms="4.2873403429985046e-01" purity="2.8696164488792419e-01" nType="-99"/>
        <Node pos="r" depth="1" NCoef="0" IVar="9" Cut="1.4458373785018921e+00" cType="0" res="-2.0048022270202637e-02" rms="3.6108911037445068e-01" purity="1.7297491431236267e-01" nType="0">
          <Node pos="l" depth="2" NCoef="0" IVar="-1" Cut="0.0000000000000000e+00" cType="1" res="2.0018955692648888e-02" rms="4.3338978290557861e-01" purity="3.4809565544128418e-01" nType="-99"/>
          <Node pos="r" depth="2" NCoef="0" IVar="-1" Cut="0.0000000000000000e+00" cType="1" res="-9.2014027759432793e-03" rms="3.5429781675338745e-01" purity="1.6029000282287598e-01" nType="-99"/>
        </Node>
      </Node>
    </BinaryTree>
    <BinaryTree type="DecisionTree" boostWeight="1.0000000000000000e+00" itree="64">
      <Node pos="s" depth="0" NCoef="0" IVar="10" Cut="1.2628033161163330e+00" cType="1" res="-4.3071983964182436e-04" rms="3.9629924297332764e-01" purity="2.2938616573810577e-01" nType="0">
        <Node pos="l" depth="1" NCoef="0" IVar="-1" Cut="0.0000000000000000e+00" cType="1" res="4.3053464032709599e-03" rms="3.9766839146614075e-01" purity="2.4515329301357269e-01" nType="-99"/>
        <Node pos="r" depth="1" NCoef="0" IVar="14" Cut="1.0008065029978752e-02" cType="1" res="-2.7912039309740067e-02" rms="3.9226120710372925e-01" purity="2.0004035532474518e-01" nType="0">
          <Node pos="l" depth="2" NCoef="0" IVar="-1" Cut="0.0000000000000000e+00" cType="1" res="-5.1730955019593239e-03" rms="3.9576500654220581e-01" purity="2.0725388824939728e-01" nType="-99"/>
          <Node pos="r" depth="2" NCoef="0" IVar="-1" Cut="0.0000000000000000e+00" cType="1" res="-2.0432673394680023e-02" rms="3.7339830398559570e-01" purity="1.6886502504348755e-01" nType="-99"/>
        </Node>
      </Node>
    </BinaryTree>
    <BinaryTree type="DecisionTree" boostWeight="1.0000000000000000e+00" itree="65">
      <Node pos="s" depth="0" NCoef="0" IVar="14" Cut="-1.4371482655405998e-02" cType="0" res="-3.9570042281411588e-04" rms="3.9611202478408813e-01" purity="2.2938616573810577e-01" nType="0">
        <Node pos="l" depth="1" NCoef="0" IVar="-1" Cut="0.0000000000000000e+00" cType="1" res="4.7081066295504570e-03" rms="3.9983358979225159e-01" purity="2.5527632236480713e-01" nType="-99"/>
        <Node pos="r" depth="1" NCoef="0" IVar="13" Cut="9.1733932495117188e-01" cType="0" res="-2.2735882550477982e-02" rms="3.8989812135696411e-01" purity="1.9427567720413208e-01" nType="0">
          <Node pos="l" depth="2" NCoef="0" IVar="-1" Cut="0.0000000000000000e+00" cType="1" res="-1.0445098392665386e-02" rms="3.9189541339874268e-01" purity="1.9544750452041626e-01" nType="-99"/>
          <Node pos="r" depth="2" NCoef="0" IVar="-1" Cut="0.0000000000000000e+00" cType="1" res="-1.6783605096861720e-03" rms="3.8655656576156616e-01" purity="1.9274003803730011e-01" nType="-99"/>
        </Node>
      </Node>
    </BinaryTree>
    <BinaryTree type="DecisionTree" boostWeight="1.0000000000000000e+00" itree="66">
      <Node pos="s" depth="0" NCoef="0" IVar="0" Cut="1.1002998352050781e+01" cType="1" res="-3.6286638351157308e-04" rms="3.9594051241874695e-01" purity="2.2938616573810577e-01" nType="0">
        <Node pos="l" depth="1" NCoef="0" IVar="-1" Cut="0.0000000000000000e+00" cType="1" res="4.4615766964852810e-03" rms="4.2572778463363647e-01" purity="2.8277140855789185e-01" nType="-99"/>
        <Node pos="r" depth="1" NCoef="0" IVar="9" Cut="1.4362058639526367e+00" cType="0" res="-2.1539796143770218e-02" rms="3.5425779223442078e-01" purity="1.6294370591640472e-01" nType="0">
          <Node pos="l" depth="2" NCoef="0" IVar="-1" Cut="0.0000000000000000e+00" cType="1" res="1.7080111429095268e-02" rms="4.2936554551124573e-01" purity="3.3565458655357361e-01" nType="-99"/>
          <Node pos="r" depth="2" NCoef="0" IVar="-1" Cut="0.0000000000000000e+00" cType="1" res="-9.6872132271528244e-03" rms="3.4767320752143860e-01" purity="1.5095023810863495e-01" nType="-99"/>
        </Node>
      </Node>
    </BinaryTree>
    <BinaryTree type="DecisionTree" boostWeight="1.0000000000000000e+00" itree="67">
      <Node pos="s" depth="0" NCoef="0" IVar="7" Cut="3.6968779563903809e-01" cType="1" res="-3.3626012736931443e-04" rms="3.9576870203018188e-01" purity="2.2938616573810577e-01" nType="0">
        <Node pos="l" depth="1" NCoef="0" IVar="-1" Cut="0.0000000000000000e+00" cType="1" res="1.4232068788260221e-03" rms="3.9512228965759277e-01" purity="2.3122608661651611e-01" nType="-99"/>
        <Node pos="r" depth="1" NCoef="0" IVar="8" Cut="2.2863582707941532e-03" cType="1" res="-7.2463780641555786e-02" rms="3.9794394373893738e-01" purity="2.0313701033592224e-01" nType="0">
          <Node pos="l" depth="2" NCoef="0" IVar="-1" Cut="0.0000000000000000e+00" cType="1" res="-3.5991475451737642e-03" rms="4.2003449797630310e-01" purity="2.6293104887008667e-01" nType="-99"/>
          <Node pos="r" depth="2" NCoef="0" IVar="-1" Cut="0.0000000000000000e+00" cType="1" res="-2.2020781412720680e-02" rms="3.9182624220848083e-01" purity="1.9015534222126007e-01" nType="-99"/>
        </Node>
      </Node>
    </BinaryTree>
    <BinaryTree type="DecisionTree" boostWeight="1.0000000000000000e+00" itree="68">
      <Node pos="s" depth="0" NCoef="0" IVar="1" Cut="3.2412767410278320e-02" cType="1" res="-3.0725271790288389e-04" rms="3.9564636349678040e-01" purity="2.2938616573810577e-01" nType="0">
        <Node pos="l" depth="1" NCoef="0" IVar="-1" Cut="0.0000000000000000e+00" cType="1" res="1.0531459003686905e-02" rms="4.4416028261184692e-01" purity="3.5236033797264099e-01" nType="-99"/>
        <Node pos="r" depth="1" NCoef="0" IVar="0" Cut="8.0044975280761719e+00" cType="1" res="-8.4258811548352242e-03" rms="3.8531485199928284e-01" purity="2.0629090070724487e-01" nType="0">
          <Node pos="l" depth="2" NCoef="0" IVar="-1" Cut="0.0000000000000000e+00" cType="1" res="3.1230377499014139e-03" rms="4.1870352625846863e-01" purity="2.6088669896125793e-01" nType="-99"/>
          <Node pos="r" depth="2" NCoef="0" IVar="-1" Cut="0.0000000000000000e+00" cType="1" res="-7.1774697862565517e-03" rms="3.6132669448852539e-01" purity="1.7071436345577240e-01" nType="-99"/>
        </Node>
      </Node>
    </BinaryTree>
    <BinaryTree type="DecisionTree" boostWeight="1.0000000000000000e+00" itree="69">
      <Node pos="s" depth="0" NCoef="0" IVar="10" Cut="1.2628033161163330e+00" cType="1" res="-2.8392355307005346e-04" rms="3.9548602700233459e-01" purity="2.2938616573810577e-01" nType="0">
        <Node pos="l" depth="1" NCoef="0" IVar="-1" Cut="0.0000000000000000e+00" cType="1" res="4.1609257459640503e-03" rms="3.9665663242340088e-01" purity="2.4515329301357269e-01" nType="-99"/>
        <Node pos="r" depth="1" NCoef="0" IVar="14" Cut="8.9480848982930183e-03" cType="1" res="-2.6544665917754173e-02" rms="3.9194792509078979e-01" purity="2.0004035532474518e-01" nType="0">
          <Node pos="l" depth="2" NCoef="0" IVar="-1" Cut="0.0000000000000000e+00" cType="1" res="-4.8363115638494492e-03" rms="3.9567521214485168e-01" purity="2.0752885937690735e-01" nType="-99"/>
          <Node pos="r" depth="2" NCoef="0" IVar="-1" Cut="0.0000000000000000e+00" cType="1" res="-1.9286334514617920e-02" rms="3.7364435195922852e-01" purity="1.6978940367698669e-01" nType="-99"/>
        </Node>
      </Node>
    </BinaryTree>
    <BinaryTree type="DecisionTree" boostWeight="1.0000000000000000e+00" itree="70">
      <Node pos="s" depth="0" NCoef="0" IVar="17" Cut="-2.7372801676392555e-02" cType="0" res="-2.6297118165530264e-04" rms="3.9531263709068298e-01" purity="2.2938616573810577e-01" nType="0">
        <Node pos="l" depth="1" NCoef="0" IVar="-1" Cut="0.0000000000000000e+00" cType="1" res="1.7645239131525159e-03" rms="3.9756765961647034e-01" purity="2.3658205568790436e-01" nType="-99"/>
        <Node pos="r" depth="1" NCoef="0" IVar="11" Cut="1.2919451296329498e-01" cType="0" res="-5.4605957120656967e-02" rms="3.7045925855636597e-01" purity="1.6602468490600586e-01" nType="0">
          <Node pos="l" depth="2" NCoef="0" IVar="-1" Cut="0.0000000000000000e+00" cType="1" res="-1.8438404425978661e-02" rms="3.7585094571113586e-01" purity="1.7336051166057587e-01" nType="-99"/>
          <Node pos="r" depth="2" NCoef="0" IVar="-1" Cut="0.0000000000000000e+00" cType="1" res="-1.6024634242057800e-03" rms="3.3953303098678589e-01" purity="1.3172645866870880e-01" nType="-99"/>
        </Node>
      </Node>
    </BinaryTree>
    <BinaryTree type="DecisionTree" boostWeight="1.0000000000000000e+00" itree="71">
      <Node pos="s" depth="0" NCoef="0" IVar="11" Cut="3.5476773977279663e-01" cType="0" res="-2.4221511557698250e-04" rms="3.9519402384757996e-01" purity="2.2938616573810577e-01" nType="0">
        <Node pos="l" depth="1" NCoef="0" IVar="-1" Cut="0.0000000000000000e+00" cType="1" res="5.5230665020644665e-03" rms="4.3619915843009949e-01" purity="3.1131821870803833e-01" nType="-99"/>
        <Node pos="r" depth="1" NCoef="0" IVar="8" Cut="6.8133503198623657e-02" cType="0" res="-1.5697820112109184e-02" rms="3.6294963955879211e-01" purity="1.7202939093112946e-01" nType="0">
          <Node pos="l" depth="2" NCoef="0" IVar="-1" Cut="0.0000000000000000e+00" cType="1" res="4.0115002775564790e-05" rms="3.8709875941276550e-01" purity="2.0662711560726166e-01" nType="-99"/>
          <Node pos="r" depth="2" NCoef="0" IVar="-1" Cut="0.0000000000000000e+00" cType="1" res="-1.4796071685850620e-02" rms="3.2340651750564575e-01" purity="1.2188574671745300e-01" nType="-99"/>
        </Node>
      </Node>
    </BinaryTree>
    <BinaryTree type="DecisionTree" boostWeight="1.0000000000000000e+00" itree="72">
      <Node pos="s" depth="0" NCoef="0" IVar="17" Cut="3.0468147248029709e-02" cType="1" res="-2.2873270791023970e-04" rms="3.9501881599426270e-01" purity="2.2938616573810577e-01" nType="0">
        <Node pos="l" depth="1" NCoef="0" IVar="-1" Cut="0.0000000000000000e+00" cType="1" res="1.7561877612024546e-03" rms="3.9750480651855469e-01" purity="2.3697051405906677e-01" nType="-99"/>
        <Node pos="r" depth="1" NCoef="0" IVar="11" Cut="8.9006654918193817e-02" cType="0" res="-5.7802334427833557e-02" rms="3.6578375101089478e-01" purity="1.5787814557552338e-01" nType="0">
          <Node pos="l" depth="2" NCoef="0" IVar="-1" Cut="0.0000000000000000e+00" cType="1" res="-1.9977182149887085e-02" rms="3.6554002761840820e-01" purity="1.5899428725242615e-01" nType="-99"/>
          <Node pos="r" depth="2" NCoef="0" IVar="-1" Cut="0.0000000000000000e+00" cType="1" res="5.0402930937707424e-03" rms="3.5960507392883301e-01" purity="1.5073814988136292e-01" nType="-99"/>
        </Node>
      </Node>
    </BinaryTree>
    <BinaryTree type="DecisionTree" boostWeight="1.0000000000000000e+00" itree="73">
      <Node pos="s" depth="0" NCoef="0" IVar="7" Cut="4.6210974454879761e-02" cType="1" res="-2.1230883430689573e-04" rms="3.9489004015922546e-01" purity="2.2938616573810577e-01" nType="0">
        <Node pos="l" depth="1" NCoef="0" IVar="-1" Cut="0.0000000000000000e+00" cType="1" res="7.6125198975205421e-03" rms="4.0412294864654541e-01" purity="2.5917011499404907e-01" nType="-99"/>
        <Node pos="r" depth="1" NCoef="0" IVar="7" Cut="4.9586784839630127e-01" cType="1" res="-1.3208988122642040e-02" rms="3.8951435685157776e-01" purity="2.1439927816390991e-01" nType="0">
          <Node pos="l" depth="2" NCoef="0" IVar="-1" Cut="0.0000000000000000e+00" cType="1" res="-2.5174329057335854e-03" rms="3.8889616727828979e-01" purity="2.1627171337604523e-01" nType="-99"/>
          <Node pos="r" depth="2" NCoef="0" IVar="-1" Cut="0.0000000000000000e+00" cType="1" res="-2.0483948290348053e-02" rms="3.9187046885490417e-01" purity="1.8988692760467529e-01" nType="-99"/>
        </Node>
      </Node>
    </BinaryTree>
    <BinaryTree type="DecisionTree" boostWeight="1.0000000000000000e+00" itree="74">
      <Node pos="s" depth="0" NCoef="0" IVar="14" Cut="-3.2391149550676346e-02" cType="0" res="-1.9808167417068034e-04" rms="3.9471825957298279e-01" purity="2.2938616573810577e-01" nType="0">
        <Node pos="l" depth="1" NCoef="0" IVar="-1" Cut="0.0000000000000000e+00" cType="1" res="3.1440909951925278e-03" rms="3.9924591779708862e-01" purity="2.4897053837776184e-01" nType="-99"/>
        <Node pos="r" depth="1" NCoef="0" IVar="11" Cut="1.5978325903415680e-01" cType="0" res="-2.9150044545531273e-02" rms="3.8091996312141418e-01" purity="1.7736530303955078e-01" nType="0">
          <Node pos="l" depth="2" NCoef="0" IVar="-1" Cut="0.0000000000000000e+00" cType="1" res="-1.3442092575132847e-02" rms="3.9266923069953918e-01" purity="1.9334016740322113e-01" nType="-99"/>
          <Node pos="r" depth="2" NCoef="0" IVar="-1" Cut="0.0000000000000000e+00" cType="1" res="2.0788413530681282e-04" rms="3.5973712801933289e-01" purity="1.5232601761817932e-01" nType="-99"/>
        </Node>
      </Node>
    </BinaryTree>
    <BinaryTree type="DecisionTree" boostWeight="1.0000000000000000e+00" itree="75">
      <Node pos="s" depth="0" NCoef="0" IVar="11" Cut="1.0813867300748825e-01" cType="0" res="-1.8473887757863849e-04" rms="3.9456075429916382e-01" purity="2.2938616573810577e-01" nType="0">
        <Node pos="l" depth="1" NCoef="0" IVar="-1" Cut="0.0000000000000000e+00" cType="1" res="3.6911582574248314e-03" rms="4.3094295263290405e-01" purity="2.9654121398925781e-01" nType="-99"/>
        <Node pos="r" depth="1" NCoef="0" IVar="14" Cut="-1.8782369792461395e-02" cType="1" res="-2.2693771868944168e-02" rms="3.2909739017486572e-01" purity="1.2532421946525574e-01" nType="0">
          <Node pos="l" depth="2" NCoef="0" IVar="-1" Cut="0.0000000000000000e+00" cType="1" res="1.6542521188966930e-04" rms="3.5553753376007080e-01" purity="1.4774788916110992e-01" nType="-99"/>
          <Node pos="r" depth="2" NCoef="0" IVar="-1" Cut="0.0000000000000000e+00" cType="1" res="-1.3833365403115749e-02" rms="3.1396088004112244e-01" purity="1.1378224194049835e-01" nType="-99"/>
        </Node>
      </Node>
    </BinaryTree>
    <BinaryTree type="DecisionTree" boostWeight="1.0000000000000000e+00" itree="76">
      <Node pos="s" depth="0" NCoef="0" IVar="10" Cut="3.0726613998413086e+00" cType="1" res="-1.7606433539185673e-04" rms="3.9443308115005493e-01" purity="2.2938616573810577e-01" nType="0">
        <Node pos="l" depth="1" NCoef="0" IVar="-1" Cut="0.0000000000000000e+00" cType="1" res="2.8459262102842331e-03" rms="3.9767068624496460e-01" purity="2.4407495558261871e-01" nType="-99"/>
        <Node pos="r" depth="1" NCoef="0" IVar="11" Cut="1.8523339927196503e-01" cType="0" res="-3.2263442873954773e-02" rms="3.8179501891136169e-01" purity="1.8088056147098541e-01" nType="0">
          <Node pos="l" depth="2" NCoef="0" IVar="-1" Cut="0.0000000000000000e+00" cType="1" res="-1.1851396411657333e-02" rms="3.8305178284645081e-01" purity="1.8328052759170532e-01" nType="-99"/>
          <Node pos="r" depth="2" NCoef="0" IVar="-1" Cut="0.0000000000000000e+00" cType="1" res="1.5012318268418312e-02" rms="3.6504432559013367e-01" purity="1.6165560483932495e-01" nType="-99"/>
        </Node>
      </Node>
    </BinaryTree>
    <BinaryTree type="DecisionTree" boostWeight="1.0000000000000000e+00" itree="77">
      <Node pos="s" depth="0" NCoef="0" IVar="11" Cut="4.0269565582275391e-01" cType="0" res="-1.6564640100114048e-04" rms="3.9429569244384766e-01" purity="2.2938616573810577e-01" nType="0">
        <Node pos="l" depth="1" NCoef="0" IVar="-1" Cut="0.0000000000000000e+00" cType="1" res="5.5722319521009922e-03" rms="4.3408924341201782e-01" purity="3.1056499481201172e-01" nType="-99"/>
        <Node pos="r" depth="1" NCoef="0" IVar="13" Cut="8.0453276634216309e-01" cType="0" res="-1.4068871736526489e-02" rms="3.6633422970771790e-01" purity="1.7824187874794006e-01" nType="0">
          <Node pos="l" depth="2" NCoef="0" IVar="-1" Cut="0.0000000000000000e+00" cType="1" res="1.5905622858554125e-03" rms="4.0903615951538086e-01" purity="2.4421630799770355e-01" nType="-99"/>
          <Node pos="r" depth="2" NCoef="0" IVar="-1" Cut="0.0000000000000000e+00" cType="1" res="-1.1786589398980141e-02" rms="3.2677930593490601e-01" purity="1.2473610788583755e-01" nType="-99"/>
        </Node>
      </Node>
    </BinaryTree>
    <BinaryTree type="DecisionTree" boostWeight="1.0000000000000000e+00" itree="78">
      <Node pos="s" depth="0" NCoef="0" IVar="6" Cut="1.0209167003631592e-01" cType="1" res="-1.5888040070421994e-04" rms="3.9413267374038696e-01" purity="2.2938616573810577e-01" nType="0">
        <Node pos="l" depth="1" NCoef="0" IVar="-1" Cut="0.0000000000000000e+00" cType="1" res="2.9109723400324583e-03" rms="4.0187019109725952e-01" purity="2.4746350944042206e-01" nType="-99"/>
        <Node pos="r" depth="1" NCoef="0" IVar="8" Cut="1.7866412177681923e-02" cType="1" res="-2.9176214709877968e-02" rms="3.6937454342842102e-01" purity="1.7723253369331360e-01" nType="0">
          <Node pos="l" depth="2" NCoef="0" IVar="-1" Cut="0.0000000000000000e+00" cType="1" res="1.5044142492115498e-03" rms="3.8472941517829895e-01" purity="2.0934043824672699e-01" nType="-99"/>
          <Node pos="r" depth="2" NCoef="0" IVar="-1" Cut="0.0000000000000000e+00" cType="1" res="-1.1844558641314507e-02" rms="3.6519843339920044e-01" purity="1.6964976489543915e-01" nType="-99"/>
        </Node>
      </Node>
    </BinaryTree>
    <BinaryTree type="DecisionTree" boostWeight="1.0000000000000000e+00" itree="79">
      <Node pos="s" depth="0" NCoef="0" IVar="7" Cut="3.6968779563903809e-01" cType="1" res="-1.4895168715156615e-04" rms="3.9401322603225708e-01" purity="2.2938616573810577e-01" nType="0">
        <Node pos="l" depth="1" NCoef="0" IVar="-1" Cut="0.0000000000000000e+00" cType="1" res="1.3015707954764366e-03" rms="3.9339181780815125e-01" purity="2.3122608661651611e-01" nType="-99"/>
        <Node pos="r" depth="1" NCoef="0" IVar="14" Cut="-2.5065455585718155e-02" cType="0" res="-6.3486941158771515e-02" rms="3.9740923047065735e-01" purity="2.0313701033592224e-01" nType="0">
          <Node pos="l" depth="2" NCoef="0" IVar="-1" Cut="0.0000000000000000e+00" cType="1" res="-2.0836863666772842e-02" rms="4.0090930461883545e-01" purity="2.1273948252201080e-01" nType="-99"/>
          <Node pos="r" depth="2" NCoef="0" IVar="-1" Cut="0.0000000000000000e+00" cType="1" res="-8.9918579906225204e-03" rms="3.8934871554374695e-01" purity="1.8760064244270325e-01" nType="-99"/>
        </Node>
      </Node>
    </BinaryTree>
    <BinaryTree type="DecisionTree" boostWeight="1.0000000000000000e+00" itree="80">
      <Node pos="s" depth="0" NCoef="0" IVar="14" Cut="-1.2251521460711956e-02" cType="0" res="-1.3739043788518757e-04" rms="3.9391857385635376e-01" purity="2.2938616573810577e-01" nType="0">
        <Node pos="l" depth="1" NCoef="0" IVar="-1" Cut="0.0000000000000000e+00" cType="1" res="4.4208159670233727e-03" rms="3.9541330933570862e-01" purity="2.5421568751335144e-01" nType="-99"/>
        <Node pos="r" depth="1" NCoef="0" IVar="6" Cut="3.5732086747884750e-02" cType="0" res="-1.8790923058986664e-02" rms="3.9125740528106689e-01" purity="1.9865205883979797e-01" nType="0">
          <Node pos="l" depth="2" NCoef="0" IVar="-1" Cut="0.0000000000000000e+00" cType="1" res="-3.4455682616680861e-03" rms="3.9463895559310913e-01" purity="2.0544084906578064e-01" nType="-99"/>
          <Node pos="r" depth="2" NCoef="0" IVar="-1" Cut="0.0000000000000000e+00" cType="1" res="-1.5243224799633026e-02" rms="3.7503302097320557e-01" purity="1.7010793089866638e-01" nType="-99"/>
        </Node>
      </Node>
    </BinaryTree>
    <BinaryTree type="DecisionTree" boostWeight="1.0000000000000000e+00" itree="81">
      <Node pos="s" depth="0" NCoef="0" IVar="8" Cut="9.1726377606391907e-02" cType="0" res="-1.2949861411470920e-04" rms="3.9376544952392578e-01" purity="2.2938616573810577e-01" nType="0">
        <Node pos="l" depth="1" NCoef="0" IVar="-1" Cut="0.0000000000000000e+00" cType="1" res="3.8519578520208597e-03" rms="4.1348686814308167e-01" purity="2.6540267467498779e-01" nType="-99"/>
        <Node pos="r" depth="1" NCoef="0" IVar="0" Cut="8.0044975280761719e+00" cType="1" res="-2.0030897110700607e-02" rms="3.6262619495391846e-01" purity="1.7762011289596558e-01" nType="0">
          <Node pos="l" depth="2" NCoef="0" IVar="-1" Cut="0.0000000000000000e+00" cType="1" res="3.5429827403277159e-03" rms="4.1819089651107788e-01" purity="2.6860493421554565e-01" nType="-99"/>
          <Node pos="r" depth="2" NCoef="0" IVar="-1" Cut="0.0000000000000000e+00" cType="1" res="-1.3118742965161800e-02" rms="3.3241057395935059e-01" purity="1.3512928783893585e-01" nType="-99"/>
        </Node>
      </Node>
    </BinaryTree>
    <BinaryTree type="DecisionTree" boostWeight="1.0000000000000000e+00" itree="82">
      <Node pos="s" depth="0" NCoef="0" IVar="10" Cut="1.2628033161163330e+00" cType="1" res="-1.2608351244125515e-04" rms="3.9361128211021423e-01" purity="2.2938616573810577e-01" nType="0">
        <Node pos="l" depth="1" NCoef="0" IVar="-1" Cut="0.0000000000000000e+00" cType="1" res="3.7265329156070948e-03" rms="3.9441126585006714e-01" purity="2.4515329301357269e-01" nType="-99"/>
        <Node pos="r" depth="1" NCoef="0" IVar="14" Cut="8.9480848982930183e-03" cType="1" res="-2.3309977725148201e-02" rms="3.9106303453445435e-01" purity="2.0004035532474518e-01" nType="0">
          <Node pos="l" depth="2" NCoef="0" IVar="-1" Cut="0.0000000000000000e+00" cType="1" res="-3.9784270338714123e-03" rms="3.9469173550605774e-01" purity="2.0752885937690735e-01" nType="-99"/>
          <Node pos="r" depth="2" NCoef="0" IVar="-1" Cut="0.0000000000000000e+00" cType="1" res="-1.8418332561850548e-02" rms="3.7327030301094055e-01" purity="1.6978940367698669e-01" nType="-99"/>
        </Node>
      </Node>
    </BinaryTree>
    <BinaryTree type="DecisionTree" boostWeight="1.0000000000000000e+00" itree="83">
      <Node pos="s" depth="0" NCoef="0" IVar="5" Cut="2.5433376431465149e-02" cType="1" res="-1.1974365042988211e-04" rms="3.9346370100975037e-01" purity="2.2938616573810577e-01" nType="0">
        <Node pos="l" depth="1" NCoef="0" IVar="-1" Cut="0.0000000000000000e+00" cType="1" res="4.0087373927235603e-03" rms="4.0345582365989685e-01" purity="2.5534284114837646e-01" nType="-99"/>
        <Node pos="r" depth="1" NCoef="0" IVar="4" Cut="7.1380442380905151e-01" cType="0" res="-1.9832069054245949e-02" rms="3.7788954377174377e-01" purity="1.9238193333148956e-01" nType="0">
          <Node pos="l" depth="2" NCoef="0" IVar="-1" Cut="0.0000000000000000e+00" cType="1" res="3.8602787535637617e-03" rms="3.9382299780845642e-01" purity="2.2876635193824768e-01" nType="-99"/>
